user_id,num_interactions,top5_has_weights,top5_minCFset_index,top5_minCFset_weight,top5_gap,top5_top10pos_index,top5_top10pos_weights,top5_top10neg_index,top5_top10neg_weights,top5_sum_pos,top5_sum_neg,top10_has_weights,top10_minCFset_index,top10_minCFset_weight,top10_gap,top10_top10pos_index,top10_top10pos_weights,top10_top10neg_index,top10_top10neg_weights,top10_sum_pos,top10_sum_neg,top20_has_weights,top20_minCFset_index,top20_minCFset_weight,top20_gap,top20_top10pos_index,top20_top10pos_weights,top20_top10neg_index,top20_top10neg_weights,top20_sum_pos,top20_sum_neg
200,385,0,-1,-1,0.0,[],[],[],[],0.0,0.0,0,-1,-1,0.0,[],[],[],[],0.0,0.0,385,[],[],-2.666166198304552,"[193, 194, 201, 131, 21, 188, 141, 151, 121, 133]","[3.1765036008127265, 2.9581087083206414, 2.4032557951259754, 2.3042469269509427, 2.292637346196452, 2.146103312074809, 2.0021131683065683, 1.9404377533253254, 1.8593413480988201, 1.7968389930230118]","[145, 22, 2, 21, 121, 83, 152, 124, 75, 5]","[-2.481929552316958, -2.478693795607923, -2.4401276781605548, -2.409188991819995, -2.1601632320440496, -2.140864667388184, -2.1374002897732907, -2.127073078786847, -2.043205881619085, -2.0185332342251416]",149.3938903223251,-145.72772412402054
201,19,19,"[2, 1, 0, 8, 5, 6, 9, 4, 3, 7]","[-0.09985676276538263, -0.06803660108752088, -0.0580557843563553, -0.05794907041041251, -0.047930406369406924, -0.039034591855672054, -0.022578180513192856, -0.018747617849034393, -0.008446214592318787, -0.002607365481660845]",0.6920816148130565,"[0, 7, 5, 4, 1, 6, 8, 2, 3]","[0.08466509962792826, 0.07297326076281314, 0.05618813663410724, 0.038968758919979384, 0.03341535593804083, 0.008404067127382068, 0.008263548900853486, 0.0033086584474494984, 0.0017314988283897053]","[2, 1, 0, 8, 5, 6, 9, 4, 3, 7]","[-0.09985676276538263, -0.06803660108752088, -0.0580557843563553, -0.05794907041041251, -0.047930406369406924, -0.039034591855672054, -0.022578180513192856, -0.018747617849034393, -0.008446214592318787, -0.002607365481660845]",0.30791838518694364,-0.42324259528095726,19,"[2, 1, 0, 8, 5, 6, 9, 4, 3, 7]","[-0.09985676276538263, -0.06803660108752088, -0.0580557843563553, -0.05794907041041251, -0.047930406369406924, -0.039034591855672054, -0.022578180513192856, -0.018747617849034393, -0.008446214592318787, -0.002607365481660845]",0.6920816148130565,"[0, 7, 5, 4, 1, 6, 8, 2, 3]","[0.08466509962792826, 0.07297326076281314, 0.05618813663410724, 0.038968758919979384, 0.03341535593804083, 0.008404067127382068, 0.008263548900853486, 0.0033086584474494984, 0.0017314988283897053]","[2, 1, 0, 8, 5, 6, 9, 4, 3, 7]","[-0.09985676276538263, -0.06803660108752088, -0.0580557843563553, -0.05794907041041251, -0.047930406369406924, -0.039034591855672054, -0.022578180513192856, -0.018747617849034393, -0.008446214592318787, -0.002607365481660845]",0.30791838518694364,-0.42324259528095726,19,"[2, 1, 0, 8, 5, 6, 9, 4, 3, 7]","[-0.09985676276538263, -0.06803660108752088, -0.0580557843563553, -0.05794907041041251, -0.047930406369406924, -0.039034591855672054, -0.022578180513192856, -0.018747617849034393, -0.008446214592318787, -0.002607365481660845]",0.6920816148130565,"[0, 7, 5, 4, 1, 6, 8, 2, 3]","[0.08466509962792826, 0.07297326076281314, 0.05618813663410724, 0.038968758919979384, 0.03341535593804083, 0.008404067127382068, 0.008263548900853486, 0.0033086584474494984, 0.0017314988283897053]","[2, 1, 0, 8, 5, 6, 9, 4, 3, 7]","[-0.09985676276538263, -0.06803660108752088, -0.0580557843563553, -0.05794907041041251, -0.047930406369406924, -0.039034591855672054, -0.022578180513192856, -0.018747617849034393, -0.008446214592318787, -0.002607365481660845]",0.30791838518694364,-0.42324259528095726
202,42,42,"[10, 12]","[-0.6110709422763554, -0.543176161819096]",-0.41446163998314867,"[14, 7, 15, 16, 11, 8, 3, 10, 12, 6]","[1.2060455364294318, 0.725701579091297, 0.5573379765798492, 0.5344140086790602, 0.519547307146422, 0.4511431433308995, 0.4150329456803152, 0.3957039533548363, 0.36466938930214, 0.32868058222760826]","[10, 12, 14, 0, 18, 19, 5, 3, 4, 11]","[-0.6110709422763554, -0.543176161819096, -0.4901097463159354, -0.4086231538831949, -0.4072046307376668, -0.3815915171858147, -0.36344535792295873, -0.3413064818012233, -0.3341711986060182, -0.30618288347454553]",6.869398804299626,-6.609184268411929,42,"[10, 19, 0]","[-0.33495679369753273, -0.27367576763961604, -0.25262416630872125]",-0.019739501335771736,"[14, 7, 11, 16, 6, 3, 15, 8, 10, 12]","[0.7328523688588295, 0.5404783949851026, 0.43394325646303467, 0.3441707756464518, 0.29194894145406514, 0.29167826218049864, 0.2722551472418086, 0.2526913984495454, 0.21944247153034624, 0.18424355505022869]","[10, 19, 0, 18, 14, 12, 23, 4, 6, 16]","[-0.33495679369753273, -0.27367576763961604, -0.25262416630872125, -0.24470319831478143, -0.22702351885083574, -0.2249124746146874, -0.2231574531395027, -0.21655905890315122, -0.20071221613770357, -0.18959288597545643]",4.172659136278011,-4.01417636258811,42,"[10, 19, 0]","[-0.33495679369753273, -0.27367576763961604, -0.25262416630872125]",-0.019739501335771736,"[14, 7, 11, 16, 6, 3, 15, 8, 10, 12]","[0.7328523688588295, 0.5404783949851026, 0.43394325646303467, 0.3441707756464518, 0.29194894145406514, 0.29167826218049864, 0.2722551472418086, 0.2526913984495454, 0.21944247153034624, 0.18424355505022869]","[10, 19, 0, 18, 14, 12, 23, 4, 6, 16]","[-0.33495679369753273, -0.27367576763961604, -0.25262416630872125, -0.24470319831478143, -0.22702351885083574, -0.2249124746146874, -0.2231574531395027, -0.21655905890315122, -0.20071221613770357, -0.18959288597545643]",4.172659136278011,-4.01417636258811
203,41,41,"[0, 7, 17, 1, 9, 4, 16, 13, 6]","[-0.14473123260232168, -0.12914313793671803, -0.11072320019211036, -0.10658602362761599, -0.09940184481111854, -0.09903999590170652, -0.09454559381580044, -0.09318137881751654, -0.08778134908799391]",-0.04226206158311717,"[9, 11, 13, 1, 15, 17, 0, 4, 2, 7]","[0.1766080480164887, 0.17590666496806492, 0.16865806537528136, 0.1427752069457643, 0.13541285819932408, 0.1312845806082808, 0.1249224116986077, 0.10666365807267067, 0.07788648989476123, 0.0767441361379214]","[0, 7, 17, 1, 9, 4, 16, 13, 6, 15]","[-0.14473123260232168, -0.12914313793671803, -0.11072320019211036, -0.10658602362761599, -0.09940184481111854, -0.09903999590170652, -0.09454559381580044, -0.09318137881751654, -0.08778134908799391, -0.082978681612322]",1.7662698286629945,-1.6891415238727794,41,"[1, 0, 7, 21, 18, 13, 3, 14, 20, 5, 4, 2, 17, 8, 10, 15, 12, 9, 19, 11, 16, 6]","[-0.09983555374987015, -0.08529649447110618, -0.07222308725772252, -0.06903155590428046, -0.06577822615013092, -0.05802866935840156, -0.0537937582986045, -0.04217761278381285, -0.03781968285745576, -0.0331123658819072, -0.032912734476710774, -0.03188140463267402, -0.031805293063307406, -0.03108166579660278, -0.029442231270753082, -0.02884052105876085, -0.023520209878045373, -0.0198258352694459, -0.01233566439052335, -0.012094935057777088, -0.005337898597820405, -0.004892433440124515]",0.021687064025686195,"[13, 11, 9, 14, 15, 1, 0, 5, 4, 10]","[0.11079784566401839, 0.10623298687256524, 0.10550802668765716, 0.09015496899263464, 0.0862496665380933, 0.06353101351514569, 0.06295350278690917, 0.051903366244128564, 0.044746464980016526, 0.03825558626809521]","[1, 0, 7, 21, 18, 13, 3, 14, 20, 5]","[-0.09983555374987015, -0.08529649447110618, -0.07222308725772252, -0.06903155590428046, -0.06577822615013092, -0.05802866935840156, -0.0537937582986045, -0.04217761278381285, -0.03781968285745576, -0.0331123658819072]",0.9783129359743137,-0.8810678336458376,41,"[1, 0, 7, 21, 18, 13, 3, 14, 20, 5, 4, 2, 17, 8, 10, 15, 12, 9, 19, 11, 16, 6]","[-0.09983555374987015, -0.08529649447110618, -0.07222308725772252, -0.06903155590428046, -0.06577822615013092, -0.05802866935840156, -0.0537937582986045, -0.04217761278381285, -0.03781968285745576, -0.0331123658819072, -0.032912734476710774, -0.03188140463267402, -0.031805293063307406, -0.03108166579660278, -0.029442231270753082, -0.02884052105876085, -0.023520209878045373, -0.0198258352694459, -0.01233566439052335, -0.012094935057777088, -0.005337898597820405, -0.004892433440124515]",0.021687064025686195,"[13, 11, 9, 14, 15, 1, 0, 5, 4, 10]","[0.11079784566401839, 0.10623298687256524, 0.10550802668765716, 0.09015496899263464, 0.0862496665380933, 0.06353101351514569, 0.06295350278690917, 0.051903366244128564, 0.044746464980016526, 0.03825558626809521]","[1, 0, 7, 21, 18, 13, 3, 14, 20, 5]","[-0.09983555374987015, -0.08529649447110618, -0.07222308725772252, -0.06903155590428046, -0.06577822615013092, -0.05802866935840156, -0.0537937582986045, -0.04217761278381285, -0.03781968285745576, -0.0331123658819072]",0.9783129359743137,-0.8810678336458376
204,21,21,"[3, 4, 8, 5, 0, 7, 1, 6, 2]","[-0.05453453298895488, -0.03943198239541609, -0.03543954882569917, -0.03338111082689411, -0.02379382724021668, -0.013414825090518619, -0.013287050877326036, -0.011023569434762251, -0.00483930410162975]",0.7773670518287246,"[10, 4, 7, 2, 5, 3, 0, 6, 11, 1]","[0.04418080658392155, 0.025222600376809783, 0.025087799162340024, 0.020530454810184593, 0.01929681496130691, 0.019187016087323743, 0.015482201112355662, 0.015080879312955238, 0.013292411412934775, 0.012203820661024462]","[3, 4, 8, 5, 0, 7, 1, 6, 2]","[-0.05453453298895488, -0.03943198239541609, -0.03543954882569917, -0.03338111082689411, -0.02379382724021668, -0.013414825090518619, -0.013287050877326036, -0.011023569434762251, -0.00483930410162975]",0.2226329481712753,-0.22914575178141758,21,"[3, 4, 8, 5, 0, 7, 1, 6, 2]","[-0.05453453298895488, -0.03943198239541609, -0.03543954882569917, -0.03338111082689411, -0.02379382724021668, -0.013414825090518619, -0.013287050877326036, -0.011023569434762251, -0.00483930410162975]",0.7773670518287246,"[10, 4, 7, 2, 5, 3, 0, 6, 11, 1]","[0.04418080658392155, 0.025222600376809783, 0.025087799162340024, 0.020530454810184593, 0.01929681496130691, 0.019187016087323743, 0.015482201112355662, 0.015080879312955238, 0.013292411412934775, 0.012203820661024462]","[3, 4, 8, 5, 0, 7, 1, 6, 2]","[-0.05453453298895488, -0.03943198239541609, -0.03543954882569917, -0.03338111082689411, -0.02379382724021668, -0.013414825090518619, -0.013287050877326036, -0.011023569434762251, -0.00483930410162975]",0.2226329481712753,-0.22914575178141758,21,"[3, 4, 8, 5, 0, 7, 1, 6, 2]","[-0.05453453298895488, -0.03943198239541609, -0.03543954882569917, -0.03338111082689411, -0.02379382724021668, -0.013414825090518619, -0.013287050877326036, -0.011023569434762251, -0.00483930410162975]",0.7773670518287246,"[10, 4, 7, 2, 5, 3, 0, 6, 11, 1]","[0.04418080658392155, 0.025222600376809783, 0.025087799162340024, 0.020530454810184593, 0.01929681496130691, 0.019187016087323743, 0.015482201112355662, 0.015080879312955238, 0.013292411412934775, 0.012203820661024462]","[3, 4, 8, 5, 0, 7, 1, 6, 2]","[-0.05453453298895488, -0.03943198239541609, -0.03543954882569917, -0.03338111082689411, -0.02379382724021668, -0.013414825090518619, -0.013287050877326036, -0.011023569434762251, -0.00483930410162975]",0.2226329481712753,-0.22914575178141758
205,63,63,[],[],-0.5783060567660456,"[1, 2, 25, 14, 0, 27, 30, 8, 22, 15]","[1.1121645954429873, 0.4945225702216185, 0.4564638938153345, 0.41822349071756965, 0.3923152927819022, 0.38405677090089196, 0.38362118066787687, 0.3703769930993132, 0.3437524732844651, 0.3427304297456519]","[26, 0, 10, 18, 28, 5, 4, 21, 14, 1]","[-0.6447955041530754, -0.5232073648677787, -0.49298318418010967, -0.4202654986831432, -0.39535427298896875, -0.3854992689759424, -0.38468806985497694, -0.33962234003356245, -0.2795431851690796, -0.2589418639239685]",8.376373256729464,-6.798067199963418,63,[],[],-0.20306068430532243,"[1, 13, 26, 32, 28, 8, 4, 19, 0, 2]","[0.6286956711462908, 0.3414682857470523, 0.3356852151371685, 0.2939231813627546, 0.2929832597176694, 0.2540724449130234, 0.24899398352257326, 0.22392690502405088, 0.2183210759703004, 0.20931306476204237]","[5, 4, 1, 23, 24, 11, 2, 0, 17, 20]","[-0.3663847626858643, -0.314203974586701, -0.2730749326959253, -0.2582786913812499, -0.2519790384141196, -0.25126083221410705, -0.247058781733828, -0.242372486436884, -0.20816195374271054, -0.2042673219319595]",5.4768379346616385,-4.273777250356316,63,[],[],-0.20306068430532243,"[1, 13, 26, 32, 28, 8, 4, 19, 0, 2]","[0.6286956711462908, 0.3414682857470523, 0.3356852151371685, 0.2939231813627546, 0.2929832597176694, 0.2540724449130234, 0.24899398352257326, 0.22392690502405088, 0.2183210759703004, 0.20931306476204237]","[5, 4, 1, 23, 24, 11, 2, 0, 17, 20]","[-0.3663847626858643, -0.314203974586701, -0.2730749326959253, -0.2582786913812499, -0.2519790384141196, -0.25126083221410705, -0.247058781733828, -0.242372486436884, -0.20816195374271054, -0.2042673219319595]",5.4768379346616385,-4.273777250356316
206,229,229,"[100, 77, 22, 105, 98, 79, 4]","[-0.15735076892580135, -0.15421866552903177, -0.1436086404139187, -0.14216584220021275, -0.138099783544691, -0.12479986109382278, -0.1210798438918068]",-0.08233764121038387,"[4, 12, 79, 60, 107, 86, 19, 13, 39, 53]","[0.15131664117493346, 0.1473884698788033, 0.14605106959689554, 0.14490561677759892, 0.13654259027929888, 0.13614171219012514, 0.13478227492570294, 0.13455856285619114, 0.13224454079750253, 0.13138241248442947]","[100, 77, 22, 105, 98, 79, 4, 1, 7, 95]","[-0.15735076892580135, -0.15421866552903177, -0.1436086404139187, -0.14216584220021275, -0.138099783544691, -0.12479986109382278, -0.1210798438918068, -0.11496998420046464, -0.11304557398599507, -0.11214536615657499]",6.230293497583371,-6.129279261972272,229,"[100, 77, 22, 105, 98, 79, 4]","[-0.15735076892580135, -0.15421866552903177, -0.1436086404139187, -0.14216584220021275, -0.138099783544691, -0.12479986109382278, -0.1210798438918068]",-0.08233764121038387,"[4, 12, 79, 60, 107, 86, 19, 13, 39, 53]","[0.15131664117493346, 0.1473884698788033, 0.14605106959689554, 0.14490561677759892, 0.13654259027929888, 0.13614171219012514, 0.13478227492570294, 0.13455856285619114, 0.13224454079750253, 0.13138241248442947]","[100, 77, 22, 105, 98, 79, 4, 1, 7, 95]","[-0.15735076892580135, -0.15421866552903177, -0.1436086404139187, -0.14216584220021275, -0.138099783544691, -0.12479986109382278, -0.1210798438918068, -0.11496998420046464, -0.11304557398599507, -0.11214536615657499]",6.230293497583371,-6.129279261972272,229,"[100, 77, 22, 105, 98, 79, 4]","[-0.15735076892580135, -0.15421866552903177, -0.1436086404139187, -0.14216584220021275, -0.138099783544691, -0.12479986109382278, -0.1210798438918068]",-0.08233764121038387,"[4, 12, 79, 60, 107, 86, 19, 13, 39, 53]","[0.15131664117493346, 0.1473884698788033, 0.14605106959689554, 0.14490561677759892, 0.13654259027929888, 0.13614171219012514, 0.13478227492570294, 0.13455856285619114, 0.13224454079750253, 0.13138241248442947]","[100, 77, 22, 105, 98, 79, 4, 1, 7, 95]","[-0.15735076892580135, -0.15421866552903177, -0.1436086404139187, -0.14216584220021275, -0.138099783544691, -0.12479986109382278, -0.1210798438918068, -0.11496998420046464, -0.11304557398599507, -0.11214536615657499]",6.230293497583371,-6.129279261972272
207,32,32,[0],[-0.7200830448761297],-0.4530588231331234,"[5, 14, 6, 18, 17, 1, 11, 4, 13, 9]","[1.148911584488957, 0.4625892002258313, 0.4549192155377808, 0.4365333367775195, 0.3253564651812631, 0.2626490471416401, 0.2524707924554108, 0.2523567574651015, 0.24967212320646404, 0.23012698282271132]","[0, 4, 9, 5, 3, 11, 8, 1, 6, 2]","[-0.7200830448761297, -0.6998881547440056, -0.6050580469051283, -0.4420430355136603, -0.438220649472498, -0.4368744124183512, -0.40681346054468925, -0.25023350810338085, -0.1607907374762841, -0.13930195727686728]",5.221768046003096,-4.488792267746103,32,"[9, 4]","[-0.503312958008792, -0.4475652860182513]",-0.4251592761891696,"[5, 18, 17, 6, 9, 13, 8, 12, 1, 7]","[0.7657557257430905, 0.37043022966664313, 0.2913571035671983, 0.2791903448215672, 0.2740005835003132, 0.21646192721611512, 0.18650600175234192, 0.1570239978446359, 0.15118984502867872, 0.14845511145672147]","[9, 4, 0, 1, 3, 12, 11, 6, 5, 7]","[-0.503312958008792, -0.4475652860182513, -0.4164956887121259, -0.22320079197418635, -0.20500075966203907, -0.19275367645038216, -0.18325622725766424, -0.1805467331548277, -0.1793843546271234, -0.1384939468246037]",3.475116971936813,-3.000835939774687,32,"[9, 4]","[-0.503312958008792, -0.4475652860182513]",-0.4251592761891696,"[5, 18, 17, 6, 9, 13, 8, 12, 1, 7]","[0.7657557257430905, 0.37043022966664313, 0.2913571035671983, 0.2791903448215672, 0.2740005835003132, 0.21646192721611512, 0.18650600175234192, 0.1570239978446359, 0.15118984502867872, 0.14845511145672147]","[9, 4, 0, 1, 3, 12, 11, 6, 5, 7]","[-0.503312958008792, -0.4475652860182513, -0.4164956887121259, -0.22320079197418635, -0.20500075966203907, -0.19275367645038216, -0.18325622725766424, -0.1805467331548277, -0.1793843546271234, -0.1384939468246037]",3.475116971936813,-3.000835939774687
208,32,32,"[7, 0, 11, 10, 8, 4, 1, 12, 3, 6]","[-0.14549894388974538, -0.12376374045221818, -0.12301594858874612, -0.11708315549452405, -0.10342469196589896, -0.08455588211237429, -0.08060546517698389, -0.06782218987456502, -0.045014451134139315, -0.04343061586747942]",-0.00018653069836280234,"[2, 6, 11, 9, 8, 0, 16, 12, 17, 3]","[0.15107579723940828, 0.1453102557954068, 0.13833260317316487, 0.1086607378689615, 0.06966172312540057, 0.06950767202772411, 0.04769483427584375, 0.04577056455644741, 0.04143039653615323, 0.03786589075647497]","[7, 0, 11, 10, 8, 4, 1, 12, 3, 6]","[-0.14549894388974538, -0.12376374045221818, -0.12301594858874612, -0.11708315549452405, -0.10342469196589896, -0.08455588211237429, -0.08060546517698389, -0.06782218987456502, -0.045014451134139315, -0.04343061586747942]",1.0327340290081026,-0.9667625828664145,32,"[7, 0, 11, 10, 8, 4, 1, 12, 3, 6]","[-0.14549894388974538, -0.12376374045221818, -0.12301594858874612, -0.11708315549452405, -0.10342469196589896, -0.08455588211237429, -0.08060546517698389, -0.06782218987456502, -0.045014451134139315, -0.04343061586747942]",-0.00018653069836280234,"[2, 6, 11, 9, 8, 0, 16, 12, 17, 3]","[0.15107579723940828, 0.1453102557954068, 0.13833260317316487, 0.1086607378689615, 0.06966172312540057, 0.06950767202772411, 0.04769483427584375, 0.04577056455644741, 0.04143039653615323, 0.03786589075647497]","[7, 0, 11, 10, 8, 4, 1, 12, 3, 6]","[-0.14549894388974538, -0.12376374045221818, -0.12301594858874612, -0.11708315549452405, -0.10342469196589896, -0.08455588211237429, -0.08060546517698389, -0.06782218987456502, -0.045014451134139315, -0.04343061586747942]",1.0327340290081026,-0.9667625828664145,32,"[7, 0, 11, 10, 8, 4, 1, 12, 3, 6]","[-0.14549894388974538, -0.12376374045221818, -0.12301594858874612, -0.11708315549452405, -0.10342469196589896, -0.08455588211237429, -0.08060546517698389, -0.06782218987456502, -0.045014451134139315, -0.04343061586747942]",-0.00018653069836280234,"[2, 6, 11, 9, 8, 0, 16, 12, 17, 3]","[0.15107579723940828, 0.1453102557954068, 0.13833260317316487, 0.1086607378689615, 0.06966172312540057, 0.06950767202772411, 0.04769483427584375, 0.04577056455644741, 0.04143039653615323, 0.03786589075647497]","[7, 0, 11, 10, 8, 4, 1, 12, 3, 6]","[-0.14549894388974538, -0.12376374045221818, -0.12301594858874612, -0.11708315549452405, -0.10342469196589896, -0.08455588211237429, -0.08060546517698389, -0.06782218987456502, -0.045014451134139315, -0.04343061586747942]",1.0327340290081026,-0.9667625828664145
209,131,131,[52],[-1.4159745068340268],-0.7806603706527693,"[39, 9, 16, 12, 14, 46, 51, 57, 22, 4]","[1.5067514854115234, 1.2767075277770832, 1.2438807794498135, 1.2096293536531602, 1.1792180013194473, 1.1258725852758449, 1.0455407444155769, 1.0322084108321776, 0.9975421873454138, 0.9693904895254843]","[52, 28, 49, 16, 15, 7, 33, 53, 39, 38]","[-1.4159745068340268, -1.4014872897503963, -1.099000491980235, -1.0242946934861938, -1.0128187359564154, -0.9932415136928314, -0.9237272633963254, -0.9229211032995173, -0.9225806823197888, -0.9021339010363867]",32.5624645880088,-32.19777872419006,131,[66],[-0.8962571798640288],-0.45971548070703505,"[30, 15, 48, 13, 11, 9, 36, 55, 58, 63]","[0.9648129869946818, 0.9540462998517624, 0.860679337642159, 0.757713748957644, 0.7118077469130477, 0.7011405437161157, 0.6985412973851874, 0.6796750456240876, 0.6611522223899957, 0.60061944286307]","[66, 54, 50, 31, 2, 55, 59, 18, 25, 28]","[-0.8962571798640288, -0.8136182976447348, -0.6906940740567535, -0.6870996154999846, -0.6483833274731813, -0.6449268041615628, -0.5730771534102925, -0.5729704161405529, -0.5576137431113193, -0.5555814047877761]",20.26501666460195,-19.701558363758945,131,[67],[-0.7825092673231518],-0.1787336925173394,"[14, 28, 48, 10, 12, 57, 55, 34, 8, 62]","[1.1221875515555169, 0.9546437798115338, 0.7977817660364325, 0.7379777053068709, 0.7100558368170198, 0.6624715120320109, 0.6449629057071827, 0.6355916798643193, 0.6322888166090763, 0.6279767651104987]","[67, 33, 52, 54, 55, 31, 2, 19, 59, 6]","[-0.7825092673231518, -0.7164952990112838, -0.6858920430164284, -0.6848546627414168, -0.6290980144882204, -0.5994010100313356, -0.5843042145030252, -0.5749261097617802, -0.5595956397536239, -0.5517378610752175]",20.410309967831214,-20.014085542637027
210,36,36,[5],[-0.5963380380786151],-0.18182116539173243,"[14, 11, 15, 17, 4, 0, 16, 10, 6, 13]","[0.4741910611400144, 0.44629379625268495, 0.43749348551322814, 0.35157594383443613, 0.34156235425165926, 0.33369666709596124, 0.29215773490170016, 0.2906500617543059, 0.27253746488836716, 0.2686174365709063]","[5, 17, 2, 12, 11, 0, 15, 3, 13, 8]","[-0.5963380380786151, -0.428261979394791, -0.39724567237800607, -0.3813376644161816, -0.35558126820008545, -0.2652438709615314, -0.22995982609767363, -0.21670727487317507, -0.2049390645690452, -0.1915472896667215]",4.614743054519792,-4.029259927206675,36,"[5, 2]","[-0.35878386040177207, -0.3441484523775476]",-0.27532205714350577,"[18, 4, 16, 19, 8, 2, 12, 15, 1, 6]","[0.2932618341132271, 0.2881028587869655, 0.2752189118449615, 0.2708725385398643, 0.26906306487739806, 0.2431662085387001, 0.19680051155223963, 0.18823004308827268, 0.1684109032262057, 0.1645374496308292]","[5, 2, 10, 14, 0, 9, 7, 6, 1, 4]","[-0.35878386040177207, -0.3441484523775476, -0.3390570819249052, -0.33381011886333534, -0.324921456654897, -0.26480730339435715, -0.1604192913207347, -0.14728718466830407, -0.1381016848294435, -0.07353047069901114]",3.227908847581294,-2.6555191032171077,36,"[5, 2]","[-0.35878386040177207, -0.3441484523775476]",-0.27532205714350577,"[18, 4, 16, 19, 8, 2, 12, 15, 1, 6]","[0.2932618341132271, 0.2881028587869655, 0.2752189118449615, 0.2708725385398643, 0.26906306487739806, 0.2431662085387001, 0.19680051155223963, 0.18823004308827268, 0.1684109032262057, 0.1645374496308292]","[5, 2, 10, 14, 0, 9, 7, 6, 1, 4]","[-0.35878386040177207, -0.3441484523775476, -0.3390570819249052, -0.33381011886333534, -0.324921456654897, -0.26480730339435715, -0.1604192913207347, -0.14728718466830407, -0.1381016848294435, -0.07353047069901114]",3.227908847581294,-2.6555191032171077
211,24,24,"[8, 2, 0, 7, 10]","[-0.28402316784293535, -0.23189214924696647, -0.204445642016682, -0.18788964182834136, -0.18637853823396314]",-0.1570929050925947,"[9, 10, 7, 0, 11, 2, 8, 12, 5, 3]","[0.3146301997514862, 0.29221483111830654, 0.23810022879776804, 0.1741149819418634, 0.15209783783936565, 0.11928611505840987, 0.10013271798616062, 0.04397979619191018, 0.04007828318880124, 0.03905377112581527]","[8, 2, 0, 7, 10, 6, 3, 1, 5, 4]","[-0.28402316784293535, -0.23189214924696647, -0.204445642016682, -0.18788964182834136, -0.18637853823396314, -0.1476307419780733, -0.07990051335748652, -0.059027076108850385, -0.056294053865462074, -0.04252924354369412]",1.555989325279122,-1.4935255593554155,24,[],[],-0.43665216687701314,"[2, 3, 5, 9, 11, 8, 7, 12, 1, 0]","[1.2085791801183703, 0.8981554758753776, 0.7507773783526029, 0.5615569929686218, 0.5195847872013979, 0.4555226459176361, 0.4093197180378606, 0.28773467922070245, 0.22976057460118965, 0.201721943500085]","[9, 4, 3, 7, 6, 2, 8, 5, 0, 1]","[-1.0109524359104158, -0.7403697332487611, -0.6835322998240918, -0.6456611166477805, -0.46196596681605634, -0.290943702252073, -0.2215905765898851, -0.21825876849810943, -0.13551296151265718, -0.014144501997666772]",5.8595842301745105,-4.422932063297497,24,[],[],-0.8015625691184391,"[5, 8, 0, 4, 2, 3, 1, 12, 10, 7]","[1.9595701544753792, 1.4824876721839813, 1.25632055050459, 0.9712810736168848, 0.688395131710076, 0.6150564112672382, 0.548753615538324, 0.5047454128529499, 0.360956508534458, 0.2873356651383002]","[1, 8, 9, 4, 2, 6, 7, 0, 3, 5]","[-1.5235982309171023, -1.5072507512509714, -0.8486544301434311, -0.8364670459062157, -0.6584295263441635, -0.5885887531025574, -0.588391355776344, -0.5417905480600589, -0.06674404387598959, -0.04167681977852702]",9.0031540742738,-7.201591505155361
212,125,125,"[9, 37, 63, 45, 62]","[-0.38319788739607646, -0.33090643153772215, -0.2589685173614402, -0.2308535194141242, -0.2298328090400587]",-0.21568202836983486,"[44, 20, 1, 19, 4, 45, 6, 21, 43, 12]","[0.47676666691081276, 0.39525515025412067, 0.31401246038085356, 0.28356509401658003, 0.2769613977865385, 0.25687965847056365, 0.250628358703648, 0.23886236089176416, 0.2359683380934091, 0.22741713112762268]","[9, 37, 63, 45, 62, 43, 54, 15, 51, 24]","[-0.38319788739607646, -0.33090643153772215, -0.2589685173614402, -0.2308535194141242, -0.2298328090400587, -0.22580012619658787, -0.22575104389562337, -0.22434739262038372, -0.2122222538284988, -0.21168484447605143]",7.74546694075865,-7.963544077138237,125,"[7, 44, 14, 35, 51, 62, 26]","[-0.2766774158422732, -0.19948140844730042, -0.16027557064694606, -0.1537347837025606, -0.1384776235830075, -0.13741448943365345, -0.13037902633486925]",-0.10424862506952137,"[45, 22, 21, 2, 27, 23, 10, 3, 9, 29]","[0.2451971852825241, 0.18361838251096532, 0.1807132788512244, 0.17954663766416984, 0.12095877017252459, 0.1198436184191648, 0.11827131929709285, 0.11795247660384979, 0.11390667614546766, 0.1110846317853613]","[7, 44, 14, 35, 51, 62, 26, 42, 11, 61]","[-0.2766774158422732, -0.19948140844730042, -0.16027557064694606, -0.1537347837025606, -0.1384776235830075, -0.13741448943365345, -0.13037902633486925, -0.12163223131305963, -0.11947171524904958, -0.1078282559451347]",4.115412329917707,-4.207604022838796,125,"[7, 44, 14, 35, 51, 62, 26]","[-0.2766774158422732, -0.19948140844730042, -0.16027557064694606, -0.1537347837025606, -0.1384776235830075, -0.13741448943365345, -0.13037902633486925]",-0.10424862506952137,"[45, 22, 21, 2, 27, 23, 10, 3, 9, 29]","[0.2451971852825241, 0.18361838251096532, 0.1807132788512244, 0.17954663766416984, 0.12095877017252459, 0.1198436184191648, 0.11827131929709285, 0.11795247660384979, 0.11390667614546766, 0.1110846317853613]","[7, 44, 14, 35, 51, 62, 26, 42, 11, 61]","[-0.2766774158422732, -0.19948140844730042, -0.16027557064694606, -0.1537347837025606, -0.1384776235830075, -0.13741448943365345, -0.13037902633486925, -0.12163223131305963, -0.11947171524904958, -0.1078282559451347]",4.115412329917707,-4.207604022838796
213,127,127,[13],[-0.8383524687054286],-0.28027895609531395,"[23, 38, 25, 35, 52, 60, 61, 13, 50, 34]","[0.8158767677057478, 0.8013460551657509, 0.7480551806826821, 0.7071859991374609, 0.7007722744440467, 0.6601051132084095, 0.5889365979526939, 0.5837942746515213, 0.5663494106888067, 0.5661449799522472]","[13, 50, 58, 53, 35, 14, 46, 3, 39, 27]","[-0.8383524687054286, -0.8329546302024123, -0.8146750258755204, -0.7333729353135842, -0.7224752109449483, -0.6614435157469464, -0.6412975620703962, -0.6056048496153121, -0.5787930225565702, -0.5685031823084328]",19.188124326412737,-18.74619783902285,127,[53],[-2.1558390617978063],-1.2684291446311349,"[25, 42, 37, 52, 12, 61, 35, 40, 24, 54]","[2.6544614217564346, 1.7960349973428043, 1.7117363384644073, 1.6888084838980055, 1.5558876890049824, 1.2096020666014557, 1.1680133960888313, 1.1537241228457682, 1.1272251995545701, 1.1112227101722965]","[53, 49, 60, 40, 36, 63, 26, 54, 27, 42]","[-2.1558390617978063, -1.6579162773599139, -1.6483617591280344, -1.3996524915334314, -1.2529172452447355, -1.247778440010626, -1.1926758565096915, -1.1525710572034369, -1.1513513782689817, -1.132487689264164]",38.95058419735489,-38.837994114521564,127,[51],[-4.092595816321062],-3.611669381866303,"[27, 39, 57, 44, 62, 33, 15, 29, 23, 54]","[4.493654281064472, 4.320564652279481, 3.525274301431323, 3.0310768271702537, 2.8474739836901843, 2.683237384967786, 2.645143623791764, 2.5059462142233064, 2.2113955152288693, 2.1301955832590878]","[51, 34, 42, 52, 28, 27, 43, 35, 48, 57]","[-4.092595816321062, -2.7606021531628007, -2.465015888151598, -2.4436278302042784, -2.374076403579719, -2.2539929926930653, -2.232415524039475, -2.1941563843523757, -2.0689685958563446, -2.005715352839325]",77.27926346460278,-76.76018989905754
214,92,92,"[4, 32, 3, 13, 26, 16, 29, 20, 37, 24, 27, 36, 28, 23, 0, 18, 21, 14, 10, 2, 39, 25, 7, 12, 17, 15, 8, 34, 1, 40, 38, 22, 19, 31, 5, 9, 30, 11, 35, 6, 33]","[-0.027635320415121897, -0.02363857945088929, -0.02331054020279713, -0.022819853623156246, -0.021208531194712735, -0.02002987946714634, -0.01947978525587906, -0.019152104235045524, -0.019127814032232345, -0.017982319764592414, -0.01749323150220593, -0.017368504402197896, -0.016132490427634635, -0.014279733193392354, -0.01384930757611828, -0.012768950573137641, -0.01143196993103919, -0.011219889399168126, -0.011159434582575413, -0.010820332729935597, -0.010776795469114864, -0.0106954127729107, -0.010648806213969221, -0.010309768749601793, -0.010223980245671508, -0.009239622087835622, -0.009169624671162424, -0.0065625772303488355, -0.006344295565107602, -0.005590395093678356, -0.0053923290117482954, -0.005056065257151423, -0.004765185069488221, -0.003673394136202887, -0.0031696364872317263, -0.001663492147754924, -0.0014057648552625094, -0.0008277501685798713, -0.0008112741637472893, -0.0005969066707483883, -0.00026527036746356615]",0.5226936821449086,"[46, 18, 2, 42, 41, 17, 35, 0, 33, 38]","[0.020755421837549158, 0.019451335457010714, 0.0181157069511758, 0.016992446933811304, 0.016459832485291512, 0.016114453066685196, 0.015912867462453135, 0.015409280004150188, 0.015077684246622026, 0.015002517713297272]","[4, 32, 3, 13, 26, 16, 29, 20, 37, 24]","[-0.027635320415121897, -0.02363857945088929, -0.02331054020279713, -0.022819853623156246, -0.021208531194712735, -0.02002987946714634, -0.01947978525587906, -0.019152104235045524, -0.019127814032232345, -0.017982319764592414]",0.47730631785509153,-0.46809691839375805,92,"[4, 32, 3, 13, 26, 16, 29, 20, 37, 24, 27, 36, 28, 23, 0, 18, 21, 14, 10, 2, 39, 25, 7, 12, 17, 15, 8, 34, 1, 40, 38, 22, 19, 31, 5, 9, 30, 11, 35, 6, 33]","[-0.027635320415121897, -0.02363857945088929, -0.02331054020279713, -0.022819853623156246, -0.021208531194712735, -0.02002987946714634, -0.01947978525587906, -0.019152104235045524, -0.019127814032232345, -0.017982319764592414, -0.01749323150220593, -0.017368504402197896, -0.016132490427634635, -0.014279733193392354, -0.01384930757611828, -0.012768950573137641, -0.01143196993103919, -0.011219889399168126, -0.011159434582575413, -0.010820332729935597, -0.010776795469114864, -0.0106954127729107, -0.010648806213969221, -0.010309768749601793, -0.010223980245671508, -0.009239622087835622, -0.009169624671162424, -0.0065625772303488355, -0.006344295565107602, -0.005590395093678356, -0.0053923290117482954, -0.005056065257151423, -0.004765185069488221, -0.003673394136202887, -0.0031696364872317263, -0.001663492147754924, -0.0014057648552625094, -0.0008277501685798713, -0.0008112741637472893, -0.0005969066707483883, -0.00026527036746356615]",0.5226936821449086,"[46, 18, 2, 42, 41, 17, 35, 0, 33, 38]","[0.020755421837549158, 0.019451335457010714, 0.0181157069511758, 0.016992446933811304, 0.016459832485291512, 0.016114453066685196, 0.015912867462453135, 0.015409280004150188, 0.015077684246622026, 0.015002517713297272]","[4, 32, 3, 13, 26, 16, 29, 20, 37, 24]","[-0.027635320415121897, -0.02363857945088929, -0.02331054020279713, -0.022819853623156246, -0.021208531194712735, -0.02002987946714634, -0.01947978525587906, -0.019152104235045524, -0.019127814032232345, -0.017982319764592414]",0.47730631785509153,-0.46809691839375805,92,"[4, 32, 3, 13, 26, 16, 29, 20, 37, 24, 27, 36, 28, 23, 0, 18, 21, 14, 10, 2, 39, 25, 7, 12, 17, 15, 8, 34, 1, 40, 38, 22, 19, 31, 5, 9, 30, 11, 35, 6, 33]","[-0.027635320415121897, -0.02363857945088929, -0.02331054020279713, -0.022819853623156246, -0.021208531194712735, -0.02002987946714634, -0.01947978525587906, -0.019152104235045524, -0.019127814032232345, -0.017982319764592414, -0.01749323150220593, -0.017368504402197896, -0.016132490427634635, -0.014279733193392354, -0.01384930757611828, -0.012768950573137641, -0.01143196993103919, -0.011219889399168126, -0.011159434582575413, -0.010820332729935597, -0.010776795469114864, -0.0106954127729107, -0.010648806213969221, -0.010309768749601793, -0.010223980245671508, -0.009239622087835622, -0.009169624671162424, -0.0065625772303488355, -0.006344295565107602, -0.005590395093678356, -0.0053923290117482954, -0.005056065257151423, -0.004765185069488221, -0.003673394136202887, -0.0031696364872317263, -0.001663492147754924, -0.0014057648552625094, -0.0008277501685798713, -0.0008112741637472893, -0.0005969066707483883, -0.00026527036746356615]",0.5226936821449086,"[46, 18, 2, 42, 41, 17, 35, 0, 33, 38]","[0.020755421837549158, 0.019451335457010714, 0.0181157069511758, 0.016992446933811304, 0.016459832485291512, 0.016114453066685196, 0.015912867462453135, 0.015409280004150188, 0.015077684246622026, 0.015002517713297272]","[4, 32, 3, 13, 26, 16, 29, 20, 37, 24]","[-0.027635320415121897, -0.02363857945088929, -0.02331054020279713, -0.022819853623156246, -0.021208531194712735, -0.02002987946714634, -0.01947978525587906, -0.019152104235045524, -0.019127814032232345, -0.017982319764592414]",0.47730631785509153,-0.46809691839375805
215,130,130,[63],[-2.805988825135716],-1.4997176859762171,"[63, 18, 48, 28, 38, 16, 11, 50, 65, 31]","[2.3862487386637654, 1.9257742337360226, 1.9047931261310638, 1.8264999816794583, 1.682095306846705, 1.5716868328227778, 1.5614185518057837, 1.5442024876118314, 1.5066492563549283, 1.4406572595198277]","[63, 50, 46, 3, 34, 62, 40, 38, 35, 2]","[-2.805988825135716, -2.224519211718849, -1.7617933079465273, -1.7038707839841447, -1.7027239727996293, -1.6749432232021595, -1.539940735229716, -1.4938385968430494, -1.3885634278758712, -1.3534123073016766]",45.65873648172083,-45.96500762088033,130,[66],[-1.8472093945318078],-0.5340301229844597,"[35, 45, 60, 25, 6, 15, 28, 17, 10, 38]","[1.2514417999934684, 1.2469254838199368, 1.2437577655572205, 1.1803916969975639, 1.0230371389204382, 1.0159686804430648, 0.9935408175106293, 0.929242048096982, 0.8745299196053616, 0.8248420449903556]","[66, 53, 49, 61, 1, 2, 65, 34, 23, 41]","[-1.8472093945318078, -1.3069021035329647, -1.0532497302349553, -1.013593133172433, -0.9355414665933471, -0.8847113310470492, -0.8648894052194649, -0.8604507518019463, -0.7556980329713128, -0.7478695647944255]",27.243418378932674,-27.556597650480022,130,[66],[-1.8472093945318078],-0.5340301229844597,"[35, 45, 60, 25, 6, 15, 28, 17, 10, 38]","[1.2514417999934684, 1.2469254838199368, 1.2437577655572205, 1.1803916969975639, 1.0230371389204382, 1.0159686804430648, 0.9935408175106293, 0.929242048096982, 0.8745299196053616, 0.8248420449903556]","[66, 53, 49, 61, 1, 2, 65, 34, 23, 41]","[-1.8472093945318078, -1.3069021035329647, -1.0532497302349553, -1.013593133172433, -0.9355414665933471, -0.8847113310470492, -0.8648894052194649, -0.8604507518019463, -0.7556980329713128, -0.7478695647944255]",27.243418378932674,-27.556597650480022
216,75,75,[],[],-1.1064657579279977,"[22, 14, 16, 15, 39, 0, 18, 5, 17, 8]","[1.1198950601658062, 0.8649525767185855, 0.8333827666470036, 0.6578552981630807, 0.6536283709760997, 0.6527416760326038, 0.6371049676840053, 0.6354948860835077, 0.6154818264453695, 0.6033523445844644]","[4, 18, 19, 20, 23, 25, 13, 8, 6, 31]","[-1.5298324306675342, -1.0171596950250168, -0.8645378745601141, -0.8007681574276607, -0.8001734350456153, -0.6942855955400298, -0.6435519935515821, -0.5992521517805112, -0.5480890085920502, -0.5379760001585532]",15.281843226220236,-13.175377468292238,75,[],[],-0.2611483115197686,"[15, 8, 19, 23, 17, 31, 38, 0, 16, 26]","[0.6945992151232239, 0.5954080009984615, 0.5159684704772334, 0.4932271854060546, 0.46371117946369517, 0.4328150259066259, 0.3906317128027108, 0.37491299848228393, 0.3153939390651464, 0.3108965471349215]","[3, 17, 12, 22, 19, 18, 30, 14, 7, 24]","[-0.8604055301399082, -0.5101290255138394, -0.47081052872267753, -0.4138048832622881, -0.4067425019590877, -0.406181422180778, -0.39976183032607315, -0.3920633969930721, -0.38826856825069667, -0.3495111913182197]",9.350990272404417,-8.089841960884648,75,[],[],-0.2611483115197686,"[15, 8, 19, 23, 17, 31, 38, 0, 16, 26]","[0.6945992151232239, 0.5954080009984615, 0.5159684704772334, 0.4932271854060546, 0.46371117946369517, 0.4328150259066259, 0.3906317128027108, 0.37491299848228393, 0.3153939390651464, 0.3108965471349215]","[3, 17, 12, 22, 19, 18, 30, 14, 7, 24]","[-0.8604055301399082, -0.5101290255138394, -0.47081052872267753, -0.4138048832622881, -0.4067425019590877, -0.406181422180778, -0.39976183032607315, -0.3920633969930721, -0.38826856825069667, -0.3495111913182197]",9.350990272404417,-8.089841960884648
217,52,52,"[10, 13, 11, 17, 0, 4, 5]","[-0.20419492761965505, -0.13160043029551924, -0.12142440632091694, -0.10419544290265888, -0.09567411370997515, -0.08099659464064916, -0.07741664090263105]",-0.009159033385105236,"[14, 16, 23, 15, 19, 6, 22, 24, 7, 26]","[0.15895985712787314, 0.10977813050341703, 0.10712654112957987, 0.104732044055001, 0.1034489539618715, 0.10166646577572289, 0.09267502815429202, 0.08917332210384755, 0.08618780479885892, 0.07986456676656335]","[10, 13, 11, 17, 0, 4, 5, 3, 19, 7]","[-0.20419492761965505, -0.13160043029551924, -0.12142440632091694, -0.10419544290265888, -0.09567411370997515, -0.08099659464064916, -0.07741664090263105, -0.07400379905421367, -0.06517128383501902, -0.06136662852578254]",1.6021343468640092,-1.4084778698709095,52,"[10, 13, 11, 17, 0, 4, 5]","[-0.20419492761965505, -0.13160043029551924, -0.12142440632091694, -0.10419544290265888, -0.09567411370997515, -0.08099659464064916, -0.07741664090263105]",-0.009159033385105236,"[14, 16, 23, 15, 19, 6, 22, 24, 7, 26]","[0.15895985712787314, 0.10977813050341703, 0.10712654112957987, 0.104732044055001, 0.1034489539618715, 0.10166646577572289, 0.09267502815429202, 0.08917332210384755, 0.08618780479885892, 0.07986456676656335]","[10, 13, 11, 17, 0, 4, 5, 3, 19, 7]","[-0.20419492761965505, -0.13160043029551924, -0.12142440632091694, -0.10419544290265888, -0.09567411370997515, -0.08099659464064916, -0.07741664090263105, -0.07400379905421367, -0.06517128383501902, -0.06136662852578254]",1.6021343468640092,-1.4084778698709095,52,"[10, 13, 11, 17, 0, 4, 5]","[-0.20419492761965505, -0.13160043029551924, -0.12142440632091694, -0.10419544290265888, -0.09567411370997515, -0.08099659464064916, -0.07741664090263105]",-0.009159033385105236,"[14, 16, 23, 15, 19, 6, 22, 24, 7, 26]","[0.15895985712787314, 0.10977813050341703, 0.10712654112957987, 0.104732044055001, 0.1034489539618715, 0.10166646577572289, 0.09267502815429202, 0.08917332210384755, 0.08618780479885892, 0.07986456676656335]","[10, 13, 11, 17, 0, 4, 5, 3, 19, 7]","[-0.20419492761965505, -0.13160043029551924, -0.12142440632091694, -0.10419544290265888, -0.09567411370997515, -0.08099659464064916, -0.07741664090263105, -0.07400379905421367, -0.06517128383501902, -0.06136662852578254]",1.6021343468640092,-1.4084778698709095
218,27,0,-1,-1,0.0,[],[],[],[],0.0,0.0,27,"[11, 1, 12, 6]","[-0.3181419709120678, -0.2727991355573043, -0.19100680430352643, -0.178238190396516]",-0.054132359387834866,"[12, 1, 7, 2, 10, 11, 5, 8, 9, 13]","[0.36410812809275384, 0.24276323680707346, 0.22758669239875115, 0.22151825568797245, 0.17099028712692146, 0.1395644518179298, 0.1298403014050832, 0.1074122632834997, 0.09156340676834904, 0.06860375143771781]","[11, 1, 12, 6, 5, 9, 7, 3, 10, 4]","[-0.3181419709120678, -0.2727991355573043, -0.19100680430352643, -0.178238190396516, -0.16723667325490868, -0.16383103919752776, -0.12345132215215221, -0.10843249377487431, -0.1078016689011739, -0.07307538746455101]",1.9134920320315931,-1.8195457738131728,27,[],[],-1.5648750702786405,"[2, 0, 8, 4, 11, 12, 5, 7, 3, 10]","[1.4013802417470735, 1.2312265434863827, 1.2023375249538182, 1.0122429818589533, 0.9216786450955805, 0.8044698997389119, 0.7444501459330661, 0.5547611162786695, 0.43553174565738095, 0.28154255050470783]","[9, 0, 2, 4, 7, 3, 10, 12, 5, 11]","[-1.5410460780974373, -0.9949545113989497, -0.8306437115555231, -0.7363414103687552, -0.677817657933539, -0.47930550891290596, -0.35973073498255925, -0.31983798519971685, -0.1966991611184352, -0.17339130945841655]",9.075175872800356,-6.510300802521716
219,21,21,"[9, 16, 6, 10, 8, 3, 12, 5, 13, 2, 11, 1, 7, 0, 15, 4, 14]","[-0.007563450638462338, -0.006403627748050419, -0.0053971760102633345, -0.004983987792969217, -0.0042322888705321575, -0.00404343536837114, -0.004037810138062358, -0.0037475790099871344, -0.0036374653459232543, -0.003286440401987754, -0.002824015353260973, -0.0026857832692360264, -0.002378293085663335, -0.00211771510735172, -0.001516066910850131, -0.0013719867594191508, -7.008736292685078e-06]",0.9496001426945453,"[0, 2, 3, 1]","[0.014011719781881406, 0.013601261442358781, 0.012354423581497687, 0.010432452499716782]","[9, 16, 6, 10, 8, 3, 12, 5, 13, 2]","[-0.007563450638462338, -0.006403627748050419, -0.0053971760102633345, -0.004983987792969217, -0.0042322888705321575, -0.00404343536837114, -0.004037810138062358, -0.0037475790099871344, -0.0036374653459232543, -0.003286440401987754]",0.050399857305454654,-0.060234130546683126,21,"[9, 16, 6, 10, 8, 3, 12, 5, 13, 2, 11, 1, 7, 0, 15, 4, 14]","[-0.007563450638462338, -0.006403627748050419, -0.0053971760102633345, -0.004983987792969217, -0.0042322888705321575, -0.00404343536837114, -0.004037810138062358, -0.0037475790099871344, -0.0036374653459232543, -0.003286440401987754, -0.002824015353260973, -0.0026857832692360264, -0.002378293085663335, -0.00211771510735172, -0.001516066910850131, -0.0013719867594191508, -7.008736292685078e-06]",0.9496001426945453,"[0, 2, 3, 1]","[0.014011719781881406, 0.013601261442358781, 0.012354423581497687, 0.010432452499716782]","[9, 16, 6, 10, 8, 3, 12, 5, 13, 2]","[-0.007563450638462338, -0.006403627748050419, -0.0053971760102633345, -0.004983987792969217, -0.0042322888705321575, -0.00404343536837114, -0.004037810138062358, -0.0037475790099871344, -0.0036374653459232543, -0.003286440401987754]",0.050399857305454654,-0.060234130546683126,21,"[9, 16, 6, 10, 8, 3, 12, 5, 13, 2, 11, 1, 7, 0, 15, 4, 14]","[-0.007563450638462338, -0.006403627748050419, -0.0053971760102633345, -0.004983987792969217, -0.0042322888705321575, -0.00404343536837114, -0.004037810138062358, -0.0037475790099871344, -0.0036374653459232543, -0.003286440401987754, -0.002824015353260973, -0.0026857832692360264, -0.002378293085663335, -0.00211771510735172, -0.001516066910850131, -0.0013719867594191508, -7.008736292685078e-06]",0.9496001426945453,"[0, 2, 3, 1]","[0.014011719781881406, 0.013601261442358781, 0.012354423581497687, 0.010432452499716782]","[9, 16, 6, 10, 8, 3, 12, 5, 13, 2]","[-0.007563450638462338, -0.006403627748050419, -0.0053971760102633345, -0.004983987792969217, -0.0042322888705321575, -0.00404343536837114, -0.004037810138062358, -0.0037475790099871344, -0.0036374653459232543, -0.003286440401987754]",0.050399857305454654,-0.060234130546683126
220,145,145,[68],[-1.699689543648175],-0.5658001688876608,"[0, 44, 9, 34, 53, 39, 1, 46, 6, 61]","[1.8580325808161413, 1.7274979229649754, 1.5210425008849109, 1.465672879157123, 1.4466443738704773, 1.4051447980452627, 1.3167292689723842, 1.241037494726893, 1.2099159217700974, 1.1800714794293]","[68, 72, 19, 30, 69, 55, 36, 23, 48, 71]","[-1.699689543648175, -1.4296267836071146, -1.4119408290587627, -1.391201733248502, -1.37216032476302, -1.3170368434620652, -1.247012045011875, -1.193973191315346, -1.1718481359579516, -1.144670836236422]",43.35275612639202,-43.48664550115254,145,[35],[-1.7041554805947496],-0.45299838669907166,"[40, 31, 52, 45, 10, 66, 39, 62, 3, 51]","[2.2770544382759366, 2.0132877872113326, 1.5825201510492075, 1.5177165426528478, 1.5075457862475987, 1.4737942237129227, 1.4731982522983604, 1.443464913754013, 1.4167201840166028, 1.28301738403083]","[35, 34, 51, 62, 25, 0, 18, 27, 14, 7]","[-1.7041554805947496, -1.5424709122868345, -1.4271779597350358, -1.4141169659914548, -1.4133903651967625, -1.4086094372805924, -1.3341923470023025, -1.2795194005605204, -1.1774758253784496, -1.1273592833001784]",46.47758955703105,-46.72874665092673,145,[65],[-1.1588524461266605],-0.011299631960932643,"[41, 30, 53, 10, 45, 59, 3, 46, 40, 63]","[1.4752864122684084, 1.412985766869657, 1.1698036105997558, 1.1585383256042863, 1.1298577881691572, 1.1230824948054314, 1.1063289835091559, 1.0959770578574106, 1.0054817878231366, 1.0012071272808756]","[65, 36, 26, 18, 28, 14, 0, 33, 3, 62]","[-1.1588524461266605, -1.119354086044427, -1.1186361319820344, -1.1126980148333596, -1.0862547697756981, -1.0729998257376927, -0.9899019130541163, -0.9537786042242461, -0.95100471797652, -0.9390238754359551]",35.562819765386394,-35.71037257955212
221,386,0,-1,-1,0.0,[],[],[],[],0.0,0.0,0,-1,-1,0.0,[],[],[],[],0.0,0.0,0,-1,-1,0.0,[],[],[],[],0.0,0.0
222,104,104,[31],[-0.5388414624676967],-0.3382717130282442,"[8, 12, 14, 35, 44, 7, 6, 40, 19, 39]","[0.6499720139868597, 0.6429837349266171, 0.4750778219035336, 0.4488568493152962, 0.4382295573898476, 0.39465154421216125, 0.38631217698972964, 0.365277998194526, 0.3628294300588354, 0.3523578091194138]","[31, 28, 1, 20, 41, 11, 13, 18, 38, 26]","[-0.5388414624676967, -0.4779551662493682, -0.4714788854526844, -0.4702953003360281, -0.3950996255142048, -0.3853035398053568, -0.37234308447401826, -0.3531326331239682, -0.3516703563092451, -0.3485053337708695]",11.314187484771349,-10.514757234210801,104,[22],[-0.5086012514395647],-0.2409292497388743,"[12, 8, 13, 20, 42, 34, 6, 3, 5, 17]","[0.5364715158194668, 0.5335404115879343, 0.4129025890171567, 0.39666301507006774, 0.3672350860260338, 0.3662118534309593, 0.3435317567213886, 0.32012420413006665, 0.3151241023354161, 0.2982679811440826]","[22, 30, 13, 32, 31, 44, 11, 29, 20, 17]","[-0.5086012514395647, -0.49765238275550494, -0.4373435022933674, -0.4362720277301929, -0.4062203130723032, -0.3779268469229237, -0.34779434624294864, -0.316520331095483, -0.3096353306004085, -0.2781440211269538]",10.13508555728489,-9.40275755898558,104,[22],[-0.5086012514395647],-0.2409292497388743,"[12, 8, 13, 20, 42, 34, 6, 3, 5, 17]","[0.5364715158194668, 0.5335404115879343, 0.4129025890171567, 0.39666301507006774, 0.3672350860260338, 0.3662118534309593, 0.3435317567213886, 0.32012420413006665, 0.3151241023354161, 0.2982679811440826]","[22, 30, 13, 32, 31, 44, 11, 29, 20, 17]","[-0.5086012514395647, -0.49765238275550494, -0.4373435022933674, -0.4362720277301929, -0.4062203130723032, -0.3779268469229237, -0.34779434624294864, -0.316520331095483, -0.3096353306004085, -0.2781440211269538]",10.13508555728489,-9.40275755898558
223,140,140,[13],[-2.3289736339688485],-1.5229268480205445,"[47, 55, 31, 43, 2, 5, 27, 39, 71, 9]","[1.630700690320293, 1.5492772264762347, 1.5359805473332482, 1.5026629736095884, 1.4792994742460979, 1.461422414820493, 1.364841152362249, 1.3117230330320637, 1.2595017074452508, 1.187035959948536]","[13, 18, 14, 45, 42, 10, 51, 53, 33, 50]","[-2.3289736339688485, -1.9681975770816087, -1.8604443554475212, -1.6934588597978315, -1.649975563791879, -1.6481027362251013, -1.647674817608006, -1.6183038589894945, -1.5805222119056321, -1.5291641570083747]",49.73095841188129,-49.53700519782959,140,[18],[-2.735477076660566],-2.2913046678901314,"[2, 6, 12, 48, 65, 53, 25, 20, 15, 24]","[2.198854032516866, 2.1041010568745193, 1.7978838100575385, 1.7194028675707838, 1.7192000357954988, 1.6884518286305026, 1.5880569482121167, 1.5776481974233656, 1.5745820483486621, 1.508689036931352]","[18, 11, 37, 52, 30, 56, 45, 40, 12, 44]","[-2.735477076660566, -2.308781734867752, -2.0614337440371147, -2.0310087272344464, -1.8789117975242706, -1.8666768466530017, -1.8323547982533936, -1.7223936438839114, -1.7139405322536667, -1.634549623752453]",57.73524355097861,-57.17941595974904,140,[19],[-2.297708725121845],-1.7889870604329814,"[2, 56, 5, 43, 23, 0, 32, 14, 71, 61]","[1.8549011060543923, 1.5480415305676754, 1.5232899720990556, 1.4627043091288503, 1.4611506221813615, 1.3977873617869603, 1.1495048924528761, 1.1404331402393744, 1.1208203756023247, 1.1199457851151091]","[19, 12, 50, 42, 44, 35, 13, 56, 60, 59]","[-2.297708725121845, -1.9537426352222487, -1.6393031228661765, -1.5678586246050252, -1.4581997649901628, -1.4571605711803266, -1.4012916760683107, -1.4006054144860878, -1.3654062768109831, -1.328289883173932]",47.553313856866744,-47.06203552155561
224,26,26,"[3, 5, 6]","[-0.4052649043482998, -0.339821906307023, -0.19636142744587226]",-0.13574004185837524,"[14, 2, 10, 12, 4, 7, 9, 3, 0, 1]","[0.37831694522277365, 0.3744416280561545, 0.3029061949630671, 0.15688903358567974, 0.14697726910298756, 0.11494699300994224, 0.10550042999446226, 0.07290837183662831, 0.05923117172705437, 0.0547511828513041]","[3, 5, 6, 7, 2, 8, 9, 4, 10, 1]","[-0.4052649043482998, -0.339821906307023, -0.19636142744587226, -0.17237879650180918, -0.1587519517674515, -0.1291394663004326, -0.07775984798857538, -0.07721328545128882, -0.06231850581993899, -0.05981217375684875]",1.8955229321165372,-1.701231128359357,26,"[6, 3, 8, 9, 4, 5, 2, 11]","[-0.2705170729499963, -0.24037240406493343, -0.13797929051713037, -0.09636441451825792, -0.07525479003165503, -0.06764899285055138, -0.06273364016816856, -0.047359933014500345]",-0.030982379401320266,"[8, 10, 2, 4, 6, 9, 3, 1, 7, 0]","[0.31799918399877786, 0.2480396569310347, 0.2459803093568138, 0.09371018907532183, 0.07720325025087765, 0.05262086111592371, 0.04924248975043002, 0.04288175568224457, 0.027536311072832702, 0.0165175171870559]","[6, 3, 8, 9, 4, 5, 2, 11, 13, 1]","[-0.2705170729499963, -0.24037240406493343, -0.13797929051713037, -0.09636441451825792, -0.07525479003165503, -0.06764899285055138, -0.06273364016816856, -0.047359933014500345, -0.03944563004175464, -0.029796787692668837]",1.172222680572704,-1.139470839286577,26,"[6, 3, 8, 9, 4, 5, 2, 11]","[-0.2705170729499963, -0.24037240406493343, -0.13797929051713037, -0.09636441451825792, -0.07525479003165503, -0.06764899285055138, -0.06273364016816856, -0.047359933014500345]",-0.030982379401320266,"[8, 10, 2, 4, 6, 9, 3, 1, 7, 0]","[0.31799918399877786, 0.2480396569310347, 0.2459803093568138, 0.09371018907532183, 0.07720325025087765, 0.05262086111592371, 0.04924248975043002, 0.04288175568224457, 0.027536311072832702, 0.0165175171870559]","[6, 3, 8, 9, 4, 5, 2, 11, 13, 1]","[-0.2705170729499963, -0.24037240406493343, -0.13797929051713037, -0.09636441451825792, -0.07525479003165503, -0.06764899285055138, -0.06273364016816856, -0.047359933014500345, -0.03944563004175464, -0.029796787692668837]",1.172222680572704,-1.139470839286577
225,49,49,[13],[-0.970418034854996],-0.7307598810623708,"[7, 15, 18, 12, 14, 5, 0, 9, 21, 25]","[0.9330083193298843, 0.8598567943470173, 0.8306325770140129, 0.7405032481565774, 0.6317224138944632, 0.6013207215170825, 0.5784950827157448, 0.5164554918804598, 0.3618705491532822, 0.36045545581407834]","[13, 6, 20, 19, 21, 17, 15, 8, 5, 16]","[-0.970418034854996, -0.8940279994323032, -0.8508496860130678, -0.7738935918411497, -0.6560359704904284, -0.46273779861049863, -0.4373812643731429, -0.405102535610665, -0.36848476492034044, -0.3506176625475713]",9.065342309342935,-8.30500046313556,49,[12],[-0.8091956922400647],-0.4441759142906707,"[16, 18, 8, 11, 13, 6, 15, 0, 22, 4]","[0.6333956651490449, 0.5554365504441287, 0.5100862996222296, 0.4571373709852584, 0.4410938018638983, 0.3934880289674805, 0.3432476727856754, 0.32154523962224796, 0.30184795450046603, 0.28245517489101607]","[12, 5, 22, 14, 18, 21, 16, 3, 7, 10]","[-0.8091956922400647, -0.6919633196904468, -0.45396995134604895, -0.43652261292941513, -0.42664259551846667, -0.365145735319584, -0.28808261267324053, -0.23997057917863512, -0.2394866198273879, -0.20846672276132377]",6.025663779919409,-5.390683557868803,49,[12],[-0.8091956922400647],-0.4441759142906707,"[16, 18, 8, 11, 13, 6, 15, 0, 22, 4]","[0.6333956651490449, 0.5554365504441287, 0.5100862996222296, 0.4571373709852584, 0.4410938018638983, 0.3934880289674805, 0.3432476727856754, 0.32154523962224796, 0.30184795450046603, 0.28245517489101607]","[12, 5, 22, 14, 18, 21, 16, 3, 7, 10]","[-0.8091956922400647, -0.6919633196904468, -0.45396995134604895, -0.43652261292941513, -0.42664259551846667, -0.365145735319584, -0.28808261267324053, -0.23997057917863512, -0.2394866198273879, -0.20846672276132377]",6.025663779919409,-5.390683557868803
226,57,57,[],[],-0.21423838276827567,"[14, 12, 23, 8, 9, 0, 4, 18, 22, 19]","[1.1884879885832964, 1.034599121002228, 1.0326625697529164, 1.0083255041841144, 0.9618263620397628, 0.9308100908771251, 0.8509821877571029, 0.6743749174544276, 0.673340176774405, 0.6048531990813969]","[18, 10, 24, 3, 12, 23, 8, 9, 14, 7]","[-2.7174404984248275, -1.2397693870064093, -1.0466093247898582, -1.0127608768192096, -0.9836500443535213, -0.934009020477167, -0.9303092663181913, -0.7303841241000862, -0.7254062517419722, -0.6857607579583953]",17.23120131125598,-16.016962928487704,57,[],[],-1.246461265879546,"[15, 13, 8, 23, 21, 3, 18, 16, 27, 7]","[1.7162287797724203, 1.705568552845709, 1.602236837160441, 1.4434673180829471, 1.4211690104652797, 1.1420266724645884, 0.9578917854732212, 0.9225492374288558, 0.891522371115915, 0.851331923382767]","[18, 9, 22, 7, 1, 8, 10, 2, 12, 13]","[-2.776432093963612, -1.6010625472507447, -1.5160402457495323, -1.4759960071513216, -1.4142817230505345, -1.0865361366769126, -1.037788103037449, -0.9254717459852266, -0.6484025267553328, -0.6266811822746082]",19.37649550085282,-17.130034234973273,57,[],[],-0.255827523665177,"[13, 15, 21, 8, 20, 16, 2, 17, 10, 9]","[1.671665506878421, 1.405354490908642, 0.9925183675867093, 0.9406867386044556, 0.8599987403699976, 0.8318036158826098, 0.8277587602544219, 0.7439316810161254, 0.6964409497549662, 0.6784870098865214]","[20, 25, 9, 7, 10, 0, 3, 13, 1, 19]","[-2.2726949177770477, -1.710609958469721, -1.46724037965137, -1.168244790146844, -0.7939467105270595, -0.7845411188259778, -0.7687535075282462, -0.7399809353386576, -0.6101560644630317, -0.6022673629694075]",16.885387669952618,-15.62956014628744
227,20,20,"[4, 8, 5, 0, 2, 6, 1, 3, 7]","[-0.09621606358744814, -0.0838583023180873, -0.07205754914460007, -0.06610825633263047, -0.04175421441173228, -0.04010891643745058, -0.037379293909363634, -0.03056232073427949, -0.006269656470330279]",0.23886664673672936,"[2, 7, 10, 8, 1, 4, 0, 9, 3, 5]","[0.13815515246735258, 0.13616342943178952, 0.12310146920286921, 0.08659231385936267, 0.08178337438595486, 0.0658814291365213, 0.04774045962288631, 0.0331179466911068, 0.022809368658182335, 0.016476625276318674]","[4, 8, 5, 0, 2, 6, 1, 3, 7]","[-0.09621606358744814, -0.0838583023180873, -0.07205754914460007, -0.06610825633263047, -0.04175421441173228, -0.04010891643745058, -0.037379293909363634, -0.03056232073427949, -0.006269656470330279]",0.7611333532632707,-0.4743145733459223,20,"[4, 8, 5, 0, 2, 6, 1, 3, 7]","[-0.09621606358744814, -0.0838583023180873, -0.07205754914460007, -0.06610825633263047, -0.04175421441173228, -0.04010891643745058, -0.037379293909363634, -0.03056232073427949, -0.006269656470330279]",0.23886664673672936,"[2, 7, 10, 8, 1, 4, 0, 9, 3, 5]","[0.13815515246735258, 0.13616342943178952, 0.12310146920286921, 0.08659231385936267, 0.08178337438595486, 0.0658814291365213, 0.04774045962288631, 0.0331179466911068, 0.022809368658182335, 0.016476625276318674]","[4, 8, 5, 0, 2, 6, 1, 3, 7]","[-0.09621606358744814, -0.0838583023180873, -0.07205754914460007, -0.06610825633263047, -0.04175421441173228, -0.04010891643745058, -0.037379293909363634, -0.03056232073427949, -0.006269656470330279]",0.7611333532632707,-0.4743145733459223,20,"[4, 8, 5, 0, 2, 6, 1, 3, 7]","[-0.09621606358744814, -0.0838583023180873, -0.07205754914460007, -0.06610825633263047, -0.04175421441173228, -0.04010891643745058, -0.037379293909363634, -0.03056232073427949, -0.006269656470330279]",0.23886664673672936,"[2, 7, 10, 8, 1, 4, 0, 9, 3, 5]","[0.13815515246735258, 0.13616342943178952, 0.12310146920286921, 0.08659231385936267, 0.08178337438595486, 0.0658814291365213, 0.04774045962288631, 0.0331179466911068, 0.022809368658182335, 0.016476625276318674]","[4, 8, 5, 0, 2, 6, 1, 3, 7]","[-0.09621606358744814, -0.0838583023180873, -0.07205754914460007, -0.06610825633263047, -0.04175421441173228, -0.04010891643745058, -0.037379293909363634, -0.03056232073427949, -0.006269656470330279]",0.7611333532632707,-0.4743145733459223
228,29,0,-1,-1,0.0,[],[],[],[],0.0,0.0,0,-1,-1,0.0,[],[],[],[],0.0,0.0,0,-1,-1,0.0,[],[],[],[],0.0,0.0
229,132,0,-1,-1,0.0,[],[],[],[],0.0,0.0,0,-1,-1,0.0,[],[],[],[],0.0,0.0,132,"[1, 40, 34, 5, 23]","[-0.2873140300286671, -0.2823550354783505, -0.2625355368650176, -0.2438895062074835, -0.24308461699623324]",-0.07995353401750255,"[58, 12, 0, 5, 59, 47, 44, 35, 27, 32]","[0.31861748406903334, 0.30813274021733256, 0.27217153783803405, 0.2617859592468101, 0.24912979761668164, 0.24104300405072673, 0.2376809294077392, 0.22036975521842872, 0.19708591914587797, 0.19681986480383]","[1, 40, 34, 5, 23, 8, 63, 64, 50, 30]","[-0.2873140300286671, -0.2823550354783505, -0.2625355368650176, -0.2438895062074835, -0.24308461699623324, -0.24038529755486418, -0.24013734960894798, -0.23840109883782015, -0.1897809359920902, -0.18850402529620994]",6.527291105811729,-6.766516297369979
230,20,20,"[8, 9, 3, 1, 5, 10, 6, 0, 2, 7, 4]","[-0.19574247351233148, -0.1511618847112018, -0.12718452083705928, -0.06253771164268931, -0.06177634023258635, -0.056610385744404634, -0.04985980406380409, -0.03649359418987259, -0.03446582204517971, -0.015499690825357302, -0.006785837872493633]",0.18808967589822756,"[6, 8, 0, 1, 4, 5, 2, 3, 7]","[0.18545797781808904, 0.17338021756278257, 0.1608706282819549, 0.09641399285731353, 0.09539440178564725, 0.06623812050165492, 0.020580393373072138, 0.013492041187400652, 8.255073385764799e-05]","[8, 9, 3, 1, 5, 10, 6, 0, 2, 7]","[-0.19574247351233148, -0.1511618847112018, -0.12718452083705928, -0.06253771164268931, -0.06177634023258635, -0.056610385744404634, -0.04985980406380409, -0.03649359418987259, -0.03446582204517971, -0.015499690825357302]",0.8119103241017727,-0.7981180656769802,20,"[8, 9, 3, 1, 5, 10, 6, 0, 2, 7, 4]","[-0.19574247351233148, -0.1511618847112018, -0.12718452083705928, -0.06253771164268931, -0.06177634023258635, -0.056610385744404634, -0.04985980406380409, -0.03649359418987259, -0.03446582204517971, -0.015499690825357302, -0.006785837872493633]",0.18808967589822756,"[6, 8, 0, 1, 4, 5, 2, 3, 7]","[0.18545797781808904, 0.17338021756278257, 0.1608706282819549, 0.09641399285731353, 0.09539440178564725, 0.06623812050165492, 0.020580393373072138, 0.013492041187400652, 8.255073385764799e-05]","[8, 9, 3, 1, 5, 10, 6, 0, 2, 7]","[-0.19574247351233148, -0.1511618847112018, -0.12718452083705928, -0.06253771164268931, -0.06177634023258635, -0.056610385744404634, -0.04985980406380409, -0.03649359418987259, -0.03446582204517971, -0.015499690825357302]",0.8119103241017727,-0.7981180656769802,20,"[8, 9, 3, 1, 5, 10, 6, 0, 2, 7, 4]","[-0.19574247351233148, -0.1511618847112018, -0.12718452083705928, -0.06253771164268931, -0.06177634023258635, -0.056610385744404634, -0.04985980406380409, -0.03649359418987259, -0.03446582204517971, -0.015499690825357302, -0.006785837872493633]",0.18808967589822756,"[6, 8, 0, 1, 4, 5, 2, 3, 7]","[0.18545797781808904, 0.17338021756278257, 0.1608706282819549, 0.09641399285731353, 0.09539440178564725, 0.06623812050165492, 0.020580393373072138, 0.013492041187400652, 8.255073385764799e-05]","[8, 9, 3, 1, 5, 10, 6, 0, 2, 7]","[-0.19574247351233148, -0.1511618847112018, -0.12718452083705928, -0.06253771164268931, -0.06177634023258635, -0.056610385744404634, -0.04985980406380409, -0.03649359418987259, -0.03446582204517971, -0.015499690825357302]",0.8119103241017727,-0.7981180656769802
231,92,0,-1,-1,0.0,[],[],[],[],0.0,0.0,0,-1,-1,0.0,[],[],[],[],0.0,0.0,0,-1,-1,0.0,[],[],[],[],0.0,0.0
232,109,109,[22],[-1.7987427948518897],-1.6938305338210282,"[19, 14, 3, 6, 1, 29, 33, 30, 42, 27]","[1.7015807311830753, 1.53386963117834, 1.4699058087343246, 1.3238070576479444, 1.1933342144315113, 1.1922957593876766, 1.175842303200404, 1.1165263876977058, 1.1159801350876102, 0.9647806002427745]","[22, 0, 49, 42, 32, 46, 31, 39, 7, 27]","[-1.7987427948518897, -1.4540827341250055, -1.4001269131932403, -1.2507795295986939, -1.1949192505134394, -1.1805319377751715, -1.1750440194507632, -1.1634276714051976, -1.148272017537837, -1.1161373508536432]",31.694258153528608,-30.79917041455947,109,[22],[-1.2433074903999741],-0.7631898176535006,"[18, 14, 10, 29, 31, 32, 6, 8, 28, 41]","[1.2907111359992516, 1.2492991441129488, 1.1237256331951304, 1.1161069928712681, 1.1072337803142582, 1.0834241435676886, 0.9627070772983657, 0.9131589536559951, 0.8483542026538937, 0.7869805149340785]","[22, 54, 7, 40, 0, 14, 33, 17, 44, 29]","[-1.2433074903999741, -1.1503038825096905, -1.1253761740715054, -1.0408708440825098, -1.0163552900495778, -0.9437340878110692, -0.9278313307276682, -0.8988684507433341, -0.896160202483922, -0.8602512568924631]",27.188085827833923,-26.668203500580397,109,[54],[-1.0660055737300422],-0.5701681303544075,"[12, 16, 28, 30, 31, 5, 9, 27, 18, 11]","[1.149123181311491, 1.0692741350686399, 0.9505134952984586, 0.9492754246725091, 0.933861933443721, 0.812865563954734, 0.8114662559465059, 0.8104997878285465, 0.7936149699894071, 0.7251469757700243]","[54, 1, 41, 8, 24, 45, 46, 49, 34, 2]","[-1.0660055737300422, -0.9991451689775853, -0.9800539953219264, -0.9607986824806466, -0.8517485107112633, -0.7917524636774013, -0.7779848798959457, -0.7718791206916087, -0.7439909512644037, -0.7050332808645797]",24.431206960698148,-23.927044404073783
233,479,0,-1,-1,0.0,[],[],[],[],0.0,0.0,0,-1,-1,0.0,[],[],[],[],0.0,0.0,0,-1,-1,0.0,[],[],[],[],0.0,0.0
234,93,93,"[48, 9, 29, 40, 7]","[-0.32461955923441893, -0.25980496058728597, -0.24195523091597682, -0.22151738837648377, -0.19543393445507712]",-0.15112250836161412,"[43, 42, 16, 9, 15, 20, 21, 22, 17, 41]","[0.3712499434066546, 0.34415113550877574, 0.28525646409274363, 0.2562351157323569, 0.2544883654331426, 0.1873239134214474, 0.1849659635706975, 0.17273994971013906, 0.16485355420375042, 0.16211144259083368]","[48, 9, 29, 40, 7, 15, 46, 1, 18, 35]","[-0.32461955923441893, -0.25980496058728597, -0.24195523091597682, -0.22151738837648377, -0.19543393445507712, -0.18827556575751678, -0.17493047483514917, -0.16624409587211075, -0.16562382106469595, -0.14741042453315825]",4.870651760197643,-4.962860325405272,93,"[48, 9, 29, 40, 7]","[-0.32461955923441893, -0.25980496058728597, -0.24195523091597682, -0.22151738837648377, -0.19543393445507712]",-0.15112250836161412,"[43, 42, 16, 9, 15, 20, 21, 22, 17, 41]","[0.3712499434066546, 0.34415113550877574, 0.28525646409274363, 0.2562351157323569, 0.2544883654331426, 0.1873239134214474, 0.1849659635706975, 0.17273994971013906, 0.16485355420375042, 0.16211144259083368]","[48, 9, 29, 40, 7, 15, 46, 1, 18, 35]","[-0.32461955923441893, -0.25980496058728597, -0.24195523091597682, -0.22151738837648377, -0.19543393445507712, -0.18827556575751678, -0.17493047483514917, -0.16624409587211075, -0.16562382106469595, -0.14741042453315825]",4.870651760197643,-4.962860325405272,93,"[48, 9, 29, 40, 7]","[-0.32461955923441893, -0.25980496058728597, -0.24195523091597682, -0.22151738837648377, -0.19543393445507712]",-0.15112250836161412,"[43, 42, 16, 9, 15, 20, 21, 22, 17, 41]","[0.3712499434066546, 0.34415113550877574, 0.28525646409274363, 0.2562351157323569, 0.2544883654331426, 0.1873239134214474, 0.1849659635706975, 0.17273994971013906, 0.16485355420375042, 0.16211144259083368]","[48, 9, 29, 40, 7, 15, 46, 1, 18, 35]","[-0.32461955923441893, -0.25980496058728597, -0.24195523091597682, -0.22151738837648377, -0.19543393445507712, -0.18827556575751678, -0.17493047483514917, -0.16624409587211075, -0.16562382106469595, -0.14741042453315825]",4.870651760197643,-4.962860325405272
235,123,123,[57],[-1.7502624848000832],-0.07096514572565948,"[36, 50, 9, 5, 24, 16, 15, 55, 49, 32]","[1.8880279031194571, 1.8193361498782419, 1.6772686062941486, 1.5586351985751277, 1.5282413159735018, 1.523311824719726, 1.460329342029868, 1.3929125007418173, 1.3733886060925427, 1.1849496237054888]","[57, 9, 35, 2, 37, 3, 36, 1, 15, 32]","[-1.7502624848000832, -1.7454771513680853, -1.7324816679573536, -1.7192852063174995, -1.6253701903523436, -1.5517107982438874, -1.51837682761905, -1.3273566321058061, -1.321734866183977, -1.302757339343926]",39.63309233961728,-40.3123896786917,123,"[48, 68]","[-1.4653482603450476, -1.2261765841752983]",-0.7794616065225681,"[14, 13, 40, 39, 16, 2, 42, 6, 30, 24]","[1.8030951827656525, 1.7812444202180195, 1.6545099301478743, 1.6138266576217046, 1.3569288785098648, 1.2792205130726777, 1.255858231734221, 1.2396211855328143, 1.172392016806718, 1.107714151489123]","[48, 68, 8, 45, 52, 2, 3, 57, 65, 9]","[-1.4653482603450476, -1.2261765841752983, -1.1302701784472897, -1.1018168256736023, -1.0489354154923847, -0.9786851988677142, -0.9591385442026972, -0.911732394027467, -0.9035849762926651, -0.8779237699565239]",34.010700008673744,-34.92276324667152,123,"[8, 45]","[-1.2307426357276035, -1.0907314927885956]",-0.8429533203398327,"[14, 41, 13, 42, 31, 18, 2, 45, 25, 27]","[1.4522288479341545, 1.2484458715168871, 1.236108555463059, 1.1401734127271748, 1.1256530211829137, 1.1209693992378225, 1.0405393048581173, 0.9591978042806952, 0.945180268350116, 0.9265724033374491]","[8, 45, 43, 50, 64, 3, 19, 4, 25, 51]","[-1.2307426357276035, -1.0907314927885956, -1.0024823758106023, -0.8931164412814038, -0.8822742964209567, -0.8755544609433297, -0.8644500069403995, -0.8579472056629437, -0.7959032511992813, -0.7836398766321823]",27.35306576401439,-27.831586572190755
236,47,47,[22],[-0.583600621284142],-0.27500141283211654,"[12, 13, 3, 19, 20, 11, 10, 15, 1, 14]","[0.5945863758609133, 0.5926694863564594, 0.5710940399357691, 0.558919895040913, 0.4685126160360368, 0.4496427687082629, 0.44326722942250374, 0.32733915752385867, 0.3040358014809683, 0.213467056780414]","[22, 19, 0, 1, 5, 15, 18, 17, 13, 11]","[-0.583600621284142, -0.4629696074408634, -0.3862126094738871, -0.37179887238919335, -0.3469593394710231, -0.3094619821264375, -0.25776139048378194, -0.2572239902813007, -0.2523815315113949, -0.25168390641454824]",5.590523942461501,-4.8991231509135265,47,[],[],-0.7817562193838992,"[9, 7, 8, 14, 10, 17, 5, 11, 3, 20]","[1.879109751337346, 1.4744178650796071, 1.2102590504906545, 1.112356760054272, 0.958580954922554, 0.8875659630660838, 0.8567676327228925, 0.8143041698621067, 0.713622606104811, 0.6994624160407569]","[12, 4, 21, 2, 22, 17, 0, 6, 19, 10]","[-1.118867247935084, -0.8650790740743871, -0.8125846878052059, -0.807274374260106, -0.7350285465852285, -0.7049160541680958, -0.5487274342588532, -0.5343877861049194, -0.5169143799030538, -0.5066972527800241]",13.454531964803088,-11.67277574541919,47,[],[],-1.0493546966305178,"[8, 19, 6, 17, 16, 3, 9, 18, 10, 4]","[1.7981812987935901, 0.9972251336346332, 0.9861869102778277, 0.858590746866123, 0.7983103280208228, 0.792430556857981, 0.7295385090910336, 0.7158925880927963, 0.7150470203876828, 0.7030860797195834]","[4, 12, 2, 21, 22, 20, 23, 17, 14, 7]","[-0.8708422644184244, -0.8682878265662255, -0.7891004376537957, -0.6503363488997416, -0.6037466181517009, -0.6034725595256285, -0.5866777191582152, -0.488381756763128, -0.48072229662786375, -0.47797525755035764]",12.812048930173203,-10.762694233542685
237,28,28,"[9, 8, 10, 2]","[-0.19854244471278748, -0.1869952152538751, -0.17711336597188554, -0.17040287499993498]",-0.11091874737070673,"[8, 3, 2, 12, 10, 15, 7, 1, 0, 5]","[0.25567835403490835, 0.21186390943882802, 0.20050422862559084, 0.14370011623069845, 0.12503433248436793, 0.09486303245773449, 0.08614804727725583, 0.07723833671932043, 0.06453271404132063, 0.053309778324331314]","[9, 8, 10, 2, 0, 7, 1, 6, 4, 5]","[-0.19854244471278748, -0.1869952152538751, -0.17711336597188554, -0.17040287499993498, -0.11223197785112049, -0.08601213342441925, -0.05149951668045757, -0.03262044942853072, -0.026720811934229326, -0.02094661345931847]",1.457657897079844,-1.0797930506476203,28,"[9, 10, 11, 0, 8]","[-0.20670290501077168, -0.20408319408606987, -0.17309924735041263, -0.11266129795009978, -0.10196209744788193]",-0.08081976174209986,"[7, 3, 2, 11, 8, 6, 14, 1, 0, 9]","[0.248572657906694, 0.18658825409527072, 0.18370914836201852, 0.13787766914143135, 0.11493481290572713, 0.09153665757469014, 0.07810942554450356, 0.06592443533595208, 0.06385798117124739, 0.057749351490707715]","[9, 10, 11, 0, 8, 3, 2, 5, 7, 1]","[-0.20670290501077168, -0.20408319408606987, -0.17309924735041263, -0.11266129795009978, -0.10196209744788193, -0.0693378908196758, -0.0638860473471939, -0.04145162399926079, -0.030758171276914666, -0.018539577996310237]",1.3478795891730169,-1.065568569276153,28,"[9, 10, 11, 0, 8]","[-0.20670290501077168, -0.20408319408606987, -0.17309924735041263, -0.11266129795009978, -0.10196209744788193]",-0.08081976174209986,"[7, 3, 2, 11, 8, 6, 14, 1, 0, 9]","[0.248572657906694, 0.18658825409527072, 0.18370914836201852, 0.13787766914143135, 0.11493481290572713, 0.09153665757469014, 0.07810942554450356, 0.06592443533595208, 0.06385798117124739, 0.057749351490707715]","[9, 10, 11, 0, 8, 3, 2, 5, 7, 1]","[-0.20670290501077168, -0.20408319408606987, -0.17309924735041263, -0.11266129795009978, -0.10196209744788193, -0.0693378908196758, -0.0638860473471939, -0.04145162399926079, -0.030758171276914666, -0.018539577996310237]",1.3478795891730169,-1.065568569276153
238,158,158,"[43, 73, 22, 44, 15, 74, 4, 27]","[-0.163863172911674, -0.15766391653276396, -0.14825565522637907, -0.14028595954756207, -0.13780421969148193, -0.12837497997951502, -0.10602224984161684, -0.10581948198199356]",-0.004491974352666489,"[1, 17, 47, 62, 65, 37, 27, 71, 10, 38]","[0.17220443317929046, 0.1627243207847445, 0.14402502472871884, 0.14247730654948745, 0.14012995470594794, 0.12335399810076766, 0.1170650595500615, 0.10747272760582977, 0.10592120007584412, 0.10382535494679793]","[43, 73, 22, 44, 15, 74, 4, 27, 64, 35]","[-0.163863172911674, -0.15766391653276396, -0.14825565522637907, -0.14028595954756207, -0.13780421969148193, -0.12837497997951502, -0.10602224984161684, -0.10581948198199356, -0.10431575749962808, -0.09538994140275793]",3.9479333244568777,-4.031530985817198,158,"[43, 73, 22, 44, 15, 74, 4, 27]","[-0.163863172911674, -0.15766391653276396, -0.14825565522637907, -0.14028595954756207, -0.13780421969148193, -0.12837497997951502, -0.10602224984161684, -0.10581948198199356]",-0.004491974352666489,"[1, 17, 47, 62, 65, 37, 27, 71, 10, 38]","[0.17220443317929046, 0.1627243207847445, 0.14402502472871884, 0.14247730654948745, 0.14012995470594794, 0.12335399810076766, 0.1170650595500615, 0.10747272760582977, 0.10592120007584412, 0.10382535494679793]","[43, 73, 22, 44, 15, 74, 4, 27, 64, 35]","[-0.163863172911674, -0.15766391653276396, -0.14825565522637907, -0.14028595954756207, -0.13780421969148193, -0.12837497997951502, -0.10602224984161684, -0.10581948198199356, -0.10431575749962808, -0.09538994140275793]",3.9479333244568777,-4.031530985817198,158,"[43, 73, 22, 44, 15, 74, 4, 27]","[-0.163863172911674, -0.15766391653276396, -0.14825565522637907, -0.14028595954756207, -0.13780421969148193, -0.12837497997951502, -0.10602224984161684, -0.10581948198199356]",-0.004491974352666489,"[1, 17, 47, 62, 65, 37, 27, 71, 10, 38]","[0.17220443317929046, 0.1627243207847445, 0.14402502472871884, 0.14247730654948745, 0.14012995470594794, 0.12335399810076766, 0.1170650595500615, 0.10747272760582977, 0.10592120007584412, 0.10382535494679793]","[43, 73, 22, 44, 15, 74, 4, 27, 64, 35]","[-0.163863172911674, -0.15766391653276396, -0.14825565522637907, -0.14028595954756207, -0.13780421969148193, -0.12837497997951502, -0.10602224984161684, -0.10581948198199356, -0.10431575749962808, -0.09538994140275793]",3.9479333244568777,-4.031530985817198
239,23,23,"[2, 8]","[-0.47304338554554604, -0.4351867947409337]",-0.1740249794925589,"[3, 13, 7, 10, 11, 4, 12, 9, 0, 6]","[0.3725816448437251, 0.3434996837932715, 0.27205462107843037, 0.216232685366096, 0.21015685385828287, 0.1976921661491194, 0.17958349883113472, 0.175300464312154, 0.17060312570901276, 0.13102362791627042]","[2, 8, 7, 3, 6, 4, 5, 1, 0]","[-0.47304338554554604, -0.4351867947409337, -0.40542125921925676, -0.2549453255461913, -0.19312441985270148, -0.17431815051450306, -0.1539053784245657, -0.14663284824484263, -0.08261603712446884]",2.584988398419089,-2.3191935992130097,23,"[7, 8, 1]","[-0.27125178167263275, -0.2633261627622962, -0.2370357335529865]",-0.018900986158275374,"[4, 7, 8, 11, 13, 5, 1, 6, 2, 10]","[0.1933072387317408, 0.19176729074525584, 0.17247457761802493, 0.1431153287684115, 0.1401029164337561, 0.13651113402634202, 0.11532006925027793, 0.11399660170378323, 0.10193909832523157, 0.06531435350670312]","[7, 8, 1, 3, 2, 5, 6, 0, 4]","[-0.27125178167263275, -0.2633261627622962, -0.2370357335529865, -0.12119989839609681, -0.11555571636955657, -0.10704260697146908, -0.09402537690586604, -0.05927284217765307, -0.021377583584070298]",1.5373750105629873,-1.2900877023926274,23,"[7, 8, 1]","[-0.27125178167263275, -0.2633261627622962, -0.2370357335529865]",-0.018900986158275374,"[4, 7, 8, 11, 13, 5, 1, 6, 2, 10]","[0.1933072387317408, 0.19176729074525584, 0.17247457761802493, 0.1431153287684115, 0.1401029164337561, 0.13651113402634202, 0.11532006925027793, 0.11399660170378323, 0.10193909832523157, 0.06531435350670312]","[7, 8, 1, 3, 2, 5, 6, 0, 4]","[-0.27125178167263275, -0.2633261627622962, -0.2370357335529865, -0.12119989839609681, -0.11555571636955657, -0.10704260697146908, -0.09402537690586604, -0.05927284217765307, -0.021377583584070298]",1.5373750105629873,-1.2900877023926274
240,22,0,-1,-1,0.0,[],[],[],[],0.0,0.0,0,-1,-1,0.0,[],[],[],[],0.0,0.0,0,-1,-1,0.0,[],[],[],[],0.0,0.0
241,19,0,-1,-1,0.0,[],[],[],[],0.0,0.0,0,-1,-1,0.0,[],[],[],[],0.0,0.0,0,-1,-1,0.0,[],[],[],[],0.0,0.0
242,80,80,[],[],-0.8883661981942161,"[41, 37, 10, 0, 19, 28, 45, 40, 11, 3]","[1.8538329424098132, 1.2318610745716485, 1.0354709916178375, 1.0103540892627128, 0.9607642968919203, 0.9591473921256776, 0.9164965794320231, 0.8744705511004607, 0.7626139253522944, 0.7239451723727571]","[27, 26, 28, 18, 7, 8, 14, 33, 23, 24]","[-1.8823136255693413, -1.563395854423945, -1.3470014979453746, -1.0412943627903988, -1.02620623992989, -0.9287597686867429, -0.7857814882795594, -0.7574950200139156, -0.7565148002674076, -0.6740674235777335]",22.23205400337865,-20.343687805184434,80,[],[],-0.7822856886430536,"[38, 34, 16, 26, 11, 23, 9, 10, 3, 15]","[1.842211622131074, 1.4027312264648413, 1.0963425127648594, 1.0435777844295628, 1.0197223976555, 0.9918781893844117, 0.9180630090535689, 0.904993250807589, 0.8393408514920606, 0.7522425092561318]","[10, 30, 31, 29, 20, 17, 2, 14, 16, 34]","[-1.5936265481164698, -1.3938852010019676, -1.156637703262012, -1.1168098989366266, -1.022771610272346, -1.0214453757135358, -0.8297001983415945, -0.8141939971322052, -0.7456495295962194, -0.7008416542988606]",20.848550716878528,-19.066265028235474,80,[],[],-0.47302134708725774,"[36, 32, 17, 26, 9, 12, 16, 30, 23, 3]","[1.615323809937584, 1.1098863697491559, 1.026567378114746, 0.9206860190265308, 0.8530425068414237, 0.7617459811121602, 0.7296406869624252, 0.6601666467461786, 0.6335731697382103, 0.6143490820801101]","[9, 32, 33, 31, 20, 16, 2, 13, 4, 8]","[-1.2179372258483323, -1.1899449791011185, -1.0734665582325102, -1.0252774893935381, -0.904585228478448, -0.7297588625576341, -0.6566714130023381, -0.6207981751283465, -0.585353343453502, -0.5491505282423849]",17.794365476341117,-16.32134412925386
243,237,237,[101],[-3.1842970999635147],-2.606938745498069,"[114, 1, 91, 99, 66, 86, 5, 3, 28, 38]","[2.746217632151313, 2.595430193740901, 2.47320607481703, 2.216255335263552, 2.093760718793467, 2.0397016376894146, 1.9352321504659176, 1.905282769788307, 1.901260356990196, 1.894770227088617]","[101, 84, 36, 19, 53, 58, 85, 63, 56, 62]","[-3.1842970999635147, -2.3195143299949232, -2.193726116687095, -2.1882131655867383, -2.0914757048281913, -1.8688942224027527, -1.8497265267802183, -1.8448575522275847, -1.7986386753139398, -1.7517284481374458]",99.10423168346298,-98.68159003792843,237,"[109, 91]","[-1.0295149782068684, -0.8865339222563803]",-0.840377187163515,"[57, 1, 109, 92, 84, 23, 17, 6, 16, 3]","[1.006122240243391, 0.9469222965905394, 0.8104397457047969, 0.8020484290311369, 0.661813296009539, 0.6515920609317135, 0.6204060973014752, 0.6027743346294541, 0.5896156708584641, 0.5884806547991281]","[109, 91, 116, 104, 74, 8, 41, 94, 23, 84]","[-1.0295149782068684, -0.8865339222563803, -0.766709807237487, -0.7415151722102615, -0.6891610577691767, -0.6215737401497368, -0.6213817007751402, -0.5885340357836993, -0.5744877362976819, -0.5659649960435301]",32.60434140225431,-32.68001311555405,237,"[109, 91]","[-1.0295149782068684, -0.8865339222563803]",-0.840377187163515,"[57, 1, 109, 92, 84, 23, 17, 6, 16, 3]","[1.006122240243391, 0.9469222965905394, 0.8104397457047969, 0.8020484290311369, 0.661813296009539, 0.6515920609317135, 0.6204060973014752, 0.6027743346294541, 0.5896156708584641, 0.5884806547991281]","[109, 91, 116, 104, 74, 8, 41, 94, 23, 84]","[-1.0295149782068684, -0.8865339222563803, -0.766709807237487, -0.7415151722102615, -0.6891610577691767, -0.6215737401497368, -0.6213817007751402, -0.5885340357836993, -0.5744877362976819, -0.5659649960435301]",32.60434140225431,-32.68001311555405
244,21,0,-1,-1,0.0,[],[],[],[],0.0,0.0,0,-1,-1,0.0,[],[],[],[],0.0,0.0,0,-1,-1,0.0,[],[],[],[],0.0,0.0
245,194,194,"[32, 12, 92]","[-0.4286721085756676, -0.40312897429843764, -0.3442184612601038]",-0.21415566702351463,"[38, 57, 53, 76, 49, 89, 17, 1, 27, 93]","[0.37949177754582186, 0.3328764829816465, 0.3194685816475856, 0.30720558809463083, 0.3043331225603248, 0.2918985985523416, 0.27774396199963275, 0.25970582354872623, 0.2253300217908577, 0.22077294665954353]","[32, 12, 92, 4, 89, 46, 36, 41, 80, 74]","[-0.4286721085756676, -0.40312897429843764, -0.3442184612601038, -0.3377563071717079, -0.3150055863364262, -0.2876985443574463, -0.27532256306829284, -0.25154391538203047, -0.23729879429827477, -0.23682443565526384]",11.305464945405713,-11.267328822516408,194,"[32, 12, 92]","[-0.4286721085756676, -0.40312897429843764, -0.3442184612601038]",-0.21415566702351463,"[38, 57, 53, 76, 49, 89, 17, 1, 27, 93]","[0.37949177754582186, 0.3328764829816465, 0.3194685816475856, 0.30720558809463083, 0.3043331225603248, 0.2918985985523416, 0.27774396199963275, 0.25970582354872623, 0.2253300217908577, 0.22077294665954353]","[32, 12, 92, 4, 89, 46, 36, 41, 80, 74]","[-0.4286721085756676, -0.40312897429843764, -0.3442184612601038, -0.3377563071717079, -0.3150055863364262, -0.2876985443574463, -0.27532256306829284, -0.25154391538203047, -0.23729879429827477, -0.23682443565526384]",11.305464945405713,-11.267328822516408,194,"[32, 12, 92]","[-0.4286721085756676, -0.40312897429843764, -0.3442184612601038]",-0.21415566702351463,"[38, 57, 53, 76, 49, 89, 17, 1, 27, 93]","[0.37949177754582186, 0.3328764829816465, 0.3194685816475856, 0.30720558809463083, 0.3043331225603248, 0.2918985985523416, 0.27774396199963275, 0.25970582354872623, 0.2253300217908577, 0.22077294665954353]","[32, 12, 92, 4, 89, 46, 36, 41, 80, 74]","[-0.4286721085756676, -0.40312897429843764, -0.3442184612601038, -0.3377563071717079, -0.3150055863364262, -0.2876985443574463, -0.27532256306829284, -0.25154391538203047, -0.23729879429827477, -0.23682443565526384]",11.305464945405713,-11.267328822516408
246,25,25,"[2, 3, 1, 0]","[-0.014641394177518276, -0.014583748542878834, -0.014415462316455551, -0.014403480769521181]",0.9039996408894585,"[6, 18, 8, 13, 20, 11, 15, 14, 4, 10]","[0.008871691123378772, 0.008140243147110466, 0.007366244311147192, 0.0070584521118635885, 0.006172153780632377, 0.00613706762261069, 0.0061204279353384225, 0.006060470833637206, 0.005857330479362365, 0.004116307706684235]","[2, 3, 1, 0]","[-0.014641394177518276, -0.014583748542878834, -0.014415462316455551, -0.014403480769521181]",0.09600035911054156,-0.05804408580637384,25,"[2, 3, 1, 0]","[-0.014641394177518276, -0.014583748542878834, -0.014415462316455551, -0.014403480769521181]",0.9039996408894585,"[6, 18, 8, 13, 20, 11, 15, 14, 4, 10]","[0.008871691123378772, 0.008140243147110466, 0.007366244311147192, 0.0070584521118635885, 0.006172153780632377, 0.00613706762261069, 0.0061204279353384225, 0.006060470833637206, 0.005857330479362365, 0.004116307706684235]","[2, 3, 1, 0]","[-0.014641394177518276, -0.014583748542878834, -0.014415462316455551, -0.014403480769521181]",0.09600035911054156,-0.05804408580637384,25,"[2, 3, 1, 0]","[-0.014641394177518276, -0.014583748542878834, -0.014415462316455551, -0.014403480769521181]",0.9039996408894585,"[6, 18, 8, 13, 20, 11, 15, 14, 4, 10]","[0.008871691123378772, 0.008140243147110466, 0.007366244311147192, 0.0070584521118635885, 0.006172153780632377, 0.00613706762261069, 0.0061204279353384225, 0.006060470833637206, 0.005857330479362365, 0.004116307706684235]","[2, 3, 1, 0]","[-0.014641394177518276, -0.014583748542878834, -0.014415462316455551, -0.014403480769521181]",0.09600035911054156,-0.05804408580637384
247,55,55,"[27, 17, 10, 19]","[-0.3845314677605173, -0.308879238091571, -0.2297078935640267, -0.2047906198746559]",-0.17496588957377684,"[17, 7, 15, 14, 6, 19, 0, 9, 13, 25]","[0.4275785308152651, 0.30650440710162985, 0.2160682754638895, 0.20710919228653657, 0.19589538236885093, 0.19468934928595677, 0.1811280175089794, 0.17712131174548193, 0.15680055129201234, 0.15099850352214042]","[27, 17, 10, 19, 14, 7, 3, 4, 13, 25]","[-0.3845314677605173, -0.308879238091571, -0.2297078935640267, -0.2047906198746559, -0.18409786956424912, -0.17844691914843816, -0.1630290880603907, -0.14501793890603323, -0.1383170516148094, -0.13641676483144444]",3.080927646915527,-3.033870976632521,55,"[27, 17, 10, 19]","[-0.3845314677605173, -0.308879238091571, -0.2297078935640267, -0.2047906198746559]",-0.17496588957377684,"[17, 7, 15, 14, 6, 19, 0, 9, 13, 25]","[0.4275785308152651, 0.30650440710162985, 0.2160682754638895, 0.20710919228653657, 0.19589538236885093, 0.19468934928595677, 0.1811280175089794, 0.17712131174548193, 0.15680055129201234, 0.15099850352214042]","[27, 17, 10, 19, 14, 7, 3, 4, 13, 25]","[-0.3845314677605173, -0.308879238091571, -0.2297078935640267, -0.2047906198746559, -0.18409786956424912, -0.17844691914843816, -0.1630290880603907, -0.14501793890603323, -0.1383170516148094, -0.13641676483144444]",3.080927646915527,-3.033870976632521,55,"[27, 17, 10, 19]","[-0.3845314677605173, -0.308879238091571, -0.2297078935640267, -0.2047906198746559]",-0.17496588957377684,"[17, 7, 15, 14, 6, 19, 0, 9, 13, 25]","[0.4275785308152651, 0.30650440710162985, 0.2160682754638895, 0.20710919228653657, 0.19589538236885093, 0.19468934928595677, 0.1811280175089794, 0.17712131174548193, 0.15680055129201234, 0.15099850352214042]","[27, 17, 10, 19, 14, 7, 3, 4, 13, 25]","[-0.3845314677605173, -0.308879238091571, -0.2297078935640267, -0.2047906198746559, -0.18409786956424912, -0.17844691914843816, -0.1630290880603907, -0.14501793890603323, -0.1383170516148094, -0.13641676483144444]",3.080927646915527,-3.033870976632521
248,160,160,"[29, 74]","[-1.5732081291605786, -1.3249435248551824]",-0.4173356636632928,"[77, 7, 44, 47, 35, 12, 31, 33, 11, 13]","[1.0943538926552385, 1.090598435679458, 0.9668612833346212, 0.9433308260301949, 0.875298510898662, 0.8534048992937167, 0.8137729266269181, 0.7942989201127396, 0.7351490558000681, 0.7337571300120416]","[29, 74, 40, 58, 73, 18, 53, 41, 66, 47]","[-1.5732081291605786, -1.3249435248551824, -1.193285099597562, -0.9410063683832851, -0.9294290410985255, -0.8995283817639903, -0.8705393863357275, -0.8145038693484383, -0.7770781839583764, -0.754299171828302]",30.727564790596254,-32.20838078094872,160,"[30, 55, 42]","[-0.6840389306319573, -0.6006129595767875, -0.6001854076436623]",-0.14010980241809579,"[10, 51, 28, 77, 6, 43, 11, 35, 0, 71]","[0.5800407758644405, 0.5784593121538146, 0.5168542312652867, 0.4801565917394084, 0.4673403034894105, 0.40329819308036924, 0.3945749513070603, 0.3928271140306705, 0.3921137854160629, 0.37374885656746404]","[30, 55, 42, 21, 49, 41, 72, 44, 71, 39]","[-0.6840389306319573, -0.6006129595767875, -0.6001854076436623, -0.5185446871490329, -0.5080955678447964, -0.5048533240258093, -0.49393155327538146, -0.4822108330072051, -0.47674102547067476, -0.4720171691255586]",16.235974306823053,-16.980701802257364,160,"[30, 55, 42]","[-0.6840389306319573, -0.6006129595767875, -0.6001854076436623]",-0.14010980241809579,"[10, 51, 28, 77, 6, 43, 11, 35, 0, 71]","[0.5800407758644405, 0.5784593121538146, 0.5168542312652867, 0.4801565917394084, 0.4673403034894105, 0.40329819308036924, 0.3945749513070603, 0.3928271140306705, 0.3921137854160629, 0.37374885656746404]","[30, 55, 42, 21, 49, 41, 72, 44, 71, 39]","[-0.6840389306319573, -0.6006129595767875, -0.6001854076436623, -0.5185446871490329, -0.5080955678447964, -0.5048533240258093, -0.49393155327538146, -0.4822108330072051, -0.47674102547067476, -0.4720171691255586]",16.235974306823053,-16.980701802257364
249,121,121,"[54, 19, 10, 33, 25]","[-0.2760780296602768, -0.2674868888666059, -0.233552483162067, -0.23294351393650012, -0.2170111847692671]",-0.19975243810230092,"[0, 60, 38, 28, 11, 57, 6, 32, 54, 23]","[0.394638041854234, 0.2789227715926782, 0.2519121908177133, 0.21028382515475294, 0.20317836435156733, 0.18300107753190412, 0.17423492931964077, 0.17283776341447588, 0.17068589909621354, 0.16894525789417994]","[54, 19, 10, 33, 25, 44, 24, 53, 50, 2]","[-0.2760780296602768, -0.2674868888666059, -0.233552483162067, -0.23294351393650012, -0.2170111847692671, -0.20029586220421525, -0.1924057254679871, -0.19176890742528668, -0.18384079947277257, -0.17829519850032746]",5.813995204337464,-5.8413148666298795,121,"[17, 5]","[-1.0278343007125554, -0.8917020017672536]",-0.12459212910018624,"[44, 45, 35, 33, 52, 43, 42, 37, 48, 41]","[1.3290578802208037, 0.9863392363567896, 0.7191362604165991, 0.698199411789018, 0.6838541569126789, 0.6765595883565618, 0.5337400393033935, 0.5189929962196346, 0.4939554499003286, 0.48032327651069046]","[17, 5, 23, 59, 6, 62, 60, 14, 43, 1]","[-1.0278343007125554, -0.8917020017672536, -0.755723568613468, -0.7214235700790625, -0.6097212122041806, -0.6046101614195808, -0.6037535074083623, -0.5902995364126464, -0.5659777989781821, -0.5492479358409401]",18.090311937249297,-18.88525611062892,121,[11],[-2.4569345670108267],-0.005388036280564723,"[37, 36, 25, 6, 12, 52, 22, 30, 46, 29]","[2.7094396135836516, 2.545195511433365, 2.1950071913638562, 1.9463358972738, 1.8603523820232812, 1.8308558150023102, 1.7315522504064207, 1.7085179522130691, 1.6661179704560556, 1.654177127281919]","[11, 10, 60, 17, 54, 58, 41, 62, 0, 53]","[-2.4569345670108267, -2.2695697763139293, -2.2116741908384725, -2.1241798322839807, -2.00223688480548, -1.8404044190752962, -1.6889010747682494, -1.6130070206660665, -1.5983830009664461, -1.5190638667037744]",53.31774111535812,-54.76928764608838
250,76,76,"[17, 25]","[-0.5779734083674423, -0.3735653125897227]",-0.1638927032692884,"[34, 30, 41, 9, 20, 4, 10, 14, 7, 40]","[0.4516725904975389, 0.36060403117273004, 0.29110654593689145, 0.2737713242209612, 0.2592545421448243, 0.24163398074723325, 0.23867646274493923, 0.23833347026410287, 0.22095650080983417, 0.20615127089438887]","[17, 25, 24, 3, 11, 28, 1, 21, 32, 29]","[-0.5779734083674423, -0.3735653125897227, -0.29415545295702816, -0.29029547791842636, -0.2683032715626393, -0.257510069108283, -0.2557421468390267, -0.2394753951817237, -0.2343084337361191, -0.22167697130719513]",6.023100651722474,-5.81074666941035,76,"[17, 25]","[-0.5779734083674423, -0.3735653125897227]",-0.1638927032692884,"[34, 30, 41, 9, 20, 4, 10, 14, 7, 40]","[0.4516725904975389, 0.36060403117273004, 0.29110654593689145, 0.2737713242209612, 0.2592545421448243, 0.24163398074723325, 0.23867646274493923, 0.23833347026410287, 0.22095650080983417, 0.20615127089438887]","[17, 25, 24, 3, 11, 28, 1, 21, 32, 29]","[-0.5779734083674423, -0.3735653125897227, -0.29415545295702816, -0.29029547791842636, -0.2683032715626393, -0.257510069108283, -0.2557421468390267, -0.2394753951817237, -0.2343084337361191, -0.22167697130719513]",6.023100651722474,-5.81074666941035,76,"[17, 25]","[-0.5779734083674423, -0.3735653125897227]",-0.1638927032692884,"[34, 30, 41, 9, 20, 4, 10, 14, 7, 40]","[0.4516725904975389, 0.36060403117273004, 0.29110654593689145, 0.2737713242209612, 0.2592545421448243, 0.24163398074723325, 0.23867646274493923, 0.23833347026410287, 0.22095650080983417, 0.20615127089438887]","[17, 25, 24, 3, 11, 28, 1, 21, 32, 29]","[-0.5779734083674423, -0.3735653125897227, -0.29415545295702816, -0.29029547791842636, -0.2683032715626393, -0.257510069108283, -0.2557421468390267, -0.2394753951817237, -0.2343084337361191, -0.22167697130719513]",6.023100651722474,-5.81074666941035
251,20,0,-1,-1,0.0,[],[],[],[],0.0,0.0,0,-1,-1,0.0,[],[],[],[],0.0,0.0,0,-1,-1,0.0,[],[],[],[],0.0,0.0
252,96,96,"[18, 15, 10, 21, 14, 20]","[-0.1676611151019874, -0.12866105923409643, -0.1131520966564811, -0.10620933753108906, -0.09890093598708835, -0.08771886354616025]",-0.01898949045765165,"[25, 17, 19, 8, 6, 21, 18, 37, 43, 9]","[0.1478736915660019, 0.1461930051959304, 0.14229253270234743, 0.1295545617389644, 0.12269579713021726, 0.09442525795822863, 0.09124210094343986, 0.09015761059218293, 0.08574449044251291, 0.08412713475081218]","[18, 15, 10, 21, 14, 20, 9, 33, 28, 31]","[-0.1676611151019874, -0.12866105923409643, -0.1131520966564811, -0.10620933753108906, -0.09890093598708835, -0.08771886354616025, -0.08195491454320537, -0.08071393396225474, -0.07427755165269977, -0.0722305176437742]",2.564169586144857,-2.2474835037441077,96,"[18, 15, 10, 21, 14, 20]","[-0.1676611151019874, -0.12866105923409643, -0.1131520966564811, -0.10620933753108906, -0.09890093598708835, -0.08771886354616025]",-0.01898949045765165,"[25, 17, 19, 8, 6, 21, 18, 37, 43, 9]","[0.1478736915660019, 0.1461930051959304, 0.14229253270234743, 0.1295545617389644, 0.12269579713021726, 0.09442525795822863, 0.09124210094343986, 0.09015761059218293, 0.08574449044251291, 0.08412713475081218]","[18, 15, 10, 21, 14, 20, 9, 33, 28, 31]","[-0.1676611151019874, -0.12866105923409643, -0.1131520966564811, -0.10620933753108906, -0.09890093598708835, -0.08771886354616025, -0.08195491454320537, -0.08071393396225474, -0.07427755165269977, -0.0722305176437742]",2.564169586144857,-2.2474835037441077,96,"[18, 15, 10, 21, 14, 20]","[-0.1676611151019874, -0.12866105923409643, -0.1131520966564811, -0.10620933753108906, -0.09890093598708835, -0.08771886354616025]",-0.01898949045765165,"[25, 17, 19, 8, 6, 21, 18, 37, 43, 9]","[0.1478736915660019, 0.1461930051959304, 0.14229253270234743, 0.1295545617389644, 0.12269579713021726, 0.09442525795822863, 0.09124210094343986, 0.09015761059218293, 0.08574449044251291, 0.08412713475081218]","[18, 15, 10, 21, 14, 20, 9, 33, 28, 31]","[-0.1676611151019874, -0.12866105923409643, -0.1131520966564811, -0.10620933753108906, -0.09890093598708835, -0.08771886354616025, -0.08195491454320537, -0.08071393396225474, -0.07427755165269977, -0.0722305176437742]",2.564169586144857,-2.2474835037441077
253,158,158,[44],[-0.8780838501199124],-0.057045446203217054,"[69, 25, 10, 74, 76, 72, 64, 3, 23, 9]","[1.1521869936320077, 0.9003582412837916, 0.8681835465381192, 0.7974700094953788, 0.7723436555699155, 0.7465975521289623, 0.6918042448834916, 0.6577544391227359, 0.6565611833903863, 0.6552800838760019]","[44, 38, 72, 8, 67, 70, 49, 13, 73, 42]","[-0.8780838501199124, -0.7622606991299088, -0.7444342557667604, -0.7303015533640101, -0.7286267893529897, -0.7229072997390359, -0.6919535135754598, -0.6879173588059927, -0.6811377989360479, -0.6600290666816748]",26.631559734539444,-26.45259813845614,158,"[23, 40]","[-0.6425314110907967, -0.5822761637063238]",-0.4755138534230332,"[65, 22, 61, 72, 8, 10, 25, 68, 11, 28]","[0.7342554493909879, 0.5866454641443514, 0.5468820947253613, 0.5274820672869522, 0.5147560749937635, 0.5139724203308114, 0.48486225996232984, 0.4765804643724913, 0.3901874075151934, 0.38443972579245184]","[23, 40, 8, 48, 41, 31, 15, 45, 25, 77]","[-0.6425314110907967, -0.5822761637063238, -0.5749346320598872, -0.5631833808461075, -0.5615672794913572, -0.47793423102015253, -0.44871567081991987, -0.438644499303993, -0.4027019408466517, -0.38035188488115734]",16.60460634096379,-16.35390006233788,158,"[23, 40]","[-0.6425314110907967, -0.5822761637063238]",-0.4755138534230332,"[65, 22, 61, 72, 8, 10, 25, 68, 11, 28]","[0.7342554493909879, 0.5866454641443514, 0.5468820947253613, 0.5274820672869522, 0.5147560749937635, 0.5139724203308114, 0.48486225996232984, 0.4765804643724913, 0.3901874075151934, 0.38443972579245184]","[23, 40, 8, 48, 41, 31, 15, 45, 25, 77]","[-0.6425314110907967, -0.5822761637063238, -0.5749346320598872, -0.5631833808461075, -0.5615672794913572, -0.47793423102015253, -0.44871567081991987, -0.438644499303993, -0.4027019408466517, -0.38035188488115734]",16.60460634096379,-16.35390006233788
254,82,82,[],[],-0.36941366216381866,"[4, 27, 18, 9, 26, 23, 1, 12, 2, 24]","[1.703431582286378, 1.5740451883257334, 0.8832639355853853, 0.7567492561667617, 0.7366248769224842, 0.6810229584555834, 0.6386845916661826, 0.5803562924410274, 0.5037313341421388, 0.48511747163683255]","[30, 17, 25, 10, 32, 35, 5, 24, 0, 8]","[-1.1256522086685148, -1.1036317130836144, -1.0335818346228933, -1.0292610910990514, -0.9179078081631095, -0.8747789974207845, -0.7742582605452681, -0.7333202412253925, -0.7141624322006279, -0.6936269980468377]",17.200789554870774,-15.831375892706955,82,[],[],-0.2927054793431356,"[5, 27, 12, 26, 19, 6, 10, 38, 24, 2]","[1.4370216257130994, 1.2589650821234428, 0.7750457704609736, 0.7522409370300873, 0.7020537786550662, 0.6411320018068132, 0.6152680113603213, 0.5936939141875118, 0.5728818305421708, 0.5386316992542586]","[33, 27, 9, 30, 25, 32, 4, 8, 7, 17]","[-1.1868987981266637, -0.8997954408396807, -0.8728709234920649, -0.7974324716131073, -0.78199846493926, -0.7135028913139421, -0.6140952797780587, -0.5321522317892221, -0.5290756485766055, -0.5251053085010428]",15.041687103562383,-13.748981624219248,82,[],[],-0.1983775807542365,"[5, 30, 13, 29, 21, 10, 2, 27, 6, 42]","[1.2234414492535635, 1.0870171513584486, 0.5851257885277232, 0.5770071012071092, 0.5561052914844422, 0.507333636524158, 0.49712224310474357, 0.46798417627647587, 0.4212685558191351, 0.3930721100040387]","[28, 9, 22, 14, 21, 27, 25, 31, 7, 4]","[-0.9781248060601043, -0.7910590307626952, -0.7645454609756123, -0.6799565341034255, -0.6548628111236559, -0.538973814353645, -0.5147483528386734, -0.4712108858935408, -0.4591153992206885, -0.4252046350039324]",12.993965278799557,-11.79558769804532
255,206,0,-1,-1,0.0,[],[],[],[],0.0,0.0,0,-1,-1,0.0,[],[],[],[],0.0,0.0,206,"[79, 70]","[-0.9629846293290952, -0.8179569440760419]",-0.7743919103826472,"[49, 21, 60, 78, 91, 16, 94, 32, 61, 46]","[1.1655458617512036, 0.9492515976821254, 0.8717649817054828, 0.7551295095386434, 0.7517093695281974, 0.7123908156789952, 0.7068448819316164, 0.6962525716373082, 0.6755043435054308, 0.6622247860404967]","[79, 70, 10, 5, 51, 8, 25, 45, 89, 99]","[-0.9629846293290952, -0.8179569440760419, -0.8072865441716708, -0.7535297714914875, -0.7510803262097983, -0.7443591636249812, -0.7334613704034232, -0.7333200236380576, -0.7264800007163087, -0.6818718326165126]",32.78492497530109,-32.79147463832358
256,56,56,"[5, 17, 3, 16, 12, 4, 19, 18, 6, 9, 21, 13, 0, 2, 10, 15, 7, 20, 11, 14, 8, 1]","[-0.023750393188636906, -0.022607039493546786, -0.021738769478440955, -0.020411572266863635, -0.019754018608121763, -0.01969244966167005, -0.015543783366466326, -0.014544474317523235, -0.014281928089275484, -0.012674730463112559, -0.005316385387335987, -0.0053030044098070096, -0.004433219897996277, -0.004389234754159171, -0.0041263031500264735, -0.003908838749179307, -0.002487769150804264, -0.001862125211267792, -0.00161277179812479, -0.0009530615981372376, -0.0009075398231772901, -0.00010121074830382625]",0.7699768916995496,"[20, 2, 28, 10, 19, 26, 16, 1, 17, 24]","[0.019487165315615146, 0.016774405382222603, 0.013982192239807175, 0.013856158013189858, 0.012627495089382216, 0.012363019277789699, 0.010530639939728512, 0.00939476255168624, 0.009131688788697545, 0.009066748644465567]","[5, 17, 3, 16, 12, 4, 19, 18, 6, 9]","[-0.023750393188636906, -0.022607039493546786, -0.021738769478440955, -0.020411572266863635, -0.019754018608121763, -0.01969244966167005, -0.015543783366466326, -0.014544474317523235, -0.014281928089275484, -0.012674730463112559]",0.23002310830045,-0.22040062361197713,56,"[5, 17, 3, 16, 12, 4, 19, 18, 6, 9, 21, 13, 0, 2, 10, 15, 7, 20, 11, 14, 8, 1]","[-0.023750393188636906, -0.022607039493546786, -0.021738769478440955, -0.020411572266863635, -0.019754018608121763, -0.01969244966167005, -0.015543783366466326, -0.014544474317523235, -0.014281928089275484, -0.012674730463112559, -0.005316385387335987, -0.0053030044098070096, -0.004433219897996277, -0.004389234754159171, -0.0041263031500264735, -0.003908838749179307, -0.002487769150804264, -0.001862125211267792, -0.00161277179812479, -0.0009530615981372376, -0.0009075398231772901, -0.00010121074830382625]",0.7699768916995496,"[20, 2, 28, 10, 19, 26, 16, 1, 17, 24]","[0.019487165315615146, 0.016774405382222603, 0.013982192239807175, 0.013856158013189858, 0.012627495089382216, 0.012363019277789699, 0.010530639939728512, 0.00939476255168624, 0.009131688788697545, 0.009066748644465567]","[5, 17, 3, 16, 12, 4, 19, 18, 6, 9]","[-0.023750393188636906, -0.022607039493546786, -0.021738769478440955, -0.020411572266863635, -0.019754018608121763, -0.01969244966167005, -0.015543783366466326, -0.014544474317523235, -0.014281928089275484, -0.012674730463112559]",0.23002310830045,-0.22040062361197713,56,"[5, 17, 3, 16, 12, 4, 19, 18, 6, 9, 21, 13, 0, 2, 10, 15, 7, 20, 11, 14, 8, 1]","[-0.023750393188636906, -0.022607039493546786, -0.021738769478440955, -0.020411572266863635, -0.019754018608121763, -0.01969244966167005, -0.015543783366466326, -0.014544474317523235, -0.014281928089275484, -0.012674730463112559, -0.005316385387335987, -0.0053030044098070096, -0.004433219897996277, -0.004389234754159171, -0.0041263031500264735, -0.003908838749179307, -0.002487769150804264, -0.001862125211267792, -0.00161277179812479, -0.0009530615981372376, -0.0009075398231772901, -0.00010121074830382625]",0.7699768916995496,"[20, 2, 28, 10, 19, 26, 16, 1, 17, 24]","[0.019487165315615146, 0.016774405382222603, 0.013982192239807175, 0.013856158013189858, 0.012627495089382216, 0.012363019277789699, 0.010530639939728512, 0.00939476255168624, 0.009131688788697545, 0.009066748644465567]","[5, 17, 3, 16, 12, 4, 19, 18, 6, 9]","[-0.023750393188636906, -0.022607039493546786, -0.021738769478440955, -0.020411572266863635, -0.019754018608121763, -0.01969244966167005, -0.015543783366466326, -0.014544474317523235, -0.014281928089275484, -0.012674730463112559]",0.23002310830045,-0.22040062361197713
