user_id,num_interactions,top5_has_weights,top5_minCFset_index,top5_minCFset_weight,top5_gap,top5_top10pos_index,top5_top10pos_weights,top5_top10neg_index,top5_top10neg_weights,top5_sum_pos,top5_sum_neg,top10_has_weights,top10_minCFset_index,top10_minCFset_weight,top10_gap,top10_top10pos_index,top10_top10pos_weights,top10_top10neg_index,top10_top10neg_weights,top10_sum_pos,top10_sum_neg,top20_has_weights,top20_minCFset_index,top20_minCFset_weight,top20_gap,top20_top10pos_index,top20_top10pos_weights,top20_top10neg_index,top20_top10neg_weights,top20_sum_pos,top20_sum_neg
0,271,0,-1,-1,0.0,[],[],[],[],0.0,0.0,0,-1,-1,0.0,[],[],[],[],0.0,0.0,0,-1,-1,0.0,[],[],[],[],0.0,0.0
1,61,61,"[13, 3, 22, 7, 24]","[-0.2052164530862619, -0.16378992383172367, -0.15753710599031878, -0.1275420930720318, -0.11867969663949429]",-0.07909622944388106,"[10, 20, 12, 4, 11, 3, 19, 13, 16, 5]","[0.22467864820997496, 0.21406333060879373, 0.19811331641693397, 0.19501404639098335, 0.16588038473446556, 0.15919758629677824, 0.13684685151628698, 0.12064253344904734, 0.11595578593956431, 0.10278807070929956]","[13, 3, 22, 7, 24, 28, 6, 27, 19, 12]","[-0.2052164530862619, -0.16378992383172367, -0.15753710599031878, -0.1275420930720318, -0.11867969663949429, -0.11025598273431718, -0.1021476034459241, -0.10006396193060262, -0.09735711349107329, -0.09675659009471042]",2.4301416732637326,-2.123810716439682,61,"[13, 3, 22, 7, 24]","[-0.2052164530862619, -0.16378992383172367, -0.15753710599031878, -0.1275420930720318, -0.11867969663949429]",-0.07909622944388106,"[10, 20, 12, 4, 11, 3, 19, 13, 16, 5]","[0.22467864820997496, 0.21406333060879373, 0.19811331641693397, 0.19501404639098335, 0.16588038473446556, 0.15919758629677824, 0.13684685151628698, 0.12064253344904734, 0.11595578593956431, 0.10278807070929956]","[13, 3, 22, 7, 24, 28, 6, 27, 19, 12]","[-0.2052164530862619, -0.16378992383172367, -0.15753710599031878, -0.1275420930720318, -0.11867969663949429, -0.11025598273431718, -0.1021476034459241, -0.10006396193060262, -0.09735711349107329, -0.09675659009471042]",2.4301416732637326,-2.123810716439682,61,"[13, 3, 22, 7, 24]","[-0.2052164530862619, -0.16378992383172367, -0.15753710599031878, -0.1275420930720318, -0.11867969663949429]",-0.07909622944388106,"[10, 20, 12, 4, 11, 3, 19, 13, 16, 5]","[0.22467864820997496, 0.21406333060879373, 0.19811331641693397, 0.19501404639098335, 0.16588038473446556, 0.15919758629677824, 0.13684685151628698, 0.12064253344904734, 0.11595578593956431, 0.10278807070929956]","[13, 3, 22, 7, 24, 28, 6, 27, 19, 12]","[-0.2052164530862619, -0.16378992383172367, -0.15753710599031878, -0.1275420930720318, -0.11867969663949429, -0.11025598273431718, -0.1021476034459241, -0.10006396193060262, -0.09735711349107329, -0.09675659009471042]",2.4301416732637326,-2.123810716439682
2,53,53,[18],[-0.3018936463011626],-0.0894271488426695,"[10, 1, 3, 29, 15, 0, 8, 32, 30, 5]","[0.2415579131487559, 0.23895349244407266, 0.19382919184512548, 0.16597818165164374, 0.15955842243033833, 0.1563013131338123, 0.15025831455080427, 0.14261204400030925, 0.13266290469866338, 0.12406326051516016]","[18, 11, 10, 14, 2, 7, 17, 13, 1, 4]","[-0.3018936463011626, -0.226699439086085, -0.18216046148460666, -0.16200703631022062, -0.15313855266985235, -0.13801761036984592, -0.12889924466985075, -0.12432347602237429, -0.12057092957697767, -0.08789636021507573]",2.885074359279461,-2.0975408567379543,53,[18],[-0.3018936463011626],-0.0894271488426695,"[10, 1, 3, 29, 15, 0, 8, 32, 30, 5]","[0.2415579131487559, 0.23895349244407266, 0.19382919184512548, 0.16597818165164374, 0.15955842243033833, 0.1563013131338123, 0.15025831455080427, 0.14261204400030925, 0.13266290469866338, 0.12406326051516016]","[18, 11, 10, 14, 2, 7, 17, 13, 1, 4]","[-0.3018936463011626, -0.226699439086085, -0.18216046148460666, -0.16200703631022062, -0.15313855266985235, -0.13801761036984592, -0.12889924466985075, -0.12432347602237429, -0.12057092957697767, -0.08789636021507573]",2.885074359279461,-2.0975408567379543,53,[18],[-0.3018936463011626],-0.0894271488426695,"[10, 1, 3, 29, 15, 0, 8, 32, 30, 5]","[0.2415579131487559, 0.23895349244407266, 0.19382919184512548, 0.16597818165164374, 0.15955842243033833, 0.1563013131338123, 0.15025831455080427, 0.14261204400030925, 0.13266290469866338, 0.12406326051516016]","[18, 11, 10, 14, 2, 7, 17, 13, 1, 4]","[-0.3018936463011626, -0.226699439086085, -0.18216046148460666, -0.16200703631022062, -0.15313855266985235, -0.13801761036984592, -0.12889924466985075, -0.12432347602237429, -0.12057092957697767, -0.08789636021507573]",2.885074359279461,-2.0975408567379543
3,23,23,"[7, 6, 5, 3, 0, 2, 4, 8, 1]","[-0.10599914964456593, -0.0924604965151769, -0.08635513562574587, -0.06793405858315137, -0.0608727126810801, -0.04540815386655645, -0.03487959166266224, -0.029780020817285542, -0.011228648744770187]",0.3818614774374438,"[0, 13, 10, 3, 6, 8, 4, 1, 11, 7]","[0.09700075154880422, 0.07998695725223814, 0.07003235645345689, 0.06904214653744363, 0.06186431550415019, 0.042903704260435736, 0.03819319945529248, 0.03415812484766748, 0.03364219462641521, 0.03064581139881603]","[7, 6, 5, 3, 0, 2, 4, 8, 1]","[-0.10599914964456593, -0.0924604965151769, -0.08635513562574587, -0.06793405858315137, -0.0608727126810801, -0.04540815386655645, -0.03487959166266224, -0.029780020817285542, -0.011228648744770187]",0.6181385225625562,-0.5349179681409946,23,"[7, 6, 5, 3, 0, 2, 4, 8, 1]","[-0.10599914964456593, -0.0924604965151769, -0.08635513562574587, -0.06793405858315137, -0.0608727126810801, -0.04540815386655645, -0.03487959166266224, -0.029780020817285542, -0.011228648744770187]",0.3818614774374438,"[0, 13, 10, 3, 6, 8, 4, 1, 11, 7]","[0.09700075154880422, 0.07998695725223814, 0.07003235645345689, 0.06904214653744363, 0.06186431550415019, 0.042903704260435736, 0.03819319945529248, 0.03415812484766748, 0.03364219462641521, 0.03064581139881603]","[7, 6, 5, 3, 0, 2, 4, 8, 1]","[-0.10599914964456593, -0.0924604965151769, -0.08635513562574587, -0.06793405858315137, -0.0608727126810801, -0.04540815386655645, -0.03487959166266224, -0.029780020817285542, -0.011228648744770187]",0.6181385225625562,-0.5349179681409946,23,"[7, 6, 5, 3, 0, 2, 4, 8, 1]","[-0.10599914964456593, -0.0924604965151769, -0.08635513562574587, -0.06793405858315137, -0.0608727126810801, -0.04540815386655645, -0.03487959166266224, -0.029780020817285542, -0.011228648744770187]",0.3818614774374438,"[0, 13, 10, 3, 6, 8, 4, 1, 11, 7]","[0.09700075154880422, 0.07998695725223814, 0.07003235645345689, 0.06904214653744363, 0.06186431550415019, 0.042903704260435736, 0.03819319945529248, 0.03415812484766748, 0.03364219462641521, 0.03064581139881603]","[7, 6, 5, 3, 0, 2, 4, 8, 1]","[-0.10599914964456593, -0.0924604965151769, -0.08635513562574587, -0.06793405858315137, -0.0608727126810801, -0.04540815386655645, -0.03487959166266224, -0.029780020817285542, -0.011228648744770187]",0.6181385225625562,-0.5349179681409946
4,174,0,-1,-1,0.0,[],[],[],[],0.0,0.0,174,"[33, 79]","[-1.5615193586246978, -1.4691303348912477]",-0.6790629452738965,"[7, 12, 61, 44, 52, 55, 14, 64, 41, 57]","[2.14520038130144, 1.879353307266983, 1.84884197867242, 1.6862620782163318, 1.5801327323646033, 1.437805520927478, 1.3034192471566655, 1.0952043347406701, 1.093302037788091, 1.0683814587913598]","[33, 79, 78, 14, 68, 35, 80, 69, 44, 55]","[-1.5615193586246978, -1.4691303348912477, -1.4660125198585794, -1.2862945616694126, -1.2154403757547123, -1.1998469518020545, -1.1745762062698146, -1.1670444292825932, -1.1515496760318664, -1.1467476876268534]",45.59972174631715,-46.9513084945592,174,"[30, 79]","[-1.2599230450285266, -1.1969277947239834]",-0.21422160686463831,"[12, 14, 7, 66, 55, 51, 63, 48, 58, 68]","[1.6444956976654719, 1.340136372798603, 1.2734768139823927, 1.1826775493071309, 1.168141649412212, 0.9743810880963083, 0.9258348248195607, 0.9185896986743, 0.897001660918749, 0.8367987893423307]","[30, 79, 58, 69, 32, 8, 80, 21, 31, 67]","[-1.2599230450285266, -1.1969277947239834, -1.0788095487835994, -1.0464017848459781, -1.0247721931158287, -0.973390772832656, -0.9511552360446116, -0.9016332110885489, -0.8927228334079063, -0.8719467108980451]",33.473209827908,-34.71583906079587
5,210,210,"[21, 87]","[-0.709437185284948, -0.6513659320632947]",-0.19805616354605504,"[68, 96, 59, 15, 24, 94, 2, 5, 82, 51]","[1.0608862921602193, 0.9320150345364596, 0.7448633024965945, 0.5912872697149139, 0.5802312082716737, 0.5049023117639658, 0.48676940294953414, 0.474662962240207, 0.47212898001430464, 0.4706420180756447]","[21, 87, 89, 99, 68, 92, 50, 12, 95, 38]","[-0.709437185284948, -0.6513659320632947, -0.6404250062691357, -0.6341939590864726, -0.6147176070169894, -0.5596661538200993, -0.4968830531287739, -0.4883846532546182, -0.479498614566921, -0.468339313469301]",24.07521843704946,-24.23796539085165,210,[45],[-3.106686208212221],-1.5120983790266647,"[60, 84, 83, 102, 4, 51, 32, 97, 93, 67]","[3.173333918426211, 3.0946984588072524, 3.008911186075911, 2.770527158194236, 2.5444388490744974, 2.539734604155691, 2.4748405900739034, 2.422288755147617, 2.3995126880306206, 2.335620625369579]","[45, 83, 77, 69, 42, 9, 58, 63, 12, 41]","[-3.106686208212221, -3.061470313334212, -2.9957701730802313, -2.964934814461818, -2.781966763542309, -2.650189168548001, -2.633667972334956, -2.4762313726722613, -2.266673058227702, -2.2603979068039743]",107.18033810599906,-107.77492593518461,210,[76],[-2.058527542845129],-0.5773713830798237,"[94, 54, 5, 76, 77, 89, 27, 61, 85, 3]","[2.021398956188958, 1.9298770688210167, 1.801265384827615, 1.6454369779651599, 1.615820409962992, 1.588648813581476, 1.5445943289361501, 1.50940225822694, 1.4961449187038485, 1.4556227534097341]","[76, 90, 48, 11, 92, 14, 93, 47, 64, 85]","[-2.058527542845129, -1.919665119284479, -1.6477178455354553, -1.5951528761879505, -1.5432283030236849, -1.512824621278595, -1.4956205652149681, -1.495235165840646, -1.4896243307057764, -1.449127023057199]",67.39117455748426,-67.87233071724957
6,402,402,[21],[-3.518154800654835],-2.728144527855016,"[44, 34, 115, 32, 89, 105, 139, 28, 31, 29]","[1.840629273074982, 1.6412034687811008, 1.5684800219527026, 1.4394197936843685, 1.3567507174851257, 1.316378138472864, 1.2052062541961448, 1.1594571438562578, 1.1258694122231785, 1.0935437540042965]","[21, 123, 104, 185, 157, 56, 117, 55, 40, 42]","[-3.518154800654835, -2.791175732376206, -1.4502035240869966, -1.4331685293510101, -1.4092223303451377, -1.3114677218878223, -1.279656139984048, -1.2786200971725592, -1.2309601630392393, -1.14552624786289]",92.86663226400846,-92.65664253680828,402,[21],[-1.5449205271287232],-0.7048311964216074,"[40, 85, 106, 99, 149, 32, 2, 101, 29, 113]","[1.0599544718162845, 0.9605432960142072, 0.9316418910429836, 0.7217697218966987, 0.686095641815588, 0.6306590521021821, 0.6147575604243325, 0.6035951608187143, 0.5993003252566705, 0.5492481037797071]","[21, 130, 192, 60, 125, 59, 151, 156, 22, 109]","[-1.5449205271287232, -1.3574479205123966, -0.8048739577093071, -0.7307720786537207, -0.712321049883135, -0.6307440764228287, -0.6268565388252821, -0.6102621708915491, -0.6066233422273563, -0.5864255263847542]",49.739183064524845,-49.57927239523196,402,[21],[-1.5449205271287232],-0.7048311964216074,"[40, 85, 106, 99, 149, 32, 2, 101, 29, 113]","[1.0599544718162845, 0.9605432960142072, 0.9316418910429836, 0.7217697218966987, 0.686095641815588, 0.6306590521021821, 0.6147575604243325, 0.6035951608187143, 0.5993003252566705, 0.5492481037797071]","[21, 130, 192, 60, 125, 59, 151, 156, 22, 109]","[-1.5449205271287232, -1.3574479205123966, -0.8048739577093071, -0.7307720786537207, -0.712321049883135, -0.6307440764228287, -0.6268565388252821, -0.6102621708915491, -0.6066233422273563, -0.5864255263847542]",49.739183064524845,-49.57927239523196
7,58,58,[],[],-0.007630678957806225,"[22, 16, 9, 15, 13, 7, 19, 29, 2, 20]","[0.5006417324169848, 0.4867740831019779, 0.43859995712606015, 0.43548451172898683, 0.4298538960515586, 0.4187666506803477, 0.4179066784486228, 0.41207272464154426, 0.3702028549237186, 0.34546686331083043]","[3, 14, 4, 21, 7, 17, 23, 24, 18, 8]","[-1.1231743904469553, -0.6480073609733367, -0.637816178130329, -0.5164729635692381, -0.5070329382719155, -0.4256326132465517, -0.4234718111757656, -0.35324222234246766, -0.32325648996519735, -0.32291248692202906]",8.268963517801525,-7.261332838843719,58,[3],[-0.5611409482232274],-0.0959551267277442,"[16, 15, 20, 31, 21, 23, 2, 1, 9, 24]","[0.36664146588980107, 0.3187376701608237, 0.28308230041946875, 0.27761155553492284, 0.25093078685999554, 0.2447204708076593, 0.19296350493107428, 0.16937513810548346, 0.16394756751743267, 0.16324528583462683]","[3, 8, 21, 19, 16, 14, 2, 4, 9, 1]","[-0.5611409482232274, -0.3243934910317665, -0.3138608060688671, -0.3091734033125618, -0.2619112135590584, -0.255830749811341, -0.20482496553575627, -0.19835531764135322, -0.19497461730645332, -0.18554862369595504]",4.40716809415962,-3.8723539156551032,58,[3],[-0.5611409482232274],-0.0959551267277442,"[16, 15, 20, 31, 21, 23, 2, 1, 9, 24]","[0.36664146588980107, 0.3187376701608237, 0.28308230041946875, 0.27761155553492284, 0.25093078685999554, 0.2447204708076593, 0.19296350493107428, 0.16937513810548346, 0.16394756751743267, 0.16324528583462683]","[3, 8, 21, 19, 16, 14, 2, 4, 9, 1]","[-0.5611409482232274, -0.3243934910317665, -0.3138608060688671, -0.3091734033125618, -0.2619112135590584, -0.255830749811341, -0.20482496553575627, -0.19835531764135322, -0.19497461730645332, -0.18554862369595504]",4.40716809415962,-3.8723539156551032
8,21,21,"[4, 3, 1, 0, 8, 10, 5, 9, 2, 7, 6]","[-0.010111553872616603, -0.009336786741257357, -0.009037062765717564, -0.008893422748333478, -0.007792956066200773, -0.0074504331838209205, -0.00678066931795401, -0.0065405523856971945, -0.005802902645626245, -0.005690826702388639, -0.004898856604970972]",0.9203198231499887,"[1, 0, 6, 4, 2, 8, 9, 7, 3, 5]","[0.011920144509863388, 0.00987375077637645, 0.008875365544115029, 0.008391339859921555, 0.008015166681269384, 0.007435436400829191, 0.006827171856506898, 0.0067424281339181595, 0.005979732312814961, 0.005619640774396306]","[4, 3, 1, 0, 8, 10, 5, 9, 2, 7]","[-0.010111553872616603, -0.009336786741257357, -0.009037062765717564, -0.008893422748333478, -0.007792956066200773, -0.0074504331838209205, -0.00678066931795401, -0.0065405523856971945, -0.005802902645626245, -0.005690826702388639]",0.07968017685001132,-0.08233602303458375,21,"[4, 3, 1, 0, 8, 10, 5, 9, 2, 7, 6]","[-0.010111553872616603, -0.009336786741257357, -0.009037062765717564, -0.008893422748333478, -0.007792956066200773, -0.0074504331838209205, -0.00678066931795401, -0.0065405523856971945, -0.005802902645626245, -0.005690826702388639, -0.004898856604970972]",0.9203198231499887,"[1, 0, 6, 4, 2, 8, 9, 7, 3, 5]","[0.011920144509863388, 0.00987375077637645, 0.008875365544115029, 0.008391339859921555, 0.008015166681269384, 0.007435436400829191, 0.006827171856506898, 0.0067424281339181595, 0.005979732312814961, 0.005619640774396306]","[4, 3, 1, 0, 8, 10, 5, 9, 2, 7]","[-0.010111553872616603, -0.009336786741257357, -0.009037062765717564, -0.008893422748333478, -0.007792956066200773, -0.0074504331838209205, -0.00678066931795401, -0.0065405523856971945, -0.005802902645626245, -0.005690826702388639]",0.07968017685001132,-0.08233602303458375,21,"[4, 3, 1, 0, 8, 10, 5, 9, 2, 7, 6]","[-0.010111553872616603, -0.009336786741257357, -0.009037062765717564, -0.008893422748333478, -0.007792956066200773, -0.0074504331838209205, -0.00678066931795401, -0.0065405523856971945, -0.005802902645626245, -0.005690826702388639, -0.004898856604970972]",0.9203198231499887,"[1, 0, 6, 4, 2, 8, 9, 7, 3, 5]","[0.011920144509863388, 0.00987375077637645, 0.008875365544115029, 0.008391339859921555, 0.008015166681269384, 0.007435436400829191, 0.006827171856506898, 0.0067424281339181595, 0.005979732312814961, 0.005619640774396306]","[4, 3, 1, 0, 8, 10, 5, 9, 2, 7]","[-0.010111553872616603, -0.009336786741257357, -0.009037062765717564, -0.008893422748333478, -0.007792956066200773, -0.0074504331838209205, -0.00678066931795401, -0.0065405523856971945, -0.005802902645626245, -0.005690826702388639]",0.07968017685001132,-0.08233602303458375
9,183,183,[79],[-2.4916560810588058],-1.2939875128569431,"[86, 4, 38, 2, 99, 34, 36, 9, 77, 45]","[2.917465867076549, 2.7102157121087505, 2.241696976048066, 1.7404875430295828, 1.5297828275598888, 1.5268186479397672, 1.5221086108719104, 1.4209225465492434, 1.389194332002432, 1.3619634559450562]","[79, 40, 14, 4, 34, 69, 8, 20, 73, 80]","[-2.4916560810588058, -2.367600077738313, -2.290726364090067, -2.139041365854544, -2.0185889876307903, -1.7592786947711179, -1.7485047253556203, -1.6509830479468026, -1.6047103235761766, -1.5405891654638915]",69.01198141650237,-69.20964998470423,183,[29],[-1.581537038246568],-0.8272437325948894,"[76, 29, 87, 5, 3, 34, 68, 32, 65, 41]","[2.0694148023172785, 1.522830322133848, 1.2930598233401778, 1.2128542388703412, 1.115520671856733, 1.0705818512128364, 1.0168118731610312, 1.0117139558576191, 0.9693813497892735, 0.9632179140556165]","[29, 46, 91, 25, 86, 39, 65, 16, 0, 69]","[-1.581537038246568, -1.581045781890891, -1.5157773678797821, -1.2928690568248897, -1.220121393383648, -1.1993857801086372, -1.0679687191359273, -0.9960962414553248, -0.9446225796305024, -0.8723308574698477]",38.443804317641344,-38.19809762329302,183,[28],[-1.5044620699402738],-0.7077794937203801,"[77, 88, 5, 31, 3, 35, 69, 45, 75, 43]","[1.7786763649351975, 1.1663969584776006, 1.0963934368595167, 1.0507918856087801, 1.0478283329713625, 1.0305660024542618, 0.9168010816003546, 0.908635262938505, 0.8506029852296271, 0.8193391985929698]","[28, 90, 43, 36, 24, 85, 68, 0, 63, 38]","[-1.5044620699402738, -1.4340051115172368, -1.3429362802017597, -1.1626809992571319, -1.1505280040506352, -1.0669240817650372, -0.8417050417192941, -0.8151782217140424, -0.8038594822158163, -0.7632260672179348]",34.803186071858015,-34.59986864807791
10,180,180,"[26, 37, 62]","[-0.3363100491393458, -0.3004271152804442, -0.2995258979045646]",-0.047838412100461525,"[48, 11, 62, 40, 38, 2, 0, 44, 20, 82]","[0.4023541742164075, 0.39824750946654225, 0.3125515501989019, 0.3005153627605524, 0.28962608836177356, 0.28816592647894196, 0.2866362049781542, 0.2557769459495245, 0.2542674203527878, 0.25287766088955205]","[26, 37, 62, 0, 14, 20, 24, 3, 70, 41]","[-0.3363100491393458, -0.3004271152804442, -0.2995258979045646, -0.27460328916970983, -0.25014475959243815, -0.2491171498827534, -0.21821621223960347, -0.21378687140552624, -0.20381007964120218, -0.20168766646500905]",10.251224315491472,-10.139648965715365,180,"[26, 37, 62]","[-0.3363100491393458, -0.3004271152804442, -0.2995258979045646]",-0.047838412100461525,"[48, 11, 62, 40, 38, 2, 0, 44, 20, 82]","[0.4023541742164075, 0.39824750946654225, 0.3125515501989019, 0.3005153627605524, 0.28962608836177356, 0.28816592647894196, 0.2866362049781542, 0.2557769459495245, 0.2542674203527878, 0.25287766088955205]","[26, 37, 62, 0, 14, 20, 24, 3, 70, 41]","[-0.3363100491393458, -0.3004271152804442, -0.2995258979045646, -0.27460328916970983, -0.25014475959243815, -0.2491171498827534, -0.21821621223960347, -0.21378687140552624, -0.20381007964120218, -0.20168766646500905]",10.251224315491472,-10.139648965715365,180,"[26, 37, 62]","[-0.3363100491393458, -0.3004271152804442, -0.2995258979045646]",-0.047838412100461525,"[48, 11, 62, 40, 38, 2, 0, 44, 20, 82]","[0.4023541742164075, 0.39824750946654225, 0.3125515501989019, 0.3005153627605524, 0.28962608836177356, 0.28816592647894196, 0.2866362049781542, 0.2557769459495245, 0.2542674203527878, 0.25287766088955205]","[26, 37, 62, 0, 14, 20, 24, 3, 70, 41]","[-0.3363100491393458, -0.3004271152804442, -0.2995258979045646, -0.27460328916970983, -0.25014475959243815, -0.2491171498827534, -0.21821621223960347, -0.21378687140552624, -0.20381007964120218, -0.20168766646500905]",10.251224315491472,-10.139648965715365
11,50,0,-1,-1,0.0,[],[],[],[],0.0,0.0,0,-1,-1,0.0,[],[],[],[],0.0,0.0,0,-1,-1,0.0,[],[],[],[],0.0,0.0
12,635,0,-1,-1,0.0,[],[],[],[],0.0,0.0,0,-1,-1,0.0,[],[],[],[],0.0,0.0,0,-1,-1,0.0,[],[],[],[],0.0,0.0
13,97,97,"[21, 3, 39, 34, 1, 40, 32, 20, 17, 6, 36, 46]","[-0.12421769363782452, -0.1081929110602988, -0.09714670381618049, -0.08683443590951925, -0.08629524444290201, -0.07511118784702185, -0.07181997252098227, -0.06923359092778252, -0.06854955319017875, -0.06014452524582587, -0.057730503889662436, -0.056474120311218665]",-0.030703079377317345,"[24, 11, 34, 37, 40, 15, 14, 8, 31, 39]","[0.10356865981665878, 0.09054624963146003, 0.08560114858443793, 0.07975970565939797, 0.07733153857176632, 0.06914077748305805, 0.06606529265204297, 0.06450479301096904, 0.06380511250069372, 0.0634533840901515]","[21, 3, 39, 34, 1, 40, 32, 20, 17, 6]","[-0.12421769363782452, -0.1081929110602988, -0.09714670381618049, -0.08683443590951925, -0.08629524444290201, -0.07511118784702185, -0.07181997252098227, -0.06923359092778252, -0.06854955319017875, -0.06014452524582587]",1.8359434486622546,-1.7669908120843347,97,"[21, 3, 39, 34, 1, 40, 32, 20, 17, 6, 36, 46]","[-0.12421769363782452, -0.1081929110602988, -0.09714670381618049, -0.08683443590951925, -0.08629524444290201, -0.07511118784702185, -0.07181997252098227, -0.06923359092778252, -0.06854955319017875, -0.06014452524582587, -0.057730503889662436, -0.056474120311218665]",-0.030703079377317345,"[24, 11, 34, 37, 40, 15, 14, 8, 31, 39]","[0.10356865981665878, 0.09054624963146003, 0.08560114858443793, 0.07975970565939797, 0.07733153857176632, 0.06914077748305805, 0.06606529265204297, 0.06450479301096904, 0.06380511250069372, 0.0634533840901515]","[21, 3, 39, 34, 1, 40, 32, 20, 17, 6]","[-0.12421769363782452, -0.1081929110602988, -0.09714670381618049, -0.08683443590951925, -0.08629524444290201, -0.07511118784702185, -0.07181997252098227, -0.06923359092778252, -0.06854955319017875, -0.06014452524582587]",1.8359434486622546,-1.7669908120843347,97,"[21, 3, 39, 34, 1, 40, 32, 20, 17, 6, 36, 46]","[-0.12421769363782452, -0.1081929110602988, -0.09714670381618049, -0.08683443590951925, -0.08629524444290201, -0.07511118784702185, -0.07181997252098227, -0.06923359092778252, -0.06854955319017875, -0.06014452524582587, -0.057730503889662436, -0.056474120311218665]",-0.030703079377317345,"[24, 11, 34, 37, 40, 15, 14, 8, 31, 39]","[0.10356865981665878, 0.09054624963146003, 0.08560114858443793, 0.07975970565939797, 0.07733153857176632, 0.06914077748305805, 0.06606529265204297, 0.06450479301096904, 0.06380511250069372, 0.0634533840901515]","[21, 3, 39, 34, 1, 40, 32, 20, 17, 6]","[-0.12421769363782452, -0.1081929110602988, -0.09714670381618049, -0.08683443590951925, -0.08629524444290201, -0.07511118784702185, -0.07181997252098227, -0.06923359092778252, -0.06854955319017875, -0.06014452524582587]",1.8359434486622546,-1.7669908120843347
14,103,103,[38],[-1.1984002435287229],-1.129796500415952,"[47, 35, 2, 23, 55, 52, 24, 17, 30, 21]","[0.9196360319545163, 0.8095792446105867, 0.7788498998240351, 0.7755554831843803, 0.7491526606462124, 0.7355246581628743, 0.7312370121008912, 0.7181397452418817, 0.7154816839544067, 0.67651972140576]","[38, 40, 16, 12, 35, 28, 32, 45, 6, 19]","[-1.1984002435287229, -1.1415402923100966, -1.0187590072999855, -0.9234167099404661, -0.9084334159960467, -0.8554788600709178, -0.8479322319163708, -0.8329482367116805, -0.8293401086570417, -0.802992659327517]",22.27835328018199,-21.34695702329476,103,[39],[-0.6534808719175579],-0.40781819691980836,"[41, 46, 51, 35, 44, 48, 31, 4, 23, 24]","[0.8250735414337909, 0.7355056673250225, 0.6257615349028312, 0.5938406637557171, 0.5102608895114394, 0.5008670608612538, 0.4749828291915483, 0.4703655240022783, 0.4663726589079317, 0.4403627814825953]","[39, 25, 15, 17, 42, 41, 26, 33, 34, 27]","[-0.6534808719175579, -0.6511339079257729, -0.6133317225386519, -0.6117997821027573, -0.5912991009320344, -0.5146891213054047, -0.4805908836681898, -0.46397025505876077, -0.4430196633527005, -0.4278942614700381]",14.448010008922267,-13.693672683920017,103,[39],[-0.6045149793885808],-0.27533978900028966,"[47, 42, 51, 48, 24, 36, 29, 25, 22, 16]","[0.66900262343528, 0.645566578703096, 0.4939145937016633, 0.47308741113324626, 0.46369742995383983, 0.4473023967150422, 0.4243198826225928, 0.4125345036170863, 0.40439939325287866, 0.3884480648871829]","[39, 42, 33, 24, 41, 14, 16, 25, 7, 26]","[-0.6045149793885808, -0.5406034867656229, -0.4843750532931847, -0.4749503217525521, -0.4552124720932472, -0.4511487318138442, -0.4205365978709735, -0.3871326243348551, -0.3762621084618456, -0.3603425268210891]",12.358201180287526,-11.687376370675818
15,139,139,"[24, 15, 18]","[-0.7478294222580364, -0.741940228055167, -0.7217687432752049]",-0.15348623096812308,"[0, 63, 68, 32, 57, 9, 62, 26, 36, 40]","[1.2113542328004425, 0.7882437004556396, 0.7835931763201545, 0.770510364566318, 0.6262990441018483, 0.6108997252659569, 0.5898295988306325, 0.5725677613166947, 0.5724000887050721, 0.5233908993419497]","[24, 15, 18, 14, 35, 34, 6, 42, 50, 9]","[-0.7478294222580364, -0.741940228055167, -0.7217687432752049, -0.7201523500329365, -0.7090201179485107, -0.696857507244826, -0.6924680825169164, -0.6886823762721254, -0.6163437569180396, -0.5555740407364941]",21.23331164262729,-22.291363805247574,139,[18],[-2.609519214995137],-0.30129178267876533,"[1, 62, 65, 52, 17, 32, 29, 41, 31, 12]","[1.923240154147918, 1.8012648874592563, 1.5088180682391108, 1.3640897513418577, 1.3311720381017977, 1.2656186900516637, 1.2007335621035726, 1.1628457452319874, 1.0972575742403312, 1.0346331676965008]","[18, 9, 38, 8, 24, 2, 3, 21, 33, 68]","[-2.609519214995137, -2.402867157042505, -1.6820627189568111, -1.3979307620344448, -1.3557591166411687, -1.3320649786074674, -1.2562231835821311, -1.1807176970041022, -1.177368719020549, -1.1178938195320758]",40.228053380657805,-41.53628081297418,139,"[18, 9]","[-1.409425559348308, -1.349168094768445]",-0.4970897887953978,"[1, 63, 66, 8, 43, 32, 60, 23, 17, 12]","[1.3789505344670243, 1.1969814985566334, 0.9361220953298705, 0.8332176530700675, 0.7880097142126964, 0.7106336434481952, 0.670348709187329, 0.5936939877014683, 0.5851052583641922, 0.5814279485684581]","[18, 9, 38, 8, 23, 34, 67, 24, 6, 3]","[-1.409425559348308, -1.349168094768445, -0.9368670609542977, -0.9073023125705312, -0.9004767942863733, -0.856447900559994, -0.8419792310876827, -0.8207157799683588, -0.8078290074716702, -0.778958972655149]",24.14637725549183,-25.407881120813187
16,27,0,-1,-1,0.0,[],[],[],[],0.0,0.0,0,-1,-1,0.0,[],[],[],[],0.0,0.0,0,-1,-1,0.0,[],[],[],[],0.0,0.0
17,276,276,"[30, 19, 84, 55, 58, 109, 91]","[-0.19427300704052927, -0.16767678312937842, -0.14028196681505936, -0.14027413036677483, -0.13711173225396525, -0.12367910661061025, -0.12213001226274184]",-0.039988338024068884,"[74, 1, 139, 79, 10, 99, 67, 62, 106, 4]","[0.17995737939491055, 0.17817560197472113, 0.17101020404726983, 0.16766579347209964, 0.14757561208563702, 0.14287543385332332, 0.14097961533623973, 0.1321316234297319, 0.13182887792862694, 0.1281528667459851]","[30, 19, 84, 55, 58, 109, 91, 78, 116, 31]","[-0.19427300704052927, -0.16767678312937842, -0.14028196681505936, -0.14027413036677483, -0.13711173225396525, -0.12367910661061025, -0.12213001226274184, -0.11994106697415181, -0.1154866824794402, -0.11474997806883909]",7.131157013480566,-7.116595413935556,276,"[30, 19, 84, 55, 58, 109, 91]","[-0.19427300704052927, -0.16767678312937842, -0.14028196681505936, -0.14027413036677483, -0.13711173225396525, -0.12367910661061025, -0.12213001226274184]",-0.039988338024068884,"[74, 1, 139, 79, 10, 99, 67, 62, 106, 4]","[0.17995737939491055, 0.17817560197472113, 0.17101020404726983, 0.16766579347209964, 0.14757561208563702, 0.14287543385332332, 0.14097961533623973, 0.1321316234297319, 0.13182887792862694, 0.1281528667459851]","[30, 19, 84, 55, 58, 109, 91, 78, 116, 31]","[-0.19427300704052927, -0.16767678312937842, -0.14028196681505936, -0.14027413036677483, -0.13711173225396525, -0.12367910661061025, -0.12213001226274184, -0.11994106697415181, -0.1154866824794402, -0.11474997806883909]",7.131157013480566,-7.116595413935556,276,"[30, 19, 84, 55, 58, 109, 91]","[-0.19427300704052927, -0.16767678312937842, -0.14028196681505936, -0.14027413036677483, -0.13711173225396525, -0.12367910661061025, -0.12213001226274184]",-0.039988338024068884,"[74, 1, 139, 79, 10, 99, 67, 62, 106, 4]","[0.17995737939491055, 0.17817560197472113, 0.17101020404726983, 0.16766579347209964, 0.14757561208563702, 0.14287543385332332, 0.14097961533623973, 0.1321316234297319, 0.13182887792862694, 0.1281528667459851]","[30, 19, 84, 55, 58, 109, 91, 78, 116, 31]","[-0.19427300704052927, -0.16767678312937842, -0.14028196681505936, -0.14027413036677483, -0.13711173225396525, -0.12367910661061025, -0.12213001226274184, -0.11994106697415181, -0.1154866824794402, -0.11474997806883909]",7.131157013480566,-7.116595413935556
18,19,19,"[8, 7, 4, 0, 3, 6, 1, 9, 2, 5]","[-0.09560336559015813, -0.08843312140211089, -0.07006887309425762, -0.039574731395482114, -0.028643719697714645, -0.02819381321487878, -0.024470209017694, -0.015502305429184633, -0.007815223055764434, -0.0041784388286028856]",0.5930273941262896,"[4, 0, 3, 5, 8, 1, 7, 6, 2]","[0.08997622935756053, 0.07316010441820467, 0.054750572793737295, 0.05237615090322461, 0.04301961535471235, 0.03734483569533206, 0.028520076331246483, 0.0238938571192783, 0.003931163900414208]","[8, 7, 4, 0, 3, 6, 1, 9, 2, 5]","[-0.09560336559015813, -0.08843312140211089, -0.07006887309425762, -0.039574731395482114, -0.028643719697714645, -0.02819381321487878, -0.024470209017694, -0.015502305429184633, -0.007815223055764434, -0.0041784388286028856]",0.4069726058737105,-0.40248380072584816,19,"[8, 7, 4, 0, 3, 6, 1, 9, 2, 5]","[-0.09560336559015813, -0.08843312140211089, -0.07006887309425762, -0.039574731395482114, -0.028643719697714645, -0.02819381321487878, -0.024470209017694, -0.015502305429184633, -0.007815223055764434, -0.0041784388286028856]",0.5930273941262896,"[4, 0, 3, 5, 8, 1, 7, 6, 2]","[0.08997622935756053, 0.07316010441820467, 0.054750572793737295, 0.05237615090322461, 0.04301961535471235, 0.03734483569533206, 0.028520076331246483, 0.0238938571192783, 0.003931163900414208]","[8, 7, 4, 0, 3, 6, 1, 9, 2, 5]","[-0.09560336559015813, -0.08843312140211089, -0.07006887309425762, -0.039574731395482114, -0.028643719697714645, -0.02819381321487878, -0.024470209017694, -0.015502305429184633, -0.007815223055764434, -0.0041784388286028856]",0.4069726058737105,-0.40248380072584816,19,"[8, 7, 4, 0, 3, 6, 1, 9, 2, 5]","[-0.09560336559015813, -0.08843312140211089, -0.07006887309425762, -0.039574731395482114, -0.028643719697714645, -0.02819381321487878, -0.024470209017694, -0.015502305429184633, -0.007815223055764434, -0.0041784388286028856]",0.5930273941262896,"[4, 0, 3, 5, 8, 1, 7, 6, 2]","[0.08997622935756053, 0.07316010441820467, 0.054750572793737295, 0.05237615090322461, 0.04301961535471235, 0.03734483569533206, 0.028520076331246483, 0.0238938571192783, 0.003931163900414208]","[8, 7, 4, 0, 3, 6, 1, 9, 2, 5]","[-0.09560336559015813, -0.08843312140211089, -0.07006887309425762, -0.039574731395482114, -0.028643719697714645, -0.02819381321487878, -0.024470209017694, -0.015502305429184633, -0.007815223055764434, -0.0041784388286028856]",0.4069726058737105,-0.40248380072584816
19,47,0,-1,-1,0.0,[],[],[],[],0.0,0.0,0,-1,-1,0.0,[],[],[],[],0.0,0.0,0,-1,-1,0.0,[],[],[],[],0.0,0.0
20,178,178,[],[],-4.925683404482349,"[47, 77, 70, 31, 68, 20, 21, 65, 58, 74]","[2.080154340317884, 1.9778598131378984, 1.9038692364661063, 1.7829516082309453, 1.6812118030883143, 1.3526355461729433, 1.3242943045502238, 1.291021341841432, 1.2890751653016863, 1.2774275559662502]","[32, 64, 41, 2, 10, 27, 0, 12, 49, 17]","[-1.6973766272412736, -1.6763126712798302, -1.5007372249595354, -1.4980303293646107, -1.4659017818121234, -1.4235176632403137, -1.3858149651084897, -1.3031620337160608, -1.2870030776552632, -1.2834436005370649]",57.582481249151726,-51.65679784466938,178,[],[],-3.5923431875675433,"[32, 41, 26, 92, 30, 78, 37, 63, 67, 69]","[2.085432421439833, 1.6494935124515124, 1.3963487064423004, 1.3364114629863435, 1.3313071712086468, 1.3312446742509352, 1.3032392757731972, 1.2797404671120582, 1.2633296216004553, 1.1811562957153656]","[55, 67, 60, 72, 70, 1, 45, 25, 46, 50]","[-1.6672145466212405, -1.5524661441286753, -1.5003553309833544, -1.4579190379260238, -1.4193142137532642, -1.3405983457573927, -1.3007690974857926, -1.273590154682258, -1.2661875235907467, -1.0459828019210153]",50.20395243598493,-45.61160924841739,178,[],[],-3.439297795689889,"[32, 77, 41, 92, 66, 68, 62, 57, 70, 30]","[1.6110976518165534, 1.2205452449315286, 1.151090736817514, 1.125628759200877, 1.06451559659419, 0.9419344821977365, 0.9413737883348662, 0.9069058033384969, 0.903561302036586, 0.8512502641026426]","[55, 1, 61, 73, 68, 45, 50, 32, 25, 3]","[-1.2651025560183806, -1.1717450725071568, -1.0957981568043513, -1.093996438599053, -1.00501863915713, -0.9643770663475875, -0.9134450330517009, -0.7951915023029458, -0.7901020932181533, -0.7639175315232957]",38.115505740454594,-33.676207944764705
21,127,127,"[40, 54]","[-0.3741039149162012, -0.3414916162697675]",-0.03783388520955472,"[52, 18, 16, 1, 60, 47, 30, 26, 33, 17]","[0.5195459616364451, 0.40983548865077424, 0.33261072961952687, 0.2808310240623189, 0.27405573132313993, 0.2582835210166799, 0.25260649201168794, 0.24706282034950008, 0.229895921724102, 0.22867944677334787]","[40, 54, 39, 11, 14, 43, 38, 15, 12, 46]","[-0.3741039149162012, -0.3414916162697675, -0.34066516704506866, -0.3181338792016043, -0.29990439307206257, -0.2817989138382182, -0.2546442035230812, -0.22661196769799213, -0.2146122198574789, -0.21077655458285127]",7.584842639142041,-7.262604285118455,127,"[9, 60, 44]","[-0.3086711806739434, -0.29889471057505634, -0.27511259222249823]",-0.20496333033167263,"[47, 16, 28, 55, 2, 42, 24, 14, 15, 31]","[0.38388567886880776, 0.3717137046936804, 0.22503448688432298, 0.2244861002140923, 0.22053861651474074, 0.21097559336793018, 0.19796911044144566, 0.1905791598100706, 0.18623757452218198, 0.176770803667062]","[9, 60, 44, 17, 48, 42, 33, 21, 39, 16]","[-0.3086711806739434, -0.29889471057505634, -0.27511259222249823, -0.23133108614183395, -0.22234920192409507, -0.2094711672370382, -0.19856442374635086, -0.19533414449099767, -0.1888122106150084, -0.18695059692067018]",5.975670819211547,-5.653385972351372,127,"[9, 60, 44]","[-0.3086711806739434, -0.29889471057505634, -0.27511259222249823]",-0.20496333033167263,"[47, 16, 28, 55, 2, 42, 24, 14, 15, 31]","[0.38388567886880776, 0.3717137046936804, 0.22503448688432298, 0.2244861002140923, 0.22053861651474074, 0.21097559336793018, 0.19796911044144566, 0.1905791598100706, 0.18623757452218198, 0.176770803667062]","[9, 60, 44, 17, 48, 42, 33, 21, 39, 16]","[-0.3086711806739434, -0.29889471057505634, -0.27511259222249823, -0.23133108614183395, -0.22234920192409507, -0.2094711672370382, -0.19856442374635086, -0.19533414449099767, -0.1888122106150084, -0.18695059692067018]",5.975670819211547,-5.653385972351372
22,150,150,[27],[-1.1638864943961547],-0.40212124936941396,"[49, 45, 4, 55, 40, 26, 29, 43, 50, 22]","[0.9244034645147906, 0.7669628748377614, 0.6540001675781305, 0.6356828810955256, 0.6345685784486094, 0.6288190430515225, 0.5897243729839605, 0.5661799737800912, 0.5445021522476562, 0.5182541074957479]","[27, 26, 8, 17, 72, 56, 77, 21, 73, 50]","[-1.1638864943961547, -0.9475167021504608, -0.8928814215710492, -0.6885182391927268, -0.6157621898019071, -0.5075423208983231, -0.48309696611166664, -0.4785894478740568, -0.47763547044213156, -0.45185112541863565]",19.940162565336845,-19.701927810363586,150,[18],[-1.7167849479274113],-0.7002018242826256,"[9, 29, 27, 51, 55, 19, 35, 45, 68, 6]","[2.28513936291354, 2.206873257568337, 1.9528554062201977, 1.8725615121217911, 1.8586148460976735, 1.6798429633454386, 1.6682997044756942, 1.546449591457507, 1.5289708572804002, 1.4871068664762133]","[18, 63, 25, 14, 36, 17, 64, 75, 26, 60]","[-1.7167849479274113, -1.6123169651006155, -1.6069669641282787, -1.599815255492399, -1.5818882040363644, -1.4985350957775316, -1.4901494271529618, -1.4303679038603112, -1.421265800044941, -1.3357861408992109]",49.96331617619789,-49.97989929984268,150,[],[],-0.10263975950715576,"[22, 32, 67, 69, 12, 49, 31, 14, 33, 2]","[3.781671460925411, 3.4206150653235503, 3.3802194781083905, 3.3142724279722144, 2.992707906583879, 2.7018298986071487, 2.6348545186711574, 2.6311789829101273, 2.335351102754653, 2.3288293813149945]","[28, 38, 13, 31, 3, 52, 56, 58, 54, 18]","[-4.516307108311809, -4.34521689713487, -3.5890221492759666, -2.932947907455058, -2.9230458420863537, -2.5330306041073003, -2.4758390826150234, -2.3757772289700503, -2.3181195301559363, -2.195709376103853]",93.42398683636428,-92.32134707685712
23,67,67,[],[],-0.46587789515405653,"[31, 17, 33, 23, 30, 27, 19, 21, 11, 15]","[1.3315938034138828, 0.9504008964858668, 0.8539175378595589, 0.8532911250408219, 0.8349686683528856, 0.6421850324033163, 0.619800422036757, 0.552620848457124, 0.5219076445340923, 0.5054854108119143]","[21, 5, 27, 20, 26, 8, 9, 14, 6, 4]","[-1.3671931045058874, -1.2339948241873375, -1.2233439295283455, -1.1631383851819046, -0.840350834880958, -0.7966124992287476, -0.7327870111707694, -0.5904611323106823, -0.5491249841146785, -0.5210018720631289]",14.296924536285742,-12.831046641131685,67,[],[],-1.1851547236510669,"[29, 26, 22, 7, 14, 25, 12, 17, 8, 27]","[1.377923862216547, 1.32853784264402, 1.2891455080370275, 1.2309057457910078, 1.1880711736278415, 1.135757139798082, 1.014201877005747, 0.9207768064047935, 0.8436224484191654, 0.8151200857708848]","[24, 23, 6, 31, 5, 19, 30, 28, 25, 18]","[-1.4118986768622834, -1.2619119405631922, -1.1633485507652113, -1.0234616858482004, -0.9569810186971012, -0.9060905032337685, -0.8971764103713584, -0.6899015245719298, -0.6655162576470194, -0.5879329218639199]",18.252220208135974,-16.067065484484907,67,[],[],-1.336934209871547,"[27, 30, 15, 22, 26, 9, 8, 17, 13, 25]","[1.6243135013188135, 1.379784963491753, 1.3516213865557785, 1.1960187334265877, 1.194060529127013, 1.138197612787839, 1.1293798331109048, 1.0271357557734884, 0.769473472251867, 0.6684589244575048]","[24, 23, 31, 6, 5, 4, 19, 13, 30, 14]","[-1.705339095329604, -1.5579860956798097, -1.257070082692611, -1.1227761742947788, -0.9679979085984555, -0.795370804608763, -0.7108681379527517, -0.6790296878757917, -0.6717663557554391, -0.6155700401161202]",18.51711297828385,-16.180178768412304
24,77,0,-1,-1,0.0,[],[],[],[],0.0,0.0,0,-1,-1,0.0,[],[],[],[],0.0,0.0,0,-1,-1,0.0,[],[],[],[],0.0,0.0
25,106,106,[41],[-1.2388165852650825],-1.1575403724544753,"[10, 30, 23, 28, 41, 13, 1, 32, 26, 14]","[1.1286547166919418, 1.046275068494468, 1.0396747323208313, 1.0286585230759706, 0.9453070567070798, 0.9168159906913393, 0.884792714420159, 0.8701118808660046, 0.8270310997170931, 0.8058066838244231]","[41, 42, 17, 16, 33, 51, 22, 32, 29, 39]","[-1.2388165852650825, -1.2322406705458444, -1.2141184254432644, -0.9593643844997273, -0.9156080221504632, -0.880487113480362, -0.8231398318294166, -0.8199224201482935, -0.8126888099954455, -0.8003409599636173]",25.10087641750911,-24.182152630319717,106,[24],[-0.8850742461205687],-0.8560534347640552,"[34, 16, 29, 49, 26, 17, 33, 3, 39, 20]","[0.8238066646783786, 0.7783328725272098, 0.7597152452374963, 0.7567944140863233, 0.5606507106892082, 0.5503997713183623, 0.5349891463618294, 0.4873094509932636, 0.44097976868322786, 0.4326037291373359]","[24, 35, 13, 14, 3, 48, 42, 40, 8, 17]","[-0.8850742461205687, -0.7160058398106186, -0.6873672434398973, -0.6809451248773816, -0.680701267874196, -0.5723448736335923, -0.5670230918183004, -0.5233080964558768, -0.5030729993640777, -0.43007460512096535]",14.815819782452468,-13.844840593808982,106,[26],[-0.6113193878808177],-0.3193919215671338,"[24, 34, 15, 27, 3, 49, 16, 33, 14, 39]","[0.6738163848185377, 0.6257929214665983, 0.568001711561548, 0.562130262671701, 0.45895147092296695, 0.44381906136433197, 0.4242807099566495, 0.412455155004642, 0.3999890342042308, 0.38428818850746316]","[26, 35, 15, 39, 42, 14, 4, 24, 18, 17]","[-0.6113193878808177, -0.5982930129779558, -0.5506683955744128, -0.5280798748831299, -0.49633200876559297, -0.4470814468029473, -0.4071481005937901, -0.38571354131022106, -0.3855673978356746, -0.3598254887499274]",12.178045172798308,-11.469972639111992
26,24,0,-1,-1,0.0,[],[],[],[],0.0,0.0,0,-1,-1,0.0,[],[],[],[],0.0,0.0,0,-1,-1,0.0,[],[],[],[],0.0,0.0
27,78,78,"[6, 30, 18, 25, 29, 28, 4, 21, 23, 35]","[-0.15241549864640014, -0.14416307344017543, -0.10633489903370834, -0.10513013375919697, -0.10432437639419759, -0.08864967658656267, -0.08497930121279865, -0.08484565285215477, -0.08018659541445576, -0.07709204183495837]",-0.053567753264932835,"[17, 15, 0, 7, 36, 31, 19, 26, 21, 24]","[0.1690499195707676, 0.14751170402212185, 0.13428172199524097, 0.1254541935443877, 0.10923116467085475, 0.10757365557994766, 0.1045269932971353, 0.07467190292037804, 0.0742088895344128, 0.06392573009074262]","[6, 30, 18, 25, 29, 28, 4, 21, 23, 35]","[-0.15241549864640014, -0.14416307344017543, -0.10633489903370834, -0.10513013375919697, -0.10432437639419759, -0.08864967658656267, -0.08497930121279865, -0.08484565285215477, -0.08018659541445576, -0.07709204183495837]",2.111565750983943,-2.086119246893619,78,"[6, 30, 18, 25, 29, 28, 4, 21, 23, 35]","[-0.15241549864640014, -0.14416307344017543, -0.10633489903370834, -0.10513013375919697, -0.10432437639419759, -0.08864967658656267, -0.08497930121279865, -0.08484565285215477, -0.08018659541445576, -0.07709204183495837]",-0.053567753264932835,"[17, 15, 0, 7, 36, 31, 19, 26, 21, 24]","[0.1690499195707676, 0.14751170402212185, 0.13428172199524097, 0.1254541935443877, 0.10923116467085475, 0.10757365557994766, 0.1045269932971353, 0.07467190292037804, 0.0742088895344128, 0.06392573009074262]","[6, 30, 18, 25, 29, 28, 4, 21, 23, 35]","[-0.15241549864640014, -0.14416307344017543, -0.10633489903370834, -0.10513013375919697, -0.10432437639419759, -0.08864967658656267, -0.08497930121279865, -0.08484565285215477, -0.08018659541445576, -0.07709204183495837]",2.111565750983943,-2.086119246893619,78,"[6, 30, 18, 25, 29, 28, 4, 21, 23, 35]","[-0.15241549864640014, -0.14416307344017543, -0.10633489903370834, -0.10513013375919697, -0.10432437639419759, -0.08864967658656267, -0.08497930121279865, -0.08484565285215477, -0.08018659541445576, -0.07709204183495837]",-0.053567753264932835,"[17, 15, 0, 7, 36, 31, 19, 26, 21, 24]","[0.1690499195707676, 0.14751170402212185, 0.13428172199524097, 0.1254541935443877, 0.10923116467085475, 0.10757365557994766, 0.1045269932971353, 0.07467190292037804, 0.0742088895344128, 0.06392573009074262]","[6, 30, 18, 25, 29, 28, 4, 21, 23, 35]","[-0.15241549864640014, -0.14416307344017543, -0.10633489903370834, -0.10513013375919697, -0.10432437639419759, -0.08864967658656267, -0.08497930121279865, -0.08484565285215477, -0.08018659541445576, -0.07709204183495837]",2.111565750983943,-2.086119246893619
28,33,33,"[0, 8, 9, 12, 4, 6, 17, 7, 18, 16, 14, 15, 19, 1, 10, 2, 5, 13, 11, 3]","[-0.039558553266451635, -0.027227343142457, -0.02113474399682934, -0.019555305493391434, -0.019448416098163765, -0.018746389168564775, -0.018557025391286796, -0.01472780363339001, -0.014581146694880516, -0.010669782228766802, -0.010168173453540041, -0.008868146800873326, -0.008110555856381757, -0.0055950535240593575, -0.004248281815252082, -0.0029471878851293726, -0.00278666004883796, -0.000624455747645286, -0.0005772095598009208, -0.0005597504798332337]",0.7814394604074593,"[11, 7, 8, 3, 12, 5, 1, 10, 6, 4]","[0.04176349276239426, 0.039114069770706125, 0.028450498403360638, 0.02080273323657168, 0.015898201134861154, 0.01579804163334597, 0.01576284870162525, 0.014017084868952106, 0.01369048342122041, 0.004486568552454172]","[0, 8, 9, 12, 4, 6, 17, 7, 18, 16]","[-0.039558553266451635, -0.027227343142457, -0.02113474399682934, -0.019555305493391434, -0.019448416098163765, -0.018746389168564775, -0.018557025391286796, -0.01472780363339001, -0.014581146694880516, -0.010669782228766802]",0.21856053959254082,-0.24869198428553538,33,"[0, 8, 9, 12, 4, 6, 17, 7, 18, 16, 14, 15, 19, 1, 10, 2, 5, 13, 11, 3]","[-0.039558553266451635, -0.027227343142457, -0.02113474399682934, -0.019555305493391434, -0.019448416098163765, -0.018746389168564775, -0.018557025391286796, -0.01472780363339001, -0.014581146694880516, -0.010669782228766802, -0.010168173453540041, -0.008868146800873326, -0.008110555856381757, -0.0055950535240593575, -0.004248281815252082, -0.0029471878851293726, -0.00278666004883796, -0.000624455747645286, -0.0005772095598009208, -0.0005597504798332337]",0.7814394604074593,"[11, 7, 8, 3, 12, 5, 1, 10, 6, 4]","[0.04176349276239426, 0.039114069770706125, 0.028450498403360638, 0.02080273323657168, 0.015898201134861154, 0.01579804163334597, 0.01576284870162525, 0.014017084868952106, 0.01369048342122041, 0.004486568552454172]","[0, 8, 9, 12, 4, 6, 17, 7, 18, 16]","[-0.039558553266451635, -0.027227343142457, -0.02113474399682934, -0.019555305493391434, -0.019448416098163765, -0.018746389168564775, -0.018557025391286796, -0.01472780363339001, -0.014581146694880516, -0.010669782228766802]",0.21856053959254082,-0.24869198428553538,33,"[0, 8, 9, 12, 4, 6, 17, 7, 18, 16, 14, 15, 19, 1, 10, 2, 5, 13, 11, 3]","[-0.039558553266451635, -0.027227343142457, -0.02113474399682934, -0.019555305493391434, -0.019448416098163765, -0.018746389168564775, -0.018557025391286796, -0.01472780363339001, -0.014581146694880516, -0.010669782228766802, -0.010168173453540041, -0.008868146800873326, -0.008110555856381757, -0.0055950535240593575, -0.004248281815252082, -0.0029471878851293726, -0.00278666004883796, -0.000624455747645286, -0.0005772095598009208, -0.0005597504798332337]",0.7814394604074593,"[11, 7, 8, 3, 12, 5, 1, 10, 6, 4]","[0.04176349276239426, 0.039114069770706125, 0.028450498403360638, 0.02080273323657168, 0.015898201134861154, 0.01579804163334597, 0.01576284870162525, 0.014017084868952106, 0.01369048342122041, 0.004486568552454172]","[0, 8, 9, 12, 4, 6, 17, 7, 18, 16]","[-0.039558553266451635, -0.027227343142457, -0.02113474399682934, -0.019555305493391434, -0.019448416098163765, -0.018746389168564775, -0.018557025391286796, -0.01472780363339001, -0.014581146694880516, -0.010669782228766802]",0.21856053959254082,-0.24869198428553538
29,42,0,-1,-1,0.0,[],[],[],[],0.0,0.0,0,-1,-1,0.0,[],[],[],[],0.0,0.0,0,-1,-1,0.0,[],[],[],[],0.0,0.0
30,35,35,"[1, 2, 7]","[-0.20692353582488293, -0.20017541546737336, -0.1692293585459757]",-0.007308073754163841,"[5, 1, 16, 11, 4, 14, 8, 10, 13, 0]","[0.3235620900645979, 0.19390819984262664, 0.19088821680547163, 0.1865893654325755, 0.15999734579610167, 0.1414476968322903, 0.12345885391729368, 0.10423982955916031, 0.08070406741883815, 0.07553679674608052]","[1, 2, 7, 0, 15, 12, 16, 3, 6, 14]","[-0.20692353582488293, -0.20017541546737336, -0.1692293585459757, -0.16534300830274404, -0.15983510617063731, -0.11392930418191466, -0.08672831011327714, -0.08442597770579258, -0.0776518310004228, -0.06290620231293222]",1.8833656988140834,-1.4523859348981516,35,"[2, 8, 17, 14, 1, 15, 5, 10, 3, 7]","[-0.15859710146468203, -0.12156770815115416, -0.0995054362708241, -0.0683136016284834, -0.06812655541929191, -0.05982129750186859, -0.058360348716308866, -0.05786581033828809, -0.05734920918975331, -0.042308335832479685]",-0.019910274390530322,"[4, 10, 12, 9, 0, 7, 14, 2, 1, 6]","[0.22944838588358948, 0.12135196371684429, 0.120517997876014, 0.11285725428142679, 0.1063264289636095, 0.10030157021745897, 0.09878307575133931, 0.08034050647019209, 0.0532601926434742, 0.044317252510990626]","[2, 8, 17, 14, 1, 15, 5, 10, 3, 7]","[-0.15859710146468203, -0.12156770815115416, -0.0995054362708241, -0.0683136016284834, -0.06812655541929191, -0.05982129750186859, -0.058360348716308866, -0.05786581033828809, -0.05734920918975331, -0.042308335832479685]",1.220432823711692,-0.9923379538342958,35,"[2, 8, 17, 14, 1, 15, 5, 10, 3, 7]","[-0.15859710146468203, -0.12156770815115416, -0.0995054362708241, -0.0683136016284834, -0.06812655541929191, -0.05982129750186859, -0.058360348716308866, -0.05786581033828809, -0.05734920918975331, -0.042308335832479685]",-0.019910274390530322,"[4, 10, 12, 9, 0, 7, 14, 2, 1, 6]","[0.22944838588358948, 0.12135196371684429, 0.120517997876014, 0.11285725428142679, 0.1063264289636095, 0.10030157021745897, 0.09878307575133931, 0.08034050647019209, 0.0532601926434742, 0.044317252510990626]","[2, 8, 17, 14, 1, 15, 5, 10, 3, 7]","[-0.15859710146468203, -0.12156770815115416, -0.0995054362708241, -0.0683136016284834, -0.06812655541929191, -0.05982129750186859, -0.058360348716308866, -0.05786581033828809, -0.05734920918975331, -0.042308335832479685]",1.220432823711692,-0.9923379538342958
31,40,40,"[9, 16]","[-0.4731460597195235, -0.43543743643467925]",-0.11733194087426391,"[20, 14, 17, 16, 21, 15, 0, 19, 18, 1]","[0.45734539642440436, 0.3395583411811047, 0.2927837043124428, 0.2892133013321884, 0.2764676572740947, 0.2253178014465141, 0.17827213487146717, 0.17304666105830405, 0.16609985035795885, 0.15799517010948327]","[9, 16, 10, 17, 3, 2, 6, 4, 11, 1]","[-0.4731460597195235, -0.43543743643467925, -0.3026562130843803, -0.26319614973224403, -0.22140825381633886, -0.21398944183421714, -0.17211787307730161, -0.17078189234091282, -0.16506607397450548, -0.12515335716212547]",3.2983159300903093,-3.089567485370248,40,"[9, 17, 11]","[-0.34792520651870057, -0.30890993677798645, -0.24552394186045184]",-0.17691681662294206,"[19, 14, 20, 12, 16, 13, 2, 15, 0, 5]","[0.3102544402698751, 0.22068714124763472, 0.19911913354414462, 0.1949579158965317, 0.1822044233670022, 0.17667508117521566, 0.1461329883621527, 0.13603390056986464, 0.1245717338674054, 0.10560958576094556]","[9, 17, 11, 18, 3, 4, 13, 7, 2, 0]","[-0.34792520651870057, -0.30890993677798645, -0.24552394186045184, -0.18535444114639674, -0.1244858961590046, -0.12135986643943536, -0.10770676998414537, -0.10758496533877487, -0.10537420548982322, -0.10270239580910834]",2.4161938340667124,-2.141636102600909,40,"[9, 17, 11]","[-0.34792520651870057, -0.30890993677798645, -0.24552394186045184]",-0.17691681662294206,"[19, 14, 20, 12, 16, 13, 2, 15, 0, 5]","[0.3102544402698751, 0.22068714124763472, 0.19911913354414462, 0.1949579158965317, 0.1822044233670022, 0.17667508117521566, 0.1461329883621527, 0.13603390056986464, 0.1245717338674054, 0.10560958576094556]","[9, 17, 11, 18, 3, 4, 13, 7, 2, 0]","[-0.34792520651870057, -0.30890993677798645, -0.24552394186045184, -0.18535444114639674, -0.1244858961590046, -0.12135986643943536, -0.10770676998414537, -0.10758496533877487, -0.10537420548982322, -0.10270239580910834]",2.4161938340667124,-2.141636102600909
32,23,0,-1,-1,0.0,[],[],[],[],0.0,0.0,0,-1,-1,0.0,[],[],[],[],0.0,0.0,0,-1,-1,0.0,[],[],[],[],0.0,0.0
33,19,0,-1,-1,0.0,[],[],[],[],0.0,0.0,0,-1,-1,0.0,[],[],[],[],0.0,0.0,0,-1,-1,0.0,[],[],[],[],0.0,0.0
34,24,24,"[4, 12, 9, 8, 2, 5, 0, 3, 11, 7, 10, 6, 1]","[-0.06679453873668446, -0.050280323390070915, -0.03997559641715515, -0.03150002504173379, -0.027126698378889764, -0.024515812563535994, -0.022168024615477667, -0.019566227882475064, -0.011638863384823369, -0.00659576270713294, -0.0024301063784890995, -0.0020102492919201707, -0.0006243361221612511]",0.7186347177325665,"[4, 0, 5, 7, 10, 2, 8, 1, 9, 3]","[0.045124163201557585, 0.03950795277770386, 0.03821520546969121, 0.029342377873812234, 0.02610729117009809, 0.02515844579903639, 0.021704496390564897, 0.016745050649195993, 0.015144720148457306, 0.013550304278354562]","[4, 12, 9, 8, 2, 5, 0, 3, 11, 7]","[-0.06679453873668446, -0.050280323390070915, -0.03997559641715515, -0.03150002504173379, -0.027126698378889764, -0.024515812563535994, -0.022168024615477667, -0.019566227882475064, -0.011638863384823369, -0.00659576270713294]",0.2813652822674336,-0.30522656491054967,24,"[4, 12, 9, 8, 2, 5, 0, 3, 11, 7, 10, 6, 1]","[-0.06679453873668446, -0.050280323390070915, -0.03997559641715515, -0.03150002504173379, -0.027126698378889764, -0.024515812563535994, -0.022168024615477667, -0.019566227882475064, -0.011638863384823369, -0.00659576270713294, -0.0024301063784890995, -0.0020102492919201707, -0.0006243361221612511]",0.7186347177325665,"[4, 0, 5, 7, 10, 2, 8, 1, 9, 3]","[0.045124163201557585, 0.03950795277770386, 0.03821520546969121, 0.029342377873812234, 0.02610729117009809, 0.02515844579903639, 0.021704496390564897, 0.016745050649195993, 0.015144720148457306, 0.013550304278354562]","[4, 12, 9, 8, 2, 5, 0, 3, 11, 7]","[-0.06679453873668446, -0.050280323390070915, -0.03997559641715515, -0.03150002504173379, -0.027126698378889764, -0.024515812563535994, -0.022168024615477667, -0.019566227882475064, -0.011638863384823369, -0.00659576270713294]",0.2813652822674336,-0.30522656491054967,24,"[4, 12, 9, 8, 2, 5, 0, 3, 11, 7, 10, 6, 1]","[-0.06679453873668446, -0.050280323390070915, -0.03997559641715515, -0.03150002504173379, -0.027126698378889764, -0.024515812563535994, -0.022168024615477667, -0.019566227882475064, -0.011638863384823369, -0.00659576270713294, -0.0024301063784890995, -0.0020102492919201707, -0.0006243361221612511]",0.7186347177325665,"[4, 0, 5, 7, 10, 2, 8, 1, 9, 3]","[0.045124163201557585, 0.03950795277770386, 0.03821520546969121, 0.029342377873812234, 0.02610729117009809, 0.02515844579903639, 0.021704496390564897, 0.016745050649195993, 0.015144720148457306, 0.013550304278354562]","[4, 12, 9, 8, 2, 5, 0, 3, 11, 7]","[-0.06679453873668446, -0.050280323390070915, -0.03997559641715515, -0.03150002504173379, -0.027126698378889764, -0.024515812563535994, -0.022168024615477667, -0.019566227882475064, -0.011638863384823369, -0.00659576270713294]",0.2813652822674336,-0.30522656491054967
35,19,19,"[5, 7, 1, 6, 2, 9, 0, 4, 8, 3]","[-0.03180659103164975, -0.0248266903898327, -0.021364461475197643, -0.02059440309590848, -0.018983693693021768, -0.014408660825143532, -0.013168135137181078, -0.010667899562684834, -0.0025045602399830598, -0.0016981145115377281]",0.8869063268022535,"[5, 8, 6, 0, 1, 2, 4, 3, 7]","[0.032446954906268144, 0.01752244619014427, 0.014615737342503182, 0.01323681091032596, 0.011697591411573997, 0.010460886644689183, 0.008775263536418089, 0.0029733036674186608, 0.0013646785884050096]","[5, 7, 1, 6, 2, 9, 0, 4, 8, 3]","[-0.03180659103164975, -0.0248266903898327, -0.021364461475197643, -0.02059440309590848, -0.018983693693021768, -0.014408660825143532, -0.013168135137181078, -0.010667899562684834, -0.0025045602399830598, -0.0016981145115377281]",0.1130936731977465,-0.16002320996214056,19,"[5, 7, 1, 6, 2, 9, 0, 4, 8, 3]","[-0.03180659103164975, -0.0248266903898327, -0.021364461475197643, -0.02059440309590848, -0.018983693693021768, -0.014408660825143532, -0.013168135137181078, -0.010667899562684834, -0.0025045602399830598, -0.0016981145115377281]",0.8869063268022535,"[5, 8, 6, 0, 1, 2, 4, 3, 7]","[0.032446954906268144, 0.01752244619014427, 0.014615737342503182, 0.01323681091032596, 0.011697591411573997, 0.010460886644689183, 0.008775263536418089, 0.0029733036674186608, 0.0013646785884050096]","[5, 7, 1, 6, 2, 9, 0, 4, 8, 3]","[-0.03180659103164975, -0.0248266903898327, -0.021364461475197643, -0.02059440309590848, -0.018983693693021768, -0.014408660825143532, -0.013168135137181078, -0.010667899562684834, -0.0025045602399830598, -0.0016981145115377281]",0.1130936731977465,-0.16002320996214056,19,"[5, 7, 1, 6, 2, 9, 0, 4, 8, 3]","[-0.03180659103164975, -0.0248266903898327, -0.021364461475197643, -0.02059440309590848, -0.018983693693021768, -0.014408660825143532, -0.013168135137181078, -0.010667899562684834, -0.0025045602399830598, -0.0016981145115377281]",0.8869063268022535,"[5, 8, 6, 0, 1, 2, 4, 3, 7]","[0.032446954906268144, 0.01752244619014427, 0.014615737342503182, 0.01323681091032596, 0.011697591411573997, 0.010460886644689183, 0.008775263536418089, 0.0029733036674186608, 0.0013646785884050096]","[5, 7, 1, 6, 2, 9, 0, 4, 8, 3]","[-0.03180659103164975, -0.0248266903898327, -0.021364461475197643, -0.02059440309590848, -0.018983693693021768, -0.014408660825143532, -0.013168135137181078, -0.010667899562684834, -0.0025045602399830598, -0.0016981145115377281]",0.1130936731977465,-0.16002320996214056
36,56,56,"[17, 15, 8]","[-0.2839103105095843, -0.2038841378647637, -0.20030340230582094]",-0.029274357311911664,"[8, 33, 34, 15, 31, 9, 17, 12, 4, 23]","[0.20044929849372026, 0.18260466371515624, 0.17845466705650517, 0.17735739827654137, 0.1237436943411688, 0.12313346082485976, 0.11589507683087755, 0.10525004043098184, 0.10213249803621398, 0.09933633160809875]","[17, 15, 8, 11, 2, 6, 13, 5, 0, 1]","[-0.2839103105095843, -0.2038841378647637, -0.20030340230582094, -0.1564425409587011, -0.15275202433835694, -0.145686164483209, -0.12470488485454374, -0.11454527875752196, -0.10273223896922948, -0.09942032953442817]",2.395831334622814,-2.0546548279910715,56,"[17, 15, 8]","[-0.2839103105095843, -0.2038841378647637, -0.20030340230582094]",-0.029274357311911664,"[8, 33, 34, 15, 31, 9, 17, 12, 4, 23]","[0.20044929849372026, 0.18260466371515624, 0.17845466705650517, 0.17735739827654137, 0.1237436943411688, 0.12313346082485976, 0.11589507683087755, 0.10525004043098184, 0.10213249803621398, 0.09933633160809875]","[17, 15, 8, 11, 2, 6, 13, 5, 0, 1]","[-0.2839103105095843, -0.2038841378647637, -0.20030340230582094, -0.1564425409587011, -0.15275202433835694, -0.145686164483209, -0.12470488485454374, -0.11454527875752196, -0.10273223896922948, -0.09942032953442817]",2.395831334622814,-2.0546548279910715,56,"[17, 15, 8]","[-0.2839103105095843, -0.2038841378647637, -0.20030340230582094]",-0.029274357311911664,"[8, 33, 34, 15, 31, 9, 17, 12, 4, 23]","[0.20044929849372026, 0.18260466371515624, 0.17845466705650517, 0.17735739827654137, 0.1237436943411688, 0.12313346082485976, 0.11589507683087755, 0.10525004043098184, 0.10213249803621398, 0.09933633160809875]","[17, 15, 8, 11, 2, 6, 13, 5, 0, 1]","[-0.2839103105095843, -0.2038841378647637, -0.20030340230582094, -0.1564425409587011, -0.15275202433835694, -0.145686164483209, -0.12470488485454374, -0.11454527875752196, -0.10273223896922948, -0.09942032953442817]",2.395831334622814,-2.0546548279910715
37,120,0,-1,-1,0.0,[],[],[],[],0.0,0.0,0,-1,-1,0.0,[],[],[],[],0.0,0.0,0,-1,-1,0.0,[],[],[],[],0.0,0.0
38,21,21,"[3, 1, 7, 8, 2, 9, 5, 6, 4, 0]","[-0.08735093931038226, -0.08027541589608193, -0.04895620168175462, -0.03968279791546988, -0.033239894506785335, -0.023720444335659972, -0.011951547631732208, -0.010476024106476592, -0.010062301075642729, -0.005621963596010696]",0.7207801925213697,"[9, 8, 7, 4, 2, 10, 5, 1, 3, 6]","[0.07726449189135183, 0.051794704738570715, 0.032152759734889305, 0.031236281215787583, 0.026952086682286915, 0.021503423417416078, 0.011533002858174315, 0.010490333476986415, 0.008877458961839413, 0.005096248507740214]","[3, 1, 7, 8, 2, 9, 5, 6, 4, 0]","[-0.08735093931038226, -0.08027541589608193, -0.04895620168175462, -0.03968279791546988, -0.033239894506785335, -0.023720444335659972, -0.011951547631732208, -0.010476024106476592, -0.010062301075642729, -0.005621963596010696]",0.27921980747863007,-0.35133753005599616,21,"[3, 1, 7, 8, 2, 9, 5, 6, 4, 0]","[-0.08735093931038226, -0.08027541589608193, -0.04895620168175462, -0.03968279791546988, -0.033239894506785335, -0.023720444335659972, -0.011951547631732208, -0.010476024106476592, -0.010062301075642729, -0.005621963596010696]",0.7207801925213697,"[9, 8, 7, 4, 2, 10, 5, 1, 3, 6]","[0.07726449189135183, 0.051794704738570715, 0.032152759734889305, 0.031236281215787583, 0.026952086682286915, 0.021503423417416078, 0.011533002858174315, 0.010490333476986415, 0.008877458961839413, 0.005096248507740214]","[3, 1, 7, 8, 2, 9, 5, 6, 4, 0]","[-0.08735093931038226, -0.08027541589608193, -0.04895620168175462, -0.03968279791546988, -0.033239894506785335, -0.023720444335659972, -0.011951547631732208, -0.010476024106476592, -0.010062301075642729, -0.005621963596010696]",0.27921980747863007,-0.35133753005599616,21,"[3, 1, 7, 8, 2, 9, 5, 6, 4, 0]","[-0.08735093931038226, -0.08027541589608193, -0.04895620168175462, -0.03968279791546988, -0.033239894506785335, -0.023720444335659972, -0.011951547631732208, -0.010476024106476592, -0.010062301075642729, -0.005621963596010696]",0.7207801925213697,"[9, 8, 7, 4, 2, 10, 5, 1, 3, 6]","[0.07726449189135183, 0.051794704738570715, 0.032152759734889305, 0.031236281215787583, 0.026952086682286915, 0.021503423417416078, 0.011533002858174315, 0.010490333476986415, 0.008877458961839413, 0.005096248507740214]","[3, 1, 7, 8, 2, 9, 5, 6, 4, 0]","[-0.08735093931038226, -0.08027541589608193, -0.04895620168175462, -0.03968279791546988, -0.033239894506785335, -0.023720444335659972, -0.011951547631732208, -0.010476024106476592, -0.010062301075642729, -0.005621963596010696]",0.27921980747863007,-0.35133753005599616
39,34,34,"[5, 8, 7, 10, 3, 12, 9, 1, 4, 11, 0, 2, 6]","[-0.016870265259138616, -0.01684034375803265, -0.014416870189388562, -0.013286255302187144, -0.012031810979855227, -0.011053335531676776, -0.01012502422666018, -0.009604620989947079, -0.00872218952929091, -0.008046971933794498, -0.007632818435566516, -0.007209710418054316, -0.0036949969502686267]",0.8349759953305685,"[18, 14, 13, 3, 15, 0, 12, 19, 10, 16]","[0.013574887677740743, 0.01234502194558542, 0.011619812720802742, 0.010976547226013166, 0.010859531684408124, 0.009750122573397526, 0.009265052318237384, 0.008465287425373579, 0.008190054052163076, 0.008053946990212082]","[5, 8, 7, 10, 3, 12, 9, 1, 4, 11]","[-0.016870265259138616, -0.01684034375803265, -0.014416870189388562, -0.013286255302187144, -0.012031810979855227, -0.011053335531676776, -0.01012502422666018, -0.009604620989947079, -0.00872218952929091, -0.008046971933794498]",0.1650240046694315,-0.13953521350386108,34,"[5, 8, 7, 10, 3, 12, 9, 1, 4, 11, 0, 2, 6]","[-0.016870265259138616, -0.01684034375803265, -0.014416870189388562, -0.013286255302187144, -0.012031810979855227, -0.011053335531676776, -0.01012502422666018, -0.009604620989947079, -0.00872218952929091, -0.008046971933794498, -0.007632818435566516, -0.007209710418054316, -0.0036949969502686267]",0.8349759953305685,"[18, 14, 13, 3, 15, 0, 12, 19, 10, 16]","[0.013574887677740743, 0.01234502194558542, 0.011619812720802742, 0.010976547226013166, 0.010859531684408124, 0.009750122573397526, 0.009265052318237384, 0.008465287425373579, 0.008190054052163076, 0.008053946990212082]","[5, 8, 7, 10, 3, 12, 9, 1, 4, 11]","[-0.016870265259138616, -0.01684034375803265, -0.014416870189388562, -0.013286255302187144, -0.012031810979855227, -0.011053335531676776, -0.01012502422666018, -0.009604620989947079, -0.00872218952929091, -0.008046971933794498]",0.1650240046694315,-0.13953521350386108,34,"[5, 8, 7, 10, 3, 12, 9, 1, 4, 11, 0, 2, 6]","[-0.016870265259138616, -0.01684034375803265, -0.014416870189388562, -0.013286255302187144, -0.012031810979855227, -0.011053335531676776, -0.01012502422666018, -0.009604620989947079, -0.00872218952929091, -0.008046971933794498, -0.007632818435566516, -0.007209710418054316, -0.0036949969502686267]",0.8349759953305685,"[18, 14, 13, 3, 15, 0, 12, 19, 10, 16]","[0.013574887677740743, 0.01234502194558542, 0.011619812720802742, 0.010976547226013166, 0.010859531684408124, 0.009750122573397526, 0.009265052318237384, 0.008465287425373579, 0.008190054052163076, 0.008053946990212082]","[5, 8, 7, 10, 3, 12, 9, 1, 4, 11]","[-0.016870265259138616, -0.01684034375803265, -0.014416870189388562, -0.013286255302187144, -0.012031810979855227, -0.011053335531676776, -0.01012502422666018, -0.009604620989947079, -0.00872218952929091, -0.008046971933794498]",0.1650240046694315,-0.13953521350386108
40,51,0,-1,-1,0.0,[],[],[],[],0.0,0.0,0,-1,-1,0.0,[],[],[],[],0.0,0.0,0,-1,-1,0.0,[],[],[],[],0.0,0.0
41,182,0,-1,-1,0.0,[],[],[],[],0.0,0.0,0,-1,-1,0.0,[],[],[],[],0.0,0.0,0,-1,-1,0.0,[],[],[],[],0.0,0.0
42,220,220,"[44, 35]","[-1.3925191112255666, -1.3468546697167887]",-0.6964817174821971,"[69, 88, 95, 7, 63, 92, 79, 12, 86, 45]","[1.1307103154006068, 0.8962773885659359, 0.8373479001248221, 0.832251676984093, 0.8311032961332874, 0.8285763558958784, 0.8281809970593218, 0.8259446033500454, 0.7872754280261874, 0.7773703066674524]","[44, 35, 39, 106, 17, 89, 73, 104, 61, 65]","[-1.3925191112255666, -1.3468546697167887, -1.0757664633593398, -1.0272885882335985, -0.8895295340310999, -0.8750662916429754, -0.8705507953880574, -0.8517283843811192, -0.8017417475939959, -0.746278970603158]",38.58887716179623,-39.63176922525639,220,"[35, 43]","[-1.2427323208682117, -1.1697286660270798]",-0.3887638958515054,"[89, 71, 87, 65, 96, 81, 11, 59, 8, 4]","[0.9320019203630214, 0.8797225468092711, 0.8563786005062014, 0.8457367382578028, 0.8107781514056451, 0.7686595468103095, 0.7653154562716965, 0.7330229559273403, 0.7255586702196338, 0.7009000685126979]","[35, 43, 105, 39, 87, 17, 104, 24, 59, 71]","[-1.2427323208682117, -1.1697286660270798, -0.9495815328374109, -0.9359946695353129, -0.8839755418224813, -0.8253100696885114, -0.8044978866349768, -0.7858699384395635, -0.7848770340399507, -0.7661907323269229]",35.50540072301063,-36.52909781405442,220,"[35, 43]","[-1.2427323208682117, -1.1697286660270798]",-0.3887638958515054,"[89, 71, 87, 65, 96, 81, 11, 59, 8, 4]","[0.9320019203630214, 0.8797225468092711, 0.8563786005062014, 0.8457367382578028, 0.8107781514056451, 0.7686595468103095, 0.7653154562716965, 0.7330229559273403, 0.7255586702196338, 0.7009000685126979]","[35, 43, 105, 39, 87, 17, 104, 24, 59, 71]","[-1.2427323208682117, -1.1697286660270798, -0.9495815328374109, -0.9359946695353129, -0.8839755418224813, -0.8253100696885114, -0.8044978866349768, -0.7858699384395635, -0.7848770340399507, -0.7661907323269229]",35.50540072301063,-36.52909781405442
43,150,150,"[63, 52, 36, 50, 28, 54, 45, 64, 12, 62, 55, 44, 33, 35, 8, 60]","[-0.08771859096624424, -0.08621501969061668, -0.08526307351554553, -0.06713293947139443, -0.06476437036855073, -0.06464705059948937, -0.06404471432803922, -0.06343306192107828, -0.06323484054187875, -0.0626385291371795, -0.06262260617903975, -0.05750997766393407, -0.05556578373253098, -0.05525496770704502, -0.05463585377221415, -0.05244462786442592]",-0.0017613792659908686,"[67, 10, 66, 0, 20, 40, 27, 7, 11, 59]","[0.12203927766636621, 0.07482845797431685, 0.07129891528012533, 0.06630807445607347, 0.06604317975282813, 0.06488139272981258, 0.0607014868136209, 0.05978133575324262, 0.057714697456574565, 0.055588648704571]","[63, 52, 36, 50, 28, 54, 45, 64, 12, 62]","[-0.08771859096624424, -0.08621501969061668, -0.08526307351554553, -0.06713293947139443, -0.06476437036855073, -0.06464705059948937, -0.06404471432803922, -0.06343306192107828, -0.06323484054187875, -0.0626385291371795]",2.222160393447808,-2.2675250216410237,150,"[63, 52, 36, 50, 28, 54, 45, 64, 12, 62, 55, 44, 33, 35, 8, 60]","[-0.08771859096624424, -0.08621501969061668, -0.08526307351554553, -0.06713293947139443, -0.06476437036855073, -0.06464705059948937, -0.06404471432803922, -0.06343306192107828, -0.06323484054187875, -0.0626385291371795, -0.06262260617903975, -0.05750997766393407, -0.05556578373253098, -0.05525496770704502, -0.05463585377221415, -0.05244462786442592]",-0.0017613792659908686,"[67, 10, 66, 0, 20, 40, 27, 7, 11, 59]","[0.12203927766636621, 0.07482845797431685, 0.07129891528012533, 0.06630807445607347, 0.06604317975282813, 0.06488139272981258, 0.0607014868136209, 0.05978133575324262, 0.057714697456574565, 0.055588648704571]","[63, 52, 36, 50, 28, 54, 45, 64, 12, 62]","[-0.08771859096624424, -0.08621501969061668, -0.08526307351554553, -0.06713293947139443, -0.06476437036855073, -0.06464705059948937, -0.06404471432803922, -0.06343306192107828, -0.06323484054187875, -0.0626385291371795]",2.222160393447808,-2.2675250216410237,150,"[63, 52, 36, 50, 28, 54, 45, 64, 12, 62, 55, 44, 33, 35, 8, 60]","[-0.08771859096624424, -0.08621501969061668, -0.08526307351554553, -0.06713293947139443, -0.06476437036855073, -0.06464705059948937, -0.06404471432803922, -0.06343306192107828, -0.06323484054187875, -0.0626385291371795, -0.06262260617903975, -0.05750997766393407, -0.05556578373253098, -0.05525496770704502, -0.05463585377221415, -0.05244462786442592]",-0.0017613792659908686,"[67, 10, 66, 0, 20, 40, 27, 7, 11, 59]","[0.12203927766636621, 0.07482845797431685, 0.07129891528012533, 0.06630807445607347, 0.06604317975282813, 0.06488139272981258, 0.0607014868136209, 0.05978133575324262, 0.057714697456574565, 0.055588648704571]","[63, 52, 36, 50, 28, 54, 45, 64, 12, 62]","[-0.08771859096624424, -0.08621501969061668, -0.08526307351554553, -0.06713293947139443, -0.06476437036855073, -0.06464705059948937, -0.06404471432803922, -0.06343306192107828, -0.06323484054187875, -0.0626385291371795]",2.222160393447808,-2.2675250216410237
44,47,47,[14],[-0.8114933796702691],-0.33397237628926224,"[14, 18, 2, 15, 22, 5, 7, 19, 20, 8]","[0.9237609698757394, 0.8630189081504714, 0.6981121036869686, 0.5323295208764863, 0.5135777639508935, 0.47252740278318045, 0.3914149819407202, 0.3472629859016313, 0.3355845754638125, 0.3233172201622962]","[14, 11, 19, 6, 17, 23, 1, 12, 5, 8]","[-0.8114933796702691, -0.637045500781864, -0.5744316859669111, -0.5485397298292845, -0.35577480257380406, -0.32629692166829827, -0.32603044786585683, -0.3176861501961882, -0.302197668875586, -0.2855205298687695]",7.38674021193875,-6.864261215319757,47,"[8, 10]","[-0.45325523447359206, -0.4291682037738307]",-0.16807923698360772,"[12, 3, 13, 15, 21, 11, 5, 14, 10, 1]","[0.6510258054344065, 0.6170480967572216, 0.4937264230958685, 0.46031262291578323, 0.4276387056080365, 0.22601340510553547, 0.21969010209658116, 0.216518340123682, 0.2112182761858514, 0.20846954293895031]","[8, 10, 22, 16, 2, 20, 7, 9, 13, 0]","[-0.45325523447359206, -0.4291682037738307, -0.3668449788734791, -0.32059097842546913, -0.28349943618432694, -0.2710763209751993, -0.24825288933510622, -0.2097774741973122, -0.20741152983088482, -0.20023946393166953]",5.1014708001310565,-4.8158150013948715,47,"[8, 10, 22]","[-0.35802405828965667, -0.3387100531232529, -0.3362276207574741]",-0.2449225772569723,"[12, 3, 15, 13, 20, 6, 1, 17, 5, 11]","[0.6142192560160927, 0.5450679215526855, 0.42494779620469075, 0.41042695274033864, 0.37178410184939703, 0.1977285152928794, 0.19101967962648392, 0.18718101483172417, 0.17644031467855156, 0.16616118239111632]","[8, 10, 22, 16, 2, 7, 13, 6, 9, 20]","[-0.35802405828965667, -0.3387100531232529, -0.3362276207574741, -0.32014181584139795, -0.2512197516529169, -0.19971975079540655, -0.19766949076075577, -0.1944056394437205, -0.19192306318721303, -0.1779739117819936]",4.344447987896181,-4.132487142809592
45,26,26,"[10, 7, 3, 1, 8, 4, 2, 6, 0, 9, 5]","[-0.0917671168135651, -0.0397163709367593, -0.027101829156279008, -0.02529338887723784, -0.024173616078187528, -0.021229343899837553, -0.01613073952679769, -0.013113421945017096, -0.011126040514171195, -0.003434910256305608, -0.0002191265941220606]",0.6619210352433712,"[2, 11, 7, 6, 13, 1, 9, 0, 10, 4]","[0.05794004834539538, 0.04580878663572588, 0.03526047220396277, 0.029164569497897738, 0.028209101380281144, 0.0262810862428808, 0.025157526441973402, 0.02319534465236982, 0.022088246867007305, 0.016511832435109192]","[10, 7, 3, 1, 8, 4, 2, 6, 0, 9]","[-0.0917671168135651, -0.0397163709367593, -0.027101829156279008, -0.02529338887723784, -0.024173616078187528, -0.021229343899837553, -0.01613073952679769, -0.013113421945017096, -0.011126040514171195, -0.003434910256305608]",0.3380789647566288,-0.27330590459827997,26,"[10, 7, 3, 1, 8, 4, 2, 6, 0, 9, 5]","[-0.0917671168135651, -0.0397163709367593, -0.027101829156279008, -0.02529338887723784, -0.024173616078187528, -0.021229343899837553, -0.01613073952679769, -0.013113421945017096, -0.011126040514171195, -0.003434910256305608, -0.0002191265941220606]",0.6619210352433712,"[2, 11, 7, 6, 13, 1, 9, 0, 10, 4]","[0.05794004834539538, 0.04580878663572588, 0.03526047220396277, 0.029164569497897738, 0.028209101380281144, 0.0262810862428808, 0.025157526441973402, 0.02319534465236982, 0.022088246867007305, 0.016511832435109192]","[10, 7, 3, 1, 8, 4, 2, 6, 0, 9]","[-0.0917671168135651, -0.0397163709367593, -0.027101829156279008, -0.02529338887723784, -0.024173616078187528, -0.021229343899837553, -0.01613073952679769, -0.013113421945017096, -0.011126040514171195, -0.003434910256305608]",0.3380789647566288,-0.27330590459827997,26,"[10, 7, 3, 1, 8, 4, 2, 6, 0, 9, 5]","[-0.0917671168135651, -0.0397163709367593, -0.027101829156279008, -0.02529338887723784, -0.024173616078187528, -0.021229343899837553, -0.01613073952679769, -0.013113421945017096, -0.011126040514171195, -0.003434910256305608, -0.0002191265941220606]",0.6619210352433712,"[2, 11, 7, 6, 13, 1, 9, 0, 10, 4]","[0.05794004834539538, 0.04580878663572588, 0.03526047220396277, 0.029164569497897738, 0.028209101380281144, 0.0262810862428808, 0.025157526441973402, 0.02319534465236982, 0.022088246867007305, 0.016511832435109192]","[10, 7, 3, 1, 8, 4, 2, 6, 0, 9]","[-0.0917671168135651, -0.0397163709367593, -0.027101829156279008, -0.02529338887723784, -0.024173616078187528, -0.021229343899837553, -0.01613073952679769, -0.013113421945017096, -0.011126040514171195, -0.003434910256305608]",0.3380789647566288,-0.27330590459827997
46,24,24,"[2, 8, 10, 4, 0, 9, 6, 7, 1, 5, 3]","[-0.06175582571245639, -0.06030656665722087, -0.04039194646457623, -0.03126284393976398, -0.028223540856713598, -0.024186453290227814, -0.02145129098320956, -0.019003418771711078, -0.0125992166227278, -0.00981101668465244, -0.004245514173957401]",0.651298810344699,"[12, 9, 7, 4, 5, 11, 10, 3, 0, 8]","[0.05275508450406877, 0.04774598213911657, 0.03857175280457371, 0.03546925686915068, 0.03511795983525826, 0.03310295348161612, 0.03257243698525019, 0.027806114267425002, 0.013945163444158255, 0.011782828057273311]","[2, 8, 10, 4, 0, 9, 6, 7, 1, 5]","[-0.06175582571245639, -0.06030656665722087, -0.04039194646457623, -0.03126284393976398, -0.028223540856713598, -0.024186453290227814, -0.02145129098320956, -0.019003418771711078, -0.0125992166227278, -0.00981101668465244]",0.34870118965530095,-0.31323763415721717,24,"[2, 8, 10, 4, 0, 9, 6, 7, 1, 5, 3]","[-0.06175582571245639, -0.06030656665722087, -0.04039194646457623, -0.03126284393976398, -0.028223540856713598, -0.024186453290227814, -0.02145129098320956, -0.019003418771711078, -0.0125992166227278, -0.00981101668465244, -0.004245514173957401]",0.651298810344699,"[12, 9, 7, 4, 5, 11, 10, 3, 0, 8]","[0.05275508450406877, 0.04774598213911657, 0.03857175280457371, 0.03546925686915068, 0.03511795983525826, 0.03310295348161612, 0.03257243698525019, 0.027806114267425002, 0.013945163444158255, 0.011782828057273311]","[2, 8, 10, 4, 0, 9, 6, 7, 1, 5]","[-0.06175582571245639, -0.06030656665722087, -0.04039194646457623, -0.03126284393976398, -0.028223540856713598, -0.024186453290227814, -0.02145129098320956, -0.019003418771711078, -0.0125992166227278, -0.00981101668465244]",0.34870118965530095,-0.31323763415721717,24,"[2, 8, 10, 4, 0, 9, 6, 7, 1, 5, 3]","[-0.06175582571245639, -0.06030656665722087, -0.04039194646457623, -0.03126284393976398, -0.028223540856713598, -0.024186453290227814, -0.02145129098320956, -0.019003418771711078, -0.0125992166227278, -0.00981101668465244, -0.004245514173957401]",0.651298810344699,"[12, 9, 7, 4, 5, 11, 10, 3, 0, 8]","[0.05275508450406877, 0.04774598213911657, 0.03857175280457371, 0.03546925686915068, 0.03511795983525826, 0.03310295348161612, 0.03257243698525019, 0.027806114267425002, 0.013945163444158255, 0.011782828057273311]","[2, 8, 10, 4, 0, 9, 6, 7, 1, 5]","[-0.06175582571245639, -0.06030656665722087, -0.04039194646457623, -0.03126284393976398, -0.028223540856713598, -0.024186453290227814, -0.02145129098320956, -0.019003418771711078, -0.0125992166227278, -0.00981101668465244]",0.34870118965530095,-0.31323763415721717
47,65,65,[],[],-0.561873169832964,"[4, 11, 15, 13, 22, 3, 25, 24, 17, 7]","[1.4450381905904972, 1.1316528569260105, 0.8923644652460085, 0.8623995450680401, 0.8561245409081586, 0.7460050328686246, 0.716534050446688, 0.7022455095938925, 0.6696833981006651, 0.6252123308852536]","[21, 22, 31, 33, 4, 28, 30, 24, 18, 29]","[-0.8269390683936859, -0.819577549907485, -0.6919493671702652, -0.6870447586484799, -0.6568983643621754, -0.5950854440636331, -0.5907766568344937, -0.5534853455403312, -0.5315017166503444, -0.5055771313843286]",14.23177492634407,-12.669901756511106,65,[21],[-0.4784490519519099],-0.009407823754701394,"[3, 15, 11, 26, 14, 2, 23, 22, 9, 19]","[0.6971668487784854, 0.6476228424712405, 0.6231961257724841, 0.5249293639386918, 0.49716887730368786, 0.4516855965807081, 0.384645627378876, 0.3092690300009392, 0.29219723032262046, 0.26140718297690896]","[21, 27, 32, 26, 24, 29, 18, 30, 22, 4]","[-0.4784490519519099, -0.45046773630124415, -0.43742682829161217, -0.3863117036064691, -0.3762021601688632, -0.37368374938133947, -0.36791871898879425, -0.3049896042578479, -0.30019262542463643, -0.2765372664813961]",7.36327050743062,-6.832311735627829,65,[21],[-0.4784490519519099],-0.009407823754701394,"[3, 15, 11, 26, 14, 2, 23, 22, 9, 19]","[0.6971668487784854, 0.6476228424712405, 0.6231961257724841, 0.5249293639386918, 0.49716887730368786, 0.4516855965807081, 0.384645627378876, 0.3092690300009392, 0.29219723032262046, 0.26140718297690896]","[21, 27, 32, 26, 24, 29, 18, 30, 22, 4]","[-0.4784490519519099, -0.45046773630124415, -0.43742682829161217, -0.3863117036064691, -0.3762021601688632, -0.37368374938133947, -0.36791871898879425, -0.3049896042578479, -0.30019262542463643, -0.2765372664813961]",7.36327050743062,-6.832311735627829
48,214,214,"[99, 44, 68, 47, 103]","[-0.3001528842961119, -0.19693742599443598, -0.15804115340694028, -0.14940012717693127, -0.14536135956652294]",-0.10667791044010608,"[65, 90, 91, 55, 66, 75, 22, 69, 88, 30]","[0.20521396503527753, 0.17149462461392687, 0.16938283526062148, 0.16226815312217996, 0.1620488684216042, 0.15373339644377818, 0.14416895463265536, 0.13889294405665703, 0.13814437960593443, 0.13633486268699407]","[99, 44, 68, 47, 103, 109, 74, 88, 30, 63]","[-0.3001528842961119, -0.19693742599443598, -0.15804115340694028, -0.14940012717693127, -0.14536135956652294, -0.14237915882323868, -0.13315516277601508, -0.12711101885080447, -0.1225867323104668, -0.10929123166104796]",6.517317848733019,-6.3605328887338555,214,"[99, 44, 68, 47, 103]","[-0.3001528842961119, -0.19693742599443598, -0.15804115340694028, -0.14940012717693127, -0.14536135956652294]",-0.10667791044010608,"[65, 90, 91, 55, 66, 75, 22, 69, 88, 30]","[0.20521396503527753, 0.17149462461392687, 0.16938283526062148, 0.16226815312217996, 0.1620488684216042, 0.15373339644377818, 0.14416895463265536, 0.13889294405665703, 0.13814437960593443, 0.13633486268699407]","[99, 44, 68, 47, 103, 109, 74, 88, 30, 63]","[-0.3001528842961119, -0.19693742599443598, -0.15804115340694028, -0.14940012717693127, -0.14536135956652294, -0.14237915882323868, -0.13315516277601508, -0.12711101885080447, -0.1225867323104668, -0.10929123166104796]",6.517317848733019,-6.3605328887338555,214,"[99, 44, 68, 47, 103]","[-0.3001528842961119, -0.19693742599443598, -0.15804115340694028, -0.14940012717693127, -0.14536135956652294]",-0.10667791044010608,"[65, 90, 91, 55, 66, 75, 22, 69, 88, 30]","[0.20521396503527753, 0.17149462461392687, 0.16938283526062148, 0.16226815312217996, 0.1620488684216042, 0.15373339644377818, 0.14416895463265536, 0.13889294405665703, 0.13814437960593443, 0.13633486268699407]","[99, 44, 68, 47, 103, 109, 74, 88, 30, 63]","[-0.3001528842961119, -0.19693742599443598, -0.15804115340694028, -0.14940012717693127, -0.14536135956652294, -0.14237915882323868, -0.13315516277601508, -0.12711101885080447, -0.1225867323104668, -0.10929123166104796]",6.517317848733019,-6.3605328887338555
49,23,23,"[2, 3, 0, 9, 8, 4, 7, 5, 6, 1]","[-0.07572509346045589, -0.055485210325173055, -0.03703614741276379, -0.03702440450315274, -0.021491396338260395, -0.019306685218427964, -0.006711127297364246, -0.004538004328847086, -0.004513410079053981, -0.004274339791141078]",0.4940136198903433,"[8, 1, 9, 5, 3, 10, 2, 7, 12, 0]","[0.08718448786247619, 0.07713770332047191, 0.07438778630089445, 0.06407146929345553, 0.0535276058205682, 0.0409954111901723, 0.02936419702759648, 0.022385322491375252, 0.021130968970885566, 0.01934285426422605]","[2, 3, 0, 9, 8, 4, 7, 5, 6, 1]","[-0.07572509346045589, -0.055485210325173055, -0.03703614741276379, -0.03702440450315274, -0.021491396338260395, -0.019306685218427964, -0.006711127297364246, -0.004538004328847086, -0.004513410079053981, -0.004274339791141078]",0.5059863801096569,-0.26610581875464023,23,"[2, 3, 0, 9, 8, 4, 7, 5, 6, 1]","[-0.07572509346045589, -0.055485210325173055, -0.03703614741276379, -0.03702440450315274, -0.021491396338260395, -0.019306685218427964, -0.006711127297364246, -0.004538004328847086, -0.004513410079053981, -0.004274339791141078]",0.4940136198903433,"[8, 1, 9, 5, 3, 10, 2, 7, 12, 0]","[0.08718448786247619, 0.07713770332047191, 0.07438778630089445, 0.06407146929345553, 0.0535276058205682, 0.0409954111901723, 0.02936419702759648, 0.022385322491375252, 0.021130968970885566, 0.01934285426422605]","[2, 3, 0, 9, 8, 4, 7, 5, 6, 1]","[-0.07572509346045589, -0.055485210325173055, -0.03703614741276379, -0.03702440450315274, -0.021491396338260395, -0.019306685218427964, -0.006711127297364246, -0.004538004328847086, -0.004513410079053981, -0.004274339791141078]",0.5059863801096569,-0.26610581875464023,23,"[2, 3, 0, 9, 8, 4, 7, 5, 6, 1]","[-0.07572509346045589, -0.055485210325173055, -0.03703614741276379, -0.03702440450315274, -0.021491396338260395, -0.019306685218427964, -0.006711127297364246, -0.004538004328847086, -0.004513410079053981, -0.004274339791141078]",0.4940136198903433,"[8, 1, 9, 5, 3, 10, 2, 7, 12, 0]","[0.08718448786247619, 0.07713770332047191, 0.07438778630089445, 0.06407146929345553, 0.0535276058205682, 0.0409954111901723, 0.02936419702759648, 0.022385322491375252, 0.021130968970885566, 0.01934285426422605]","[2, 3, 0, 9, 8, 4, 7, 5, 6, 1]","[-0.07572509346045589, -0.055485210325173055, -0.03703614741276379, -0.03702440450315274, -0.021491396338260395, -0.019306685218427964, -0.006711127297364246, -0.004538004328847086, -0.004513410079053981, -0.004274339791141078]",0.5059863801096569,-0.26610581875464023
50,22,22,"[7, 10, 0, 8, 5, 3, 1, 6, 4, 2, 9, 11]","[-0.13899004496062659, -0.1001562688681564, -0.09580918269166452, -0.06719139553678433, -0.0594337701033531, -0.053391949274330656, -0.0476484060518466, -0.04656695043255857, -0.044034072529205874, -0.034444544321535285, -0.023185541556898722, -0.00503833353401338]",0.3732181712915622,"[1, 9, 2, 6, 7, 5, 8, 4, 3, 0]","[0.125702183323569, 0.11150934449061012, 0.10874909562114851, 0.10097256810183104, 0.08307669546450375, 0.04843195015940434, 0.025476601384613207, 0.013420924528483993, 0.007405689082046562, 0.002036776552227301]","[7, 10, 0, 8, 5, 3, 1, 6, 4, 2]","[-0.13899004496062659, -0.1001562688681564, -0.09580918269166452, -0.06719139553678433, -0.0594337701033531, -0.053391949274330656, -0.0476484060518466, -0.04656695043255857, -0.044034072529205874, -0.034444544321535285]",0.6267818287084378,-0.715890459860974,22,"[7, 10, 0, 8, 5, 3, 1, 6, 4, 2, 9, 11]","[-0.13899004496062659, -0.1001562688681564, -0.09580918269166452, -0.06719139553678433, -0.0594337701033531, -0.053391949274330656, -0.0476484060518466, -0.04656695043255857, -0.044034072529205874, -0.034444544321535285, -0.023185541556898722, -0.00503833353401338]",0.3732181712915622,"[1, 9, 2, 6, 7, 5, 8, 4, 3, 0]","[0.125702183323569, 0.11150934449061012, 0.10874909562114851, 0.10097256810183104, 0.08307669546450375, 0.04843195015940434, 0.025476601384613207, 0.013420924528483993, 0.007405689082046562, 0.002036776552227301]","[7, 10, 0, 8, 5, 3, 1, 6, 4, 2]","[-0.13899004496062659, -0.1001562688681564, -0.09580918269166452, -0.06719139553678433, -0.0594337701033531, -0.053391949274330656, -0.0476484060518466, -0.04656695043255857, -0.044034072529205874, -0.034444544321535285]",0.6267818287084378,-0.715890459860974,22,"[7, 10, 0, 8, 5, 3, 1, 6, 4, 2, 9, 11]","[-0.13899004496062659, -0.1001562688681564, -0.09580918269166452, -0.06719139553678433, -0.0594337701033531, -0.053391949274330656, -0.0476484060518466, -0.04656695043255857, -0.044034072529205874, -0.034444544321535285, -0.023185541556898722, -0.00503833353401338]",0.3732181712915622,"[1, 9, 2, 6, 7, 5, 8, 4, 3, 0]","[0.125702183323569, 0.11150934449061012, 0.10874909562114851, 0.10097256810183104, 0.08307669546450375, 0.04843195015940434, 0.025476601384613207, 0.013420924528483993, 0.007405689082046562, 0.002036776552227301]","[7, 10, 0, 8, 5, 3, 1, 6, 4, 2]","[-0.13899004496062659, -0.1001562688681564, -0.09580918269166452, -0.06719139553678433, -0.0594337701033531, -0.053391949274330656, -0.0476484060518466, -0.04656695043255857, -0.044034072529205874, -0.034444544321535285]",0.6267818287084378,-0.715890459860974
51,55,55,"[22, 12]","[-1.0770820835640313, -0.8174643486942164]",-0.5570395666984165,"[7, 5, 19, 10, 16, 1, 20, 14, 12, 13]","[0.9131090746196577, 0.772954996128556, 0.6718683925228284, 0.6572522648526772, 0.6465223663172602, 0.6447308976852341, 0.6103696700523666, 0.5449956515168628, 0.45985250072546185, 0.45342393008475523]","[22, 12, 9, 24, 7, 27, 23, 8, 6, 18]","[-1.0770820835640313, -0.8174643486942164, -0.6377403371771239, -0.5562573908964599, -0.5361241453479466, -0.5324805276228041, -0.46712655265442826, -0.4537284402534671, -0.44337775042342176, -0.35102378973919907]",9.117982737097371,-9.455489602657202,55,[8],[-1.1303921924688332],-0.2314862213834601,"[8, 11, 6, 12, 17, 1, 4, 20, 22, 14]","[0.9138969149108827, 0.8459117346606068, 0.7638647129133345, 0.6938044128394338, 0.6348044253025892, 0.6171078354695214, 0.5945836139161625, 0.5890841424471074, 0.5729122221643305, 0.5325197781794596]","[8, 21, 11, 9, 23, 7, 5, 6, 0, 25]","[-1.1303921924688332, -0.9059210836823913, -0.729174862301454, -0.6351770331387437, -0.5969949622979749, -0.5674063896791431, -0.5338809401525626, -0.47742979048024625, -0.4718168619597647, -0.4563075005338235]",9.993445731524329,-9.892351702609702,55,"[9, 24]","[-0.8427756240520167, -0.7706799884636781]",-0.5119509547702844,"[6, 9, 5, 18, 1, 14, 10, 20, 3, 2]","[0.7677610060814107, 0.6675683805549553, 0.6440595649858641, 0.5851897713192207, 0.5505377734508757, 0.4942769481630062, 0.4915943196933129, 0.44816576360626437, 0.44235095996920515, 0.43940505876456554]","[9, 24, 13, 6, 8, 28, 7, 26, 10, 25]","[-0.8427756240520167, -0.7706799884636781, -0.5284101065165941, -0.47313932937723163, -0.4702972373063362, -0.4486335795978714, -0.44670208235234654, -0.42508744998796605, -0.387771559951484, -0.36215100564712566]",8.098360602032576,-8.199865259777987
52,27,27,"[2, 10]","[-0.6684270276809201, -0.5519733370973356]",-0.442001767323994,"[1, 3, 2, 12, 9, 11, 6, 8, 5, 7]","[0.729797723145389, 0.5955192004327156, 0.43273110392537334, 0.40009654853042875, 0.317023880772924, 0.27121736044328987, 0.19941765570030467, 0.16186461621168785, 0.15797485890224444, 0.1552331248078033]","[2, 10, 3, 5, 1, 7, 8, 12, 9, 6]","[-0.6684270276809201, -0.5519733370973356, -0.4940277583463074, -0.43932582160282574, -0.37151533596959646, -0.28455456644517363, -0.20528282734111422, -0.14392989157209962, -0.11847977974580488, -0.1116775255933873]",3.820306241284681,-3.598704838738943,27,[1],[-0.715668701451153],-0.05901683146899461,"[2, 6, 4, 9, 13, 1, 12, 10, 8, 3]","[0.7410949317668397, 0.441643083562785, 0.4141969084057538, 0.29012252925423654, 0.2610267435481331, 0.2373588592858579, 0.22114564783148216, 0.21858231756287982, 0.14611026279981798, 0.12059375736398796]","[1, 5, 9, 11, 12, 7, 0, 6, 2, 10]","[-0.715668701451153, -0.45699504578261396, -0.36516898441643875, -0.2799964088499287, -0.27771467096243174, -0.2238617309981583, -0.15917832988159925, -0.10952209081001371, -0.09814416284347441, -0.09807605970808414]",3.2572297229838894,-2.9138815929660478,27,"[1, 9]","[-0.5426753094153434, -0.31357850100986095]",-0.2396659196255858,"[2, 4, 5, 10, 13, 12, 7, 9, 3, 8]","[0.5708705272566483, 0.4345588068276845, 0.3430421432522264, 0.23056169030646823, 0.22163074914486314, 0.20611622313296815, 0.10422669699129399, 0.10267845898733127, 0.09719471663950746, 0.08969740698641676]","[1, 9, 4, 12, 7, 11, 10, 2, 0, 6]","[-0.5426753094153434, -0.31357850100986095, -0.27737861348728465, -0.16061630598379467, -0.1454063243647373, -0.13718265484394204, -0.13536514915053996, -0.12454974842625673, -0.10313153712849309, -0.07870206234314545]",2.546728951088984,-2.1633168418886024
53,64,64,[],[],-0.9306685661233534,"[10, 27, 25, 3, 1, 8, 18, 9, 16, 6]","[1.5961315221982229, 1.114265306532802, 0.96863150126936, 0.8832081144329511, 0.8714560435522155, 0.8518182585422001, 0.8348363654152388, 0.5126075976585952, 0.4552413618258496, 0.40560738672887187]","[2, 30, 14, 32, 17, 19, 18, 29, 10, 27]","[-0.9932863885540871, -0.8761171250758357, -0.7161854540977259, -0.7093601077723779, -0.6114772592874703, -0.4888018087908935, -0.44115995129301044, -0.4127418762064859, -0.40351475535647696, -0.3973576544004742]",12.954646427461647,-11.023977861338293,64,[],[],-1.3172322270300576,"[9, 30, 28, 27, 8, 2, 3, 5, 25, 10]","[1.585456738795291, 1.3744321238180441, 1.2508825002293045, 1.1657634067981995, 1.046117235623777, 0.9754274745378966, 0.8513133871063223, 0.6110358918979767, 0.5432812312321396, 0.5279820452404108]","[30, 15, 9, 14, 3, 10, 1, 25, 28, 29]","[-1.6584115441005924, -1.2734734303664865, -0.9877314974950354, -0.9491440437877574, -0.6944716059635687, -0.6725329455231954, -0.619862828823475, -0.5548577028473226, -0.5209841597827731, -0.5118222320119219]",15.482782641480249,-13.165550414450191,64,[],[],-0.7741253453470236,"[31, 29, 9, 1, 28, 8, 2, 4, 30, 12]","[1.370931895197516, 1.1645855856084866, 1.1427641149339711, 0.7776684659064034, 0.6688056333071158, 0.633635353678009, 0.615700650947511, 0.5686225610851063, 0.5475100282990885, 0.5302206453732079]","[29, 17, 9, 16, 18, 6, 8, 4, 24, 3]","[-1.3558044040061668, -1.1755490901517514, -0.8087338237673384, -0.7634440857505151, -0.688535164087081, -0.5195489915965325, -0.5177978636149919, -0.49884064056010224, -0.4986959507248773, -0.48642397497888573]",13.250002791097822,-11.475877445750799
54,20,0,-1,-1,0.0,[],[],[],[],0.0,0.0,0,-1,-1,0.0,[],[],[],[],0.0,0.0,0,-1,-1,0.0,[],[],[],[],0.0,0.0
55,186,0,-1,-1,0.0,[],[],[],[],0.0,0.0,0,-1,-1,0.0,[],[],[],[],0.0,0.0,0,-1,-1,0.0,[],[],[],[],0.0,0.0
56,105,105,[17],[-1.2848050697999602],-1.2209284662648108,"[14, 37, 46, 34, 13, 32, 12, 36, 45, 6]","[1.5299067441776686, 1.5103395446190715, 1.4868368886245427, 1.4367427108911452, 1.2034033294450268, 0.9710449023699452, 0.9434680024497922, 0.913485941008133, 0.8801589006684417, 0.8765565374573259]","[17, 36, 2, 15, 31, 13, 39, 11, 10, 34]","[-1.2848050697999602, -1.0897863140395465, -1.0581719429173029, -1.0537632296707782, -0.9813671433840657, -0.8532908338918126, -0.8182054043683861, -0.8067138246665048, -0.7619819220060662, -0.756951707370803]",25.51444418994558,-24.578320793480728,105,"[14, 20]","[-0.5000888459005114, -0.4495750368803147]",-0.35119392248067766,"[32, 43, 35, 34, 12, 36, 26, 14, 39, 5]","[0.4859965160594552, 0.4768351619673358, 0.45776992316713344, 0.4201844145717425, 0.39261383809786565, 0.34350533390857274, 0.33082128366097274, 0.3213997396624592, 0.32114096749912246, 0.31333919300835594]","[14, 20, 32, 45, 18, 24, 38, 3, 35, 33]","[-0.5000888459005114, -0.4495750368803147, -0.4009874962837944, -0.3848323399627514, -0.3802678666752111, -0.377454139810971, -0.36325951448415494, -0.3377249800899922, -0.3305468801469325, -0.31273831881281433]",9.673977095378497,-9.272447055678645,105,"[14, 20]","[-0.5000888459005114, -0.4495750368803147]",-0.35119392248067766,"[32, 43, 35, 34, 12, 36, 26, 14, 39, 5]","[0.4859965160594552, 0.4768351619673358, 0.45776992316713344, 0.4201844145717425, 0.39261383809786565, 0.34350533390857274, 0.33082128366097274, 0.3213997396624592, 0.32114096749912246, 0.31333919300835594]","[14, 20, 32, 45, 18, 24, 38, 3, 35, 33]","[-0.5000888459005114, -0.4495750368803147, -0.4009874962837944, -0.3848323399627514, -0.3802678666752111, -0.377454139810971, -0.36325951448415494, -0.3377249800899922, -0.3305468801469325, -0.31273831881281433]",9.673977095378497,-9.272447055678645
57,153,153,[24],[-2.2838257902369046],-2.1013207006567294,"[1, 46, 66, 42, 33, 67, 8, 21, 12, 20]","[1.5596145130655927, 1.3978016627041672, 1.2879855187308975, 1.2785107424456255, 1.257953763649889, 1.2389098992223182, 1.2328198276722193, 1.1783728618386997, 1.1730233476741294, 1.1557999010521922]","[24, 29, 2, 64, 62, 68, 35, 54, 52, 48]","[-2.2838257902369046, -1.9044107009928575, -1.4845045878828638, -1.4422431952654708, -1.39544035120127, -1.3558650723591053, -1.2560718723157445, -1.1818900347873962, -1.1721784891669342, -1.1708552765347346]",45.01956076390628,-44.20206585348645,153,"[76, 30]","[-1.8671145582528597, -1.7815253564067417]",-1.2040654542412994,"[9, 59, 33, 67, 25, 48, 1, 6, 11, 52]","[2.7112913226890507, 1.9436481310396643, 1.847326149304474, 1.6825652636025579, 1.613149521593685, 1.5803272505347405, 1.572561837343483, 1.4391551863819891, 1.4133981325987541, 1.3627350451770348]","[76, 30, 70, 67, 15, 58, 36, 50, 2, 31]","[-1.8671145582528597, -1.7815253564067417, -1.6929898798733667, -1.6556292541959734, -1.5666354767853274, -1.413961726995422, -1.352249296460508, -1.3380530796755772, -1.290140841558965, -1.2856271759013203]",52.20449894026882,-53.64907340068712,153,"[27, 64]","[-1.8692563293226903, -1.5649198486319482]",-1.537858135040599,"[11, 7, 53, 61, 36, 1, 69, 28, 50, 20]","[1.9994651433838724, 1.5001406587526736, 1.4888401879099054, 1.4206781504967365, 1.4177700551152712, 1.3483291288170278, 1.3030277104515997, 1.2934757777976484, 1.2251969571596713, 0.9537318634180795]","[27, 64, 66, 72, 46, 56, 12, 61, 33, 48]","[-1.8692563293226903, -1.5649198486319482, -1.5149859308695621, -1.4123835088204808, -1.2798349727632095, -1.1632035721122187, -1.1623340562591906, -1.1109527608559708, -1.085719287243972, -1.0679680327705547]",40.70926311246883,-41.60558115538287
58,381,381,[140],[-4.859608299540046],-4.669721085708577,"[181, 35, 36, 65, 105, 9, 110, 55, 15, 146]","[3.945925663738898, 3.5440316502858753, 2.9679766237926666, 2.732834041172917, 2.6834493632876386, 2.506875429707436, 2.4856711855263387, 2.311565396307691, 2.260863933094509, 2.255555843722593]","[140, 138, 76, 167, 36, 118, 95, 51, 115, 46]","[-4.859608299540046, -2.8291577040676783, -2.5078577555967616, -2.4065832597089036, -2.277189623340032, -2.191580547278849, -2.117581751057829, -2.091893689285433, -2.091792083283299, -2.0835498786888476]",173.01597067225,-172.20585788608147,381,[125],[-1.3739604737424997],-0.9405184023316338,"[193, 39, 104, 163, 173, 41, 145, 53, 66, 80]","[1.493062274765761, 1.1599731293071645, 1.0746339639883749, 1.0729804059460555, 0.8810989327747075, 0.8717407040014308, 0.8701737786605594, 0.8554894307567541, 0.8534018549000921, 0.8409603943263223]","[125, 11, 127, 8, 68, 28, 170, 94, 80, 148]","[-1.3739604737424997, -1.1656085500995286, -1.1412657911748436, -1.066368976321395, -0.949819587126477, -0.9376150183220651, -0.8927347849917957, -0.8925071990567008, -0.8827507171831587, -0.8642466087420598]",66.03197718222633,-65.4654192536372,381,[134],[-1.1262173623556582],-0.648707276003454,"[188, 37, 98, 156, 38, 16, 167, 183, 88, 77]","[1.225512137660684, 1.166741009793643, 1.0596758063518141, 1.027391912513744, 0.9293256524958685, 0.836088018821514, 0.8027790833236589, 0.7941584931098613, 0.784841573249495, 0.751255167948093]","[134, 133, 72, 12, 155, 174, 46, 100, 57, 126]","[-1.1262173623556582, -1.0535411749714758, -0.9783086774122224, -0.9512115838445919, -0.8723650435368826, -0.8702528396993874, -0.783380407635327, -0.7662738804498455, -0.7470519498882906, -0.7363666917418029]",61.10119081121918,-60.57870089757139
59,207,0,-1,-1,0.0,[],[],[],[],0.0,0.0,0,-1,-1,0.0,[],[],[],[],0.0,0.0,0,-1,-1,0.0,[],[],[],[],0.0,0.0
60,20,20,"[1, 3, 4, 7, 0, 6]","[-0.29372795890191317, -0.26418449611703004, -0.14704305142465665, -0.14262216140000486, -0.13985192772953448, -0.0971471576073865]",-0.00953829973890681,"[2, 10, 4, 6, 8, 9, 3, 0, 7, 5]","[0.3446720092565818, 0.26832365911745315, 0.1899444346654195, 0.11137646397764833, 0.08146451807256268, 0.05562415893218457, 0.037555426891368586, 0.03410643100580781, 0.02780588459118941, 0.020893959209677553]","[1, 3, 4, 7, 0, 6, 2, 5, 8]","[-0.29372795890191317, -0.26418449611703004, -0.14704305142465665, -0.14262216140000486, -0.13985192772953448, -0.0971471576073865, -0.06554219003013673, -0.05316051539661115, -0.0478328906451468]",1.1760738958108015,-1.2511123492524203,20,"[1, 3, 4, 7, 0, 6]","[-0.29372795890191317, -0.26418449611703004, -0.14704305142465665, -0.14262216140000486, -0.13985192772953448, -0.0971471576073865]",-0.00953829973890681,"[2, 10, 4, 6, 8, 9, 3, 0, 7, 5]","[0.3446720092565818, 0.26832365911745315, 0.1899444346654195, 0.11137646397764833, 0.08146451807256268, 0.05562415893218457, 0.037555426891368586, 0.03410643100580781, 0.02780588459118941, 0.020893959209677553]","[1, 3, 4, 7, 0, 6, 2, 5, 8]","[-0.29372795890191317, -0.26418449611703004, -0.14704305142465665, -0.14262216140000486, -0.13985192772953448, -0.0971471576073865, -0.06554219003013673, -0.05316051539661115, -0.0478328906451468]",1.1760738958108015,-1.2511123492524203,20,"[1, 3, 4, 7, 0, 6]","[-0.29372795890191317, -0.26418449611703004, -0.14704305142465665, -0.14262216140000486, -0.13985192772953448, -0.0971471576073865]",-0.00953829973890681,"[2, 10, 4, 6, 8, 9, 3, 0, 7, 5]","[0.3446720092565818, 0.26832365911745315, 0.1899444346654195, 0.11137646397764833, 0.08146451807256268, 0.05562415893218457, 0.037555426891368586, 0.03410643100580781, 0.02780588459118941, 0.020893959209677553]","[1, 3, 4, 7, 0, 6, 2, 5, 8]","[-0.29372795890191317, -0.26418449611703004, -0.14704305142465665, -0.14262216140000486, -0.13985192772953448, -0.0971471576073865, -0.06554219003013673, -0.05316051539661115, -0.0478328906451468]",1.1760738958108015,-1.2511123492524203
61,231,231,[75],[-2.548784955675438],-0.8895717792599322,"[49, 70, 18, 50, 27, 111, 79, 60, 51, 83]","[2.096051807750007, 2.052015023824702, 2.036928969217599, 1.902646370327, 1.8927114261354572, 1.8755610852256492, 1.8366064971207303, 1.6893007325313754, 1.5920053330874346, 1.540991503822957]","[75, 36, 19, 84, 18, 7, 63, 82, 86, 40]","[-2.548784955675438, -2.1556202947205443, -1.9166845251052094, -1.8854027411913765, -1.8200398746279076, -1.780964829584003, -1.7680096155017986, -1.7535947607777815, -1.6312134200931636, -1.521740429044178]",80.0931215555917,-80.7523347320072,231,[73],[-2.2734693821876677],-0.7214394428048196,"[20, 121, 55, 66, 34, 8, 118, 82, 117, 46]","[1.6468522673054315, 1.4975220298793863, 1.421499031988898, 1.2783279324276056, 1.2350514726622928, 1.2086446911900928, 1.205610190985786, 1.1938482462850135, 1.1909159541463303, 1.1757298669395844]","[73, 35, 78, 75, 107, 62, 48, 19, 31, 0]","[-2.2734693821876677, -1.7708783047601844, -1.7538029557041939, -1.7250331755547115, -1.6196941644352678, -1.4959733351253914, -1.4260837303551057, -1.4094896756995168, -1.3587865835460309, -1.3262414325258562]",66.49762206492998,-67.04965200431283,231,[78],[-1.7232409614582387],-0.1591221585484639,"[22, 54, 118, 90, 34, 10, 78, 87, 44, 15]","[1.4231719888672287, 1.376376459222224, 1.3263080337638484, 1.1895808061704911, 1.1773669887891784, 1.1592152016550439, 1.1542195722175408, 1.1015149255793066, 1.0764711044837252, 1.0740015885696765]","[78, 82, 68, 37, 79, 0, 110, 51, 66, 34]","[-1.7232409614582387, -1.7105965677758779, -1.4943467307972333, -1.4707652413560117, -1.2812030980279225, -1.2546110570380897, -1.218312188267521, -1.2009433499971163, -1.1834499773384461, -1.1643645240492613]",57.61800745816776,-58.182126261077535
