user_id,num_interactions,top5_has_weights,top5_minCFset_index,top5_minCFset_weight,top5_gap,top5_top10pos_index,top5_top10pos_weights,top5_top10neg_index,top5_top10neg_weights,top5_sum_pos,top5_sum_neg,top10_has_weights,top10_minCFset_index,top10_minCFset_weight,top10_gap,top10_top10pos_index,top10_top10pos_weights,top10_top10neg_index,top10_top10neg_weights,top10_sum_pos,top10_sum_neg,top20_has_weights,top20_minCFset_index,top20_minCFset_weight,top20_gap,top20_top10pos_index,top20_top10pos_weights,top20_top10neg_index,top20_top10neg_weights,top20_sum_pos,top20_sum_neg
100,66,66,"[11, 17, 10, 23, 5, 6, 26, 7, 22, 4, 3, 13, 21, 27, 15, 24, 2, 9, 12, 1, 0, 16, 8, 19, 20, 25, 18, 14]","[-0.03504696061213491, -0.026529693685385533, -0.02221507833852798, -0.01877878240426076, -0.017225492919797657, -0.01711573497362285, -0.01695578642634797, -0.01690606129226332, -0.016090251300083673, -0.014399021735791493, -0.013702210832334725, -0.013386884289697736, -0.013335799023697675, -0.012816744861873185, -0.012705413681525553, -0.010809349411035389, -0.008878773370294683, -0.008785570953472002, -0.006690954237706103, -0.006276053285603719, -0.006157642796496439, -0.005498720169312623, -0.0054076178827168345, -0.0035621445916720006, -0.0020877300203486215, -0.0018837206902827899, -0.0008717790293530387, -0.0005070423642389135]",0.653911675770962,"[5, 11, 1, 37, 19, 29, 6, 3, 31, 18]","[0.021642263437037235, 0.016639468552643435, 0.0156833231772922, 0.015321689532917786, 0.015131729657298977, 0.01508907330855712, 0.01504364013708961, 0.014497321474386097, 0.014039023249311182, 0.014028395371608639]","[11, 17, 10, 23, 5, 6, 26, 7, 22, 4]","[-0.03504696061213491, -0.026529693685385533, -0.02221507833852798, -0.01877878240426076, -0.017225492919797657, -0.01711573497362285, -0.01695578642634797, -0.01690606129226332, -0.016090251300083673, -0.014399021735791493]",0.3460883242290382,-0.33462701517987825,66,"[11, 17, 10, 23, 5, 6, 26, 7, 22, 4, 3, 13, 21, 27, 15, 24, 2, 9, 12, 1, 0, 16, 8, 19, 20, 25, 18, 14]","[-0.03504696061213491, -0.026529693685385533, -0.02221507833852798, -0.01877878240426076, -0.017225492919797657, -0.01711573497362285, -0.01695578642634797, -0.01690606129226332, -0.016090251300083673, -0.014399021735791493, -0.013702210832334725, -0.013386884289697736, -0.013335799023697675, -0.012816744861873185, -0.012705413681525553, -0.010809349411035389, -0.008878773370294683, -0.008785570953472002, -0.006690954237706103, -0.006276053285603719, -0.006157642796496439, -0.005498720169312623, -0.0054076178827168345, -0.0035621445916720006, -0.0020877300203486215, -0.0018837206902827899, -0.0008717790293530387, -0.0005070423642389135]",0.653911675770962,"[5, 11, 1, 37, 19, 29, 6, 3, 31, 18]","[0.021642263437037235, 0.016639468552643435, 0.0156833231772922, 0.015321689532917786, 0.015131729657298977, 0.01508907330855712, 0.01504364013708961, 0.014497321474386097, 0.014039023249311182, 0.014028395371608639]","[11, 17, 10, 23, 5, 6, 26, 7, 22, 4]","[-0.03504696061213491, -0.026529693685385533, -0.02221507833852798, -0.01877878240426076, -0.017225492919797657, -0.01711573497362285, -0.01695578642634797, -0.01690606129226332, -0.016090251300083673, -0.014399021735791493]",0.3460883242290382,-0.33462701517987825,66,"[11, 17, 10, 23, 5, 6, 26, 7, 22, 4, 3, 13, 21, 27, 15, 24, 2, 9, 12, 1, 0, 16, 8, 19, 20, 25, 18, 14]","[-0.03504696061213491, -0.026529693685385533, -0.02221507833852798, -0.01877878240426076, -0.017225492919797657, -0.01711573497362285, -0.01695578642634797, -0.01690606129226332, -0.016090251300083673, -0.014399021735791493, -0.013702210832334725, -0.013386884289697736, -0.013335799023697675, -0.012816744861873185, -0.012705413681525553, -0.010809349411035389, -0.008878773370294683, -0.008785570953472002, -0.006690954237706103, -0.006276053285603719, -0.006157642796496439, -0.005498720169312623, -0.0054076178827168345, -0.0035621445916720006, -0.0020877300203486215, -0.0018837206902827899, -0.0008717790293530387, -0.0005070423642389135]",0.653911675770962,"[5, 11, 1, 37, 19, 29, 6, 3, 31, 18]","[0.021642263437037235, 0.016639468552643435, 0.0156833231772922, 0.015321689532917786, 0.015131729657298977, 0.01508907330855712, 0.01504364013708961, 0.014497321474386097, 0.014039023249311182, 0.014028395371608639]","[11, 17, 10, 23, 5, 6, 26, 7, 22, 4]","[-0.03504696061213491, -0.026529693685385533, -0.02221507833852798, -0.01877878240426076, -0.017225492919797657, -0.01711573497362285, -0.01695578642634797, -0.01690606129226332, -0.016090251300083673, -0.014399021735791493]",0.3460883242290382,-0.33462701517987825
101,215,215,[11],[-1.5172526367412014],-0.41541368826140634,"[95, 2, 35, 83, 14, 17, 10, 39, 57, 91]","[1.5848584464170434, 1.4451427493941995, 1.4328738056369963, 1.2638331889810162, 1.0604460513541107, 1.055120977250899, 1.008400149442513, 0.9881622729134137, 0.9264597421391308, 0.9117947925643721]","[11, 73, 85, 13, 7, 2, 33, 72, 93, 89]","[-1.5172526367412014, -1.4641536372526411, -1.3191601516184654, -1.250415319690949, -1.1054928660777077, -1.0688170567295963, -1.0570213863355524, -1.0525763144376923, -0.9753034383350124, -0.9715466776782397]",46.11008302688927,-46.211921975369066,215,[73],[-4.187881554946616],-2.91060160340942,"[43, 3, 39, 76, 75, 44, 13, 42, 78, 98]","[3.926881433449425, 3.1417442093154535, 2.9402280689465106, 2.904917902082468, 2.8483663717262067, 2.744719254087044, 2.714702014826456, 2.6921290082326665, 2.6518206087288205, 2.6231076481742415]","[73, 77, 60, 2, 104, 23, 0, 42, 52, 30]","[-4.187881554946616, -3.0867457142584542, -2.8881999098665956, -2.744999622419888, -2.698324049608301, -2.680899458421969, -2.662425265771926, -2.6556146077587046, -2.6270896267924715, -2.5505097955681384]",122.05139444367462,-122.32867439521182,215,[71],[-3.00400374444764],-1.9428975044897885,"[44, 84, 77, 43, 78, 3, 13, 38, 90, 47]","[2.664161302084266, 2.6446576154203347, 2.5432799809763567, 2.466072766690281, 2.4521924099824886, 2.4013245854757153, 2.282979702159354, 2.2330060739719624, 2.227537647450832, 2.195950693983331]","[71, 75, 0, 2, 39, 11, 57, 100, 38, 6]","[-3.00400374444764, -2.815262130038473, -2.5631875738687993, -2.514885009732491, -2.44194795251971, -2.4303184416739976, -2.3348334566186084, -2.107872037601006, -2.0408730912730326, -2.0373229066166707]",100.10137736827252,-100.16248360823037
102,28,0,-1,-1,0.0,[],[],[],[],0.0,0.0,0,-1,-1,0.0,[],[],[],[],0.0,0.0,0,-1,-1,0.0,[],[],[],[],0.0,0.0
103,110,110,[10],[-1.5262819549032651],-0.8018194154800933,"[38, 34, 54, 5, 36, 21, 29, 24, 50, 0]","[1.7473948312021172, 1.6140417431767429, 1.3364498356087464, 1.2054816080077855, 1.103844280469254, 1.0923412325532469, 0.9175735022100332, 0.9015611166513698, 0.8627484727625347, 0.8592697944076353]","[10, 40, 12, 6, 29, 21, 47, 42, 52, 7]","[-1.5262819549032651, -1.4108199777218902, -1.3984099934170937, -1.2223421863657067, -1.201488630039917, -1.2012019714745275, -1.0355657999993757, -1.0229117784173187, -0.9614370551071425, -0.9175575740880555]",29.87296022910816,-29.59742276853133,110,"[10, 18]","[-0.7377448377569207, -0.7257569425973579]",-0.7030570124600418,"[41, 37, 44, 55, 5, 54, 27, 39, 23, 20]","[0.9902929374855645, 0.8616861699858492, 0.7447526674003708, 0.6783398571584944, 0.5945190714153296, 0.5313094556133352, 0.4948907330619105, 0.4665854395814486, 0.45838396709177465, 0.45634373251692095]","[10, 18, 37, 26, 5, 11, 45, 52, 6, 14]","[-0.7377448377569207, -0.7257569425973579, -0.7161808508528015, -0.7000743745056267, -0.6290838608757544, -0.5899235787338291, -0.5467310875196554, -0.5426896181721838, -0.4736242088593768, -0.4712220086247626]",15.087284173013948,-14.847728940908185,110,"[10, 18]","[-0.7377448377569207, -0.7257569425973579]",-0.7030570124600418,"[41, 37, 44, 55, 5, 54, 27, 39, 23, 20]","[0.9902929374855645, 0.8616861699858492, 0.7447526674003708, 0.6783398571584944, 0.5945190714153296, 0.5313094556133352, 0.4948907330619105, 0.4665854395814486, 0.45838396709177465, 0.45634373251692095]","[10, 18, 37, 26, 5, 11, 45, 52, 6, 14]","[-0.7377448377569207, -0.7257569425973579, -0.7161808508528015, -0.7000743745056267, -0.6290838608757544, -0.5899235787338291, -0.5467310875196554, -0.5426896181721838, -0.4736242088593768, -0.4712220086247626]",15.087284173013948,-14.847728940908185
104,22,0,-1,-1,0.0,[],[],[],[],0.0,0.0,0,-1,-1,0.0,[],[],[],[],0.0,0.0,0,-1,-1,0.0,[],[],[],[],0.0,0.0
105,63,63,"[8, 1, 18, 19, 17, 7, 20]","[-0.22890453187096763, -0.12404055214619, -0.12389326632097712, -0.07876793480264253, -0.07559013873512298, -0.07257295271887411, -0.07055993937832283]",-0.050351638071100824,"[25, 26, 13, 1, 24, 27, 6, 21, 16, 9]","[0.13062754395595, 0.1163123706802934, 0.10969408789757679, 0.09613082583863318, 0.08060622581119775, 0.07973538247596086, 0.07819142184188228, 0.07784718464325827, 0.07774710038639343, 0.07105803856953279]","[8, 1, 18, 19, 17, 7, 20, 26, 10, 11]","[-0.22890453187096763, -0.12404055214619, -0.12389326632097712, -0.07876793480264253, -0.07559013873512298, -0.07257295271887411, -0.07055993937832283, -0.06548855325662135, -0.06500147831403788, -0.061220776698685475]",1.7571257017949968,-1.4811033796969932,63,"[8, 1, 18, 19, 17, 7, 20]","[-0.22890453187096763, -0.12404055214619, -0.12389326632097712, -0.07876793480264253, -0.07559013873512298, -0.07257295271887411, -0.07055993937832283]",-0.050351638071100824,"[25, 26, 13, 1, 24, 27, 6, 21, 16, 9]","[0.13062754395595, 0.1163123706802934, 0.10969408789757679, 0.09613082583863318, 0.08060622581119775, 0.07973538247596086, 0.07819142184188228, 0.07784718464325827, 0.07774710038639343, 0.07105803856953279]","[8, 1, 18, 19, 17, 7, 20, 26, 10, 11]","[-0.22890453187096763, -0.12404055214619, -0.12389326632097712, -0.07876793480264253, -0.07559013873512298, -0.07257295271887411, -0.07055993937832283, -0.06548855325662135, -0.06500147831403788, -0.061220776698685475]",1.7571257017949968,-1.4811033796969932,63,"[8, 1, 18, 19, 17, 7, 20]","[-0.22890453187096763, -0.12404055214619, -0.12389326632097712, -0.07876793480264253, -0.07559013873512298, -0.07257295271887411, -0.07055993937832283]",-0.050351638071100824,"[25, 26, 13, 1, 24, 27, 6, 21, 16, 9]","[0.13062754395595, 0.1163123706802934, 0.10969408789757679, 0.09613082583863318, 0.08060622581119775, 0.07973538247596086, 0.07819142184188228, 0.07784718464325827, 0.07774710038639343, 0.07105803856953279]","[8, 1, 18, 19, 17, 7, 20, 26, 10, 11]","[-0.22890453187096763, -0.12404055214619, -0.12389326632097712, -0.07876793480264253, -0.07559013873512298, -0.07257295271887411, -0.07055993937832283, -0.06548855325662135, -0.06500147831403788, -0.061220776698685475]",1.7571257017949968,-1.4811033796969932
106,21,0,-1,-1,0.0,[],[],[],[],0.0,0.0,0,-1,-1,0.0,[],[],[],[],0.0,0.0,0,-1,-1,0.0,[],[],[],[],0.0,0.0
107,32,32,"[3, 4, 15, 10, 6, 5, 12, 1, 16, 8, 9, 7, 0, 13, 11, 14, 2]","[-0.127192619889126, -0.11506171173475471, -0.11023955550356092, -0.08449537967258934, -0.05924886744875255, -0.05185935760481986, -0.05135536893400753, -0.048028369853594106, -0.04636473777347445, -0.040366258263948934, -0.03902519043543195, -0.02995517112126429, -0.02824841712062131, -0.023760027917851305, -0.02070369279265922, -0.0175920662667818, -0.014450127747729816]",0.10323405809594323,"[7, 0, 2, 6, 10, 11, 14, 3, 9, 4]","[0.16864217831946593, 0.10454840091134429, 0.09714567091618352, 0.09067379112511406, 0.09016546406547496, 0.07566643708634258, 0.06432482306027702, 0.05972935267408166, 0.033502334060743016, 0.029785789778986747]","[3, 4, 15, 10, 6, 5, 12, 1, 16, 8]","[-0.127192619889126, -0.11506171173475471, -0.11023955550356092, -0.08449537967258934, -0.05924886744875255, -0.05185935760481986, -0.05135536893400753, -0.048028369853594106, -0.04636473777347445, -0.040366258263948934]",0.8967659419040567,-0.9079469200809681,32,"[3, 4, 15, 10, 6, 5, 12, 1, 16, 8, 9, 7, 0, 13, 11, 14, 2]","[-0.127192619889126, -0.11506171173475471, -0.11023955550356092, -0.08449537967258934, -0.05924886744875255, -0.05185935760481986, -0.05135536893400753, -0.048028369853594106, -0.04636473777347445, -0.040366258263948934, -0.03902519043543195, -0.02995517112126429, -0.02824841712062131, -0.023760027917851305, -0.02070369279265922, -0.0175920662667818, -0.014450127747729816]",0.10323405809594323,"[7, 0, 2, 6, 10, 11, 14, 3, 9, 4]","[0.16864217831946593, 0.10454840091134429, 0.09714567091618352, 0.09067379112511406, 0.09016546406547496, 0.07566643708634258, 0.06432482306027702, 0.05972935267408166, 0.033502334060743016, 0.029785789778986747]","[3, 4, 15, 10, 6, 5, 12, 1, 16, 8]","[-0.127192619889126, -0.11506171173475471, -0.11023955550356092, -0.08449537967258934, -0.05924886744875255, -0.05185935760481986, -0.05135536893400753, -0.048028369853594106, -0.04636473777347445, -0.040366258263948934]",0.8967659419040567,-0.9079469200809681,32,"[3, 4, 15, 10, 6, 5, 12, 1, 16, 8, 9, 7, 0, 13, 11, 14, 2]","[-0.127192619889126, -0.11506171173475471, -0.11023955550356092, -0.08449537967258934, -0.05924886744875255, -0.05185935760481986, -0.05135536893400753, -0.048028369853594106, -0.04636473777347445, -0.040366258263948934, -0.03902519043543195, -0.02995517112126429, -0.02824841712062131, -0.023760027917851305, -0.02070369279265922, -0.0175920662667818, -0.014450127747729816]",0.10323405809594323,"[7, 0, 2, 6, 10, 11, 14, 3, 9, 4]","[0.16864217831946593, 0.10454840091134429, 0.09714567091618352, 0.09067379112511406, 0.09016546406547496, 0.07566643708634258, 0.06432482306027702, 0.05972935267408166, 0.033502334060743016, 0.029785789778986747]","[3, 4, 15, 10, 6, 5, 12, 1, 16, 8]","[-0.127192619889126, -0.11506171173475471, -0.11023955550356092, -0.08449537967258934, -0.05924886744875255, -0.05185935760481986, -0.05135536893400753, -0.048028369853594106, -0.04636473777347445, -0.040366258263948934]",0.8967659419040567,-0.9079469200809681
108,233,0,-1,-1,0.0,[],[],[],[],0.0,0.0,0,-1,-1,0.0,[],[],[],[],0.0,0.0,0,-1,-1,0.0,[],[],[],[],0.0,0.0
109,132,0,-1,-1,0.0,[],[],[],[],0.0,0.0,0,-1,-1,0.0,[],[],[],[],0.0,0.0,0,-1,-1,0.0,[],[],[],[],0.0,0.0
110,23,23,"[6, 1, 4, 0, 3, 2, 5]","[-0.01979571242863401, -0.014364777205756803, -0.014308330166386295, -0.011352602002771592, -0.009003520315440636, -0.006249933058876323, -0.000790630828316067]",0.8930176004193703,"[2, 1, 11, 0, 9, 4, 13, 6, 10, 8]","[0.010600988358986813, 0.009432276870260482, 0.008920868212482239, 0.00848019857089252, 0.008249188114619865, 0.007534632214186143, 0.00740533916003577, 0.006950169593543425, 0.0068840786258654, 0.005511627550005097]","[6, 1, 4, 0, 3, 2, 5]","[-0.01979571242863401, -0.014364777205756803, -0.014308330166386295, -0.011352602002771592, -0.009003520315440636, -0.006249933058876323, -0.000790630828316067]",0.1069823995806297,-0.07586550600618172,23,"[6, 1, 4, 0, 3, 2, 5]","[-0.01979571242863401, -0.014364777205756803, -0.014308330166386295, -0.011352602002771592, -0.009003520315440636, -0.006249933058876323, -0.000790630828316067]",0.8930176004193703,"[2, 1, 11, 0, 9, 4, 13, 6, 10, 8]","[0.010600988358986813, 0.009432276870260482, 0.008920868212482239, 0.00848019857089252, 0.008249188114619865, 0.007534632214186143, 0.00740533916003577, 0.006950169593543425, 0.0068840786258654, 0.005511627550005097]","[6, 1, 4, 0, 3, 2, 5]","[-0.01979571242863401, -0.014364777205756803, -0.014308330166386295, -0.011352602002771592, -0.009003520315440636, -0.006249933058876323, -0.000790630828316067]",0.1069823995806297,-0.07586550600618172,23,"[6, 1, 4, 0, 3, 2, 5]","[-0.01979571242863401, -0.014364777205756803, -0.014308330166386295, -0.011352602002771592, -0.009003520315440636, -0.006249933058876323, -0.000790630828316067]",0.8930176004193703,"[2, 1, 11, 0, 9, 4, 13, 6, 10, 8]","[0.010600988358986813, 0.009432276870260482, 0.008920868212482239, 0.00848019857089252, 0.008249188114619865, 0.007534632214186143, 0.00740533916003577, 0.006950169593543425, 0.0068840786258654, 0.005511627550005097]","[6, 1, 4, 0, 3, 2, 5]","[-0.01979571242863401, -0.014364777205756803, -0.014308330166386295, -0.011352602002771592, -0.009003520315440636, -0.006249933058876323, -0.000790630828316067]",0.1069823995806297,-0.07586550600618172
111,45,45,"[19, 2, 6, 10, 17]","[-0.22203829204831363, -0.21802788796842895, -0.21311407754909792, -0.21032666442146158, -0.1951508755714798]",-0.08197182818016474,"[14, 8, 24, 3, 2, 11, 21, 15, 12, 1]","[0.2526611550688571, 0.22244327793215066, 0.22223404400229943, 0.19493393171785436, 0.16801350985062974, 0.16157498140821808, 0.1540716104557572, 0.15184425479416958, 0.12669463804834755, 0.11938450237428874]","[19, 2, 6, 10, 17, 12, 9, 5, 18, 13]","[-0.22203829204831363, -0.21802788796842895, -0.21311407754909792, -0.21032666442146158, -0.1951508755714798, -0.19015547328740845, -0.1864776712906242, -0.1862392538345536, -0.1818856301141874, -0.15417077682914782]",2.616547169531221,-2.593233138909838,45,"[6, 11, 20, 1, 13, 19, 10, 18]","[-0.14961291191262105, -0.14881351145313246, -0.14361250176623502, -0.13829625530712755, -0.13634628736680487, -0.1178721492971489, -0.1120270401788962, -0.10771831062302267]",-0.07663711025782549,"[12, 4, 23, 7, 9, 3, 21, 11, 20, 14]","[0.1682202473280913, 0.1347430160918182, 0.13299663811924275, 0.12194113619996497, 0.09984967278728327, 0.09814641626488409, 0.09386182677530346, 0.0828792174418068, 0.07957321689444175, 0.07649705425875944]","[6, 11, 20, 1, 13, 19, 10, 18, 2, 8]","[-0.14961291191262105, -0.14881351145313246, -0.14361250176623502, -0.13829625530712755, -0.13634628736680487, -0.1178721492971489, -0.1120270401788962, -0.10771831062302267, -0.09904250637844939, -0.09808335279219137]",1.6192354695065658,-1.596897327153729,45,"[6, 11, 20, 1, 13, 19, 10, 18]","[-0.14961291191262105, -0.14881351145313246, -0.14361250176623502, -0.13829625530712755, -0.13634628736680487, -0.1178721492971489, -0.1120270401788962, -0.10771831062302267]",-0.07663711025782549,"[12, 4, 23, 7, 9, 3, 21, 11, 20, 14]","[0.1682202473280913, 0.1347430160918182, 0.13299663811924275, 0.12194113619996497, 0.09984967278728327, 0.09814641626488409, 0.09386182677530346, 0.0828792174418068, 0.07957321689444175, 0.07649705425875944]","[6, 11, 20, 1, 13, 19, 10, 18, 2, 8]","[-0.14961291191262105, -0.14881351145313246, -0.14361250176623502, -0.13829625530712755, -0.13634628736680487, -0.1178721492971489, -0.1120270401788962, -0.10771831062302267, -0.09904250637844939, -0.09808335279219137]",1.6192354695065658,-1.596897327153729
112,50,50,"[18, 20, 21, 6, 8, 7, 1, 2, 17, 10, 9, 3, 14, 19, 16, 12, 0, 11, 5, 15, 4, 13]","[-0.08963123757453383, -0.08312022646694305, -0.08154026228080355, -0.08073957851804568, -0.07168675364951903, -0.04724687030886134, -0.043030539002780935, -0.04279047854669962, -0.03793556307848262, -0.034000676186072755, -0.03316258240050527, -0.03009023313742654, -0.02963395080620839, -0.021243379846786613, -0.0191646554595098, -0.013117228159402255, -0.00841789537560564, -0.007821720485988596, -0.006860210921289874, -0.004251042956626982, -0.001714312988529409, -0.0005153368300621199]",0.18214724440780494,"[25, 12, 2, 18, 16, 19, 21, 11, 7, 5]","[0.0835746874455584, 0.07475507225368982, 0.05733363094774869, 0.052777835892456416, 0.0516224198188175, 0.045789176607804974, 0.04445573759258363, 0.044308925524002694, 0.04303361175890956, 0.03514071339885175]","[18, 20, 21, 6, 8, 7, 1, 2, 17, 10]","[-0.08963123757453383, -0.08312022646694305, -0.08154026228080355, -0.08073957851804568, -0.07168675364951903, -0.04724687030886134, -0.043030539002780935, -0.04279047854669962, -0.03793556307848262, -0.034000676186072755]",0.817852755592195,-0.7877147349806839,50,"[18, 20, 21, 6, 8, 7, 1, 2, 17, 10, 9, 3, 14, 19, 16, 12, 0, 11, 5, 15, 4, 13]","[-0.08963123757453383, -0.08312022646694305, -0.08154026228080355, -0.08073957851804568, -0.07168675364951903, -0.04724687030886134, -0.043030539002780935, -0.04279047854669962, -0.03793556307848262, -0.034000676186072755, -0.03316258240050527, -0.03009023313742654, -0.02963395080620839, -0.021243379846786613, -0.0191646554595098, -0.013117228159402255, -0.00841789537560564, -0.007821720485988596, -0.006860210921289874, -0.004251042956626982, -0.001714312988529409, -0.0005153368300621199]",0.18214724440780494,"[25, 12, 2, 18, 16, 19, 21, 11, 7, 5]","[0.0835746874455584, 0.07475507225368982, 0.05733363094774869, 0.052777835892456416, 0.0516224198188175, 0.045789176607804974, 0.04445573759258363, 0.044308925524002694, 0.04303361175890956, 0.03514071339885175]","[18, 20, 21, 6, 8, 7, 1, 2, 17, 10]","[-0.08963123757453383, -0.08312022646694305, -0.08154026228080355, -0.08073957851804568, -0.07168675364951903, -0.04724687030886134, -0.043030539002780935, -0.04279047854669962, -0.03793556307848262, -0.034000676186072755]",0.817852755592195,-0.7877147349806839,50,"[18, 20, 21, 6, 8, 7, 1, 2, 17, 10, 9, 3, 14, 19, 16, 12, 0, 11, 5, 15, 4, 13]","[-0.08963123757453383, -0.08312022646694305, -0.08154026228080355, -0.08073957851804568, -0.07168675364951903, -0.04724687030886134, -0.043030539002780935, -0.04279047854669962, -0.03793556307848262, -0.034000676186072755, -0.03316258240050527, -0.03009023313742654, -0.02963395080620839, -0.021243379846786613, -0.0191646554595098, -0.013117228159402255, -0.00841789537560564, -0.007821720485988596, -0.006860210921289874, -0.004251042956626982, -0.001714312988529409, -0.0005153368300621199]",0.18214724440780494,"[25, 12, 2, 18, 16, 19, 21, 11, 7, 5]","[0.0835746874455584, 0.07475507225368982, 0.05733363094774869, 0.052777835892456416, 0.0516224198188175, 0.045789176607804974, 0.04445573759258363, 0.044308925524002694, 0.04303361175890956, 0.03514071339885175]","[18, 20, 21, 6, 8, 7, 1, 2, 17, 10]","[-0.08963123757453383, -0.08312022646694305, -0.08154026228080355, -0.08073957851804568, -0.07168675364951903, -0.04724687030886134, -0.043030539002780935, -0.04279047854669962, -0.03793556307848262, -0.034000676186072755]",0.817852755592195,-0.7877147349806839
113,47,47,"[19, 12, 4, 10, 8, 7]","[-0.21441564950901693, -0.19587818523614517, -0.16923345877619803, -0.16199735795161463, -0.1417197646629228, -0.13946827824706706]",-0.06451793638498979,"[18, 16, 21, 20, 4, 17, 2, 22, 9, 23]","[0.3178518968240925, 0.2693672271156641, 0.16199869448075607, 0.15516854854891687, 0.1467881011290288, 0.1271264333359199, 0.11713531976164418, 0.11316693032320396, 0.10917935653548749, 0.1056753285592402]","[19, 12, 4, 10, 8, 7, 15, 17, 13, 11]","[-0.21441564950901693, -0.19587818523614517, -0.16923345877619803, -0.16199735795161463, -0.1417197646629228, -0.13946827824706706, -0.11731453302220422, -0.10890672609382186, -0.10035728147538404, -0.09633880593763189]",2.0558373477529632,-2.014032105750938,47,"[19, 12, 4, 10, 8, 7]","[-0.21441564950901693, -0.19587818523614517, -0.16923345877619803, -0.16199735795161463, -0.1417197646629228, -0.13946827824706706]",-0.06451793638498979,"[18, 16, 21, 20, 4, 17, 2, 22, 9, 23]","[0.3178518968240925, 0.2693672271156641, 0.16199869448075607, 0.15516854854891687, 0.1467881011290288, 0.1271264333359199, 0.11713531976164418, 0.11316693032320396, 0.10917935653548749, 0.1056753285592402]","[19, 12, 4, 10, 8, 7, 15, 17, 13, 11]","[-0.21441564950901693, -0.19587818523614517, -0.16923345877619803, -0.16199735795161463, -0.1417197646629228, -0.13946827824706706, -0.11731453302220422, -0.10890672609382186, -0.10035728147538404, -0.09633880593763189]",2.0558373477529632,-2.014032105750938,47,"[19, 12, 4, 10, 8, 7]","[-0.21441564950901693, -0.19587818523614517, -0.16923345877619803, -0.16199735795161463, -0.1417197646629228, -0.13946827824706706]",-0.06451793638498979,"[18, 16, 21, 20, 4, 17, 2, 22, 9, 23]","[0.3178518968240925, 0.2693672271156641, 0.16199869448075607, 0.15516854854891687, 0.1467881011290288, 0.1271264333359199, 0.11713531976164418, 0.11316693032320396, 0.10917935653548749, 0.1056753285592402]","[19, 12, 4, 10, 8, 7, 15, 17, 13, 11]","[-0.21441564950901693, -0.19587818523614517, -0.16923345877619803, -0.16199735795161463, -0.1417197646629228, -0.13946827824706706, -0.11731453302220422, -0.10890672609382186, -0.10035728147538404, -0.09633880593763189]",2.0558373477529632,-2.014032105750938
114,91,0,-1,-1,0.0,[],[],[],[],0.0,0.0,0,-1,-1,0.0,[],[],[],[],0.0,0.0,0,-1,-1,0.0,[],[],[],[],0.0,0.0
115,142,0,-1,-1,0.0,[],[],[],[],0.0,0.0,0,-1,-1,0.0,[],[],[],[],0.0,0.0,142,[],[],-1.8117662433583988,"[1, 54, 19, 41, 49, 47, 33, 48, 43, 42]","[2.006529309306348, 1.9933677287415525, 1.9827595981329664, 1.7502236514418443, 1.7473798478583291, 1.6167380315187883, 1.5310741280106674, 1.5283267389372852, 1.498706156511718, 1.494503362325831]","[53, 40, 37, 42, 17, 47, 36, 12, 60, 24]","[-3.064397191088366, -2.158223575218824, -1.9883440657060807, -1.9134581720648882, -1.8186261230338043, -1.788569673547236, -1.7772992592095804, -1.6714112436079802, -1.6008568968816617, -1.5766091803099445]",58.9635698842886,-56.151803640930204
116,85,85,[7],[-1.5644708087072385],-0.8312219408059076,"[4, 26, 32, 9, 23, 35, 5, 41, 30, 3]","[1.6654074272805528, 1.5021960536328283, 1.2072154857012447, 1.1764129119875932, 1.1052174526801755, 0.9631413101147643, 0.8445600986365338, 0.8436465377680956, 0.833189216744761, 0.806176251518029]","[7, 3, 41, 33, 34, 2, 30, 38, 18, 21]","[-1.5644708087072385, -1.4093348216662138, -1.3171859561311083, -1.2578725631194352, -1.234561893869925, -1.1846154722550348, -1.0868199320922651, -0.9623907570778437, -0.8379584516201124, -0.8364018302102989]",24.44900077203938,-24.18224963994071,85,[39],[-1.7011137127099578],-0.7976249392367156,"[4, 10, 22, 1, 12, 28, 30, 41, 25, 33]","[2.0851933517286665, 1.9156773682355122, 1.572720418435168, 1.5626877802980812, 1.4984160664894421, 1.4004892295324813, 1.3026244659425796, 1.2732899241418467, 1.1007579455275958, 1.099279191722993]","[39, 2, 42, 1, 8, 35, 23, 4, 12, 31]","[-1.7011137127099578, -1.6266861947503424, -1.551501278546601, -1.5458191355142212, -1.504792439102266, -1.3973106673505284, -1.3302366072424425, -1.303726310682351, -1.2421634001355004, -1.2327169908306685]",30.281270404115048,-30.18475917758829,85,[39],[-1.4932487815325044],-0.5810147760282018,"[4, 9, 1, 29, 10, 20, 31, 23, 30, 32]","[1.6830773927933027, 1.64931556450958, 1.201803308137814, 1.1980438813626608, 1.1963874227367934, 1.1272004151300032, 1.050105730719213, 1.0219299545358669, 0.977946050087368, 0.9637958658624006]","[39, 2, 10, 3, 22, 6, 43, 35, 36, 32]","[-1.4932487815325044, -1.464892568464207, -1.4228417000908875, -1.4051191999085402, -1.3576068799022065, -1.2514075521535433, -1.2431137490521886, -1.0984234939979398, -1.0738872693583756, -1.053358715284004]",25.99130897090527,-25.90354297640957
117,70,70,"[3, 12, 9]","[-0.28091737699540004, -0.2612623189595839, -0.22996474094316594]",-0.22874234640617558,"[8, 26, 28, 11, 13, 4, 19, 17, 33, 20]","[0.31305704636333936, 0.2918400684668761, 0.2664631575504802, 0.2632968891868472, 0.2500694417737124, 0.21981436757006423, 0.21529136754186656, 0.2039841713358267, 0.18026381838744285, 0.15714807115319882]","[3, 12, 9, 6, 25, 30, 21, 1, 5, 24]","[-0.28091737699540004, -0.2612623189595839, -0.22996474094316594, -0.20380957813669834, -0.18024553955749734, -0.17761778187301802, -0.1701268247875016, -0.1635932168075182, -0.15360662249222537, -0.13672656096414376]",4.143051696162498,-3.6864537866544724,70,"[3, 12, 9]","[-0.28091737699540004, -0.2612623189595839, -0.22996474094316594]",-0.22874234640617558,"[8, 26, 28, 11, 13, 4, 19, 17, 33, 20]","[0.31305704636333936, 0.2918400684668761, 0.2664631575504802, 0.2632968891868472, 0.2500694417737124, 0.21981436757006423, 0.21529136754186656, 0.2039841713358267, 0.18026381838744285, 0.15714807115319882]","[3, 12, 9, 6, 25, 30, 21, 1, 5, 24]","[-0.28091737699540004, -0.2612623189595839, -0.22996474094316594, -0.20380957813669834, -0.18024553955749734, -0.17761778187301802, -0.1701268247875016, -0.1635932168075182, -0.15360662249222537, -0.13672656096414376]",4.143051696162498,-3.6864537866544724,70,"[3, 12, 9]","[-0.28091737699540004, -0.2612623189595839, -0.22996474094316594]",-0.22874234640617558,"[8, 26, 28, 11, 13, 4, 19, 17, 33, 20]","[0.31305704636333936, 0.2918400684668761, 0.2664631575504802, 0.2632968891868472, 0.2500694417737124, 0.21981436757006423, 0.21529136754186656, 0.2039841713358267, 0.18026381838744285, 0.15714807115319882]","[3, 12, 9, 6, 25, 30, 21, 1, 5, 24]","[-0.28091737699540004, -0.2612623189595839, -0.22996474094316594, -0.20380957813669834, -0.18024553955749734, -0.17761778187301802, -0.1701268247875016, -0.1635932168075182, -0.15360662249222537, -0.13672656096414376]",4.143051696162498,-3.6864537866544724
118,180,180,"[62, 72, 64, 46, 21]","[-0.25584973561508656, -0.22874400436904885, -0.20765421947362953, -0.2014873567175941, -0.18385499395869992]",-0.17281731839740053,"[17, 81, 7, 80, 29, 31, 25, 82, 92, 4]","[0.2595431164027966, 0.25028845325880406, 0.21441868238607434, 0.1985535567672346, 0.18591158174269462, 0.1679490455461414, 0.16566842585510655, 0.1606310829296194, 0.158167826328338, 0.15742378430514195]","[62, 72, 64, 46, 21, 27, 38, 78, 82, 4]","[-0.25584973561508656, -0.22874400436904885, -0.20765421947362953, -0.2014873567175941, -0.18385499395869992, -0.16817459529795115, -0.16558374518906738, -0.15886130410658378, -0.1528408621938644, -0.1527956259192614]",6.588679844578079,-6.493452836314738,180,"[62, 72, 64, 46, 21]","[-0.25584973561508656, -0.22874400436904885, -0.20765421947362953, -0.2014873567175941, -0.18385499395869992]",-0.17281731839740053,"[17, 81, 7, 80, 29, 31, 25, 82, 92, 4]","[0.2595431164027966, 0.25028845325880406, 0.21441868238607434, 0.1985535567672346, 0.18591158174269462, 0.1679490455461414, 0.16566842585510655, 0.1606310829296194, 0.158167826328338, 0.15742378430514195]","[62, 72, 64, 46, 21, 27, 38, 78, 82, 4]","[-0.25584973561508656, -0.22874400436904885, -0.20765421947362953, -0.2014873567175941, -0.18385499395869992, -0.16817459529795115, -0.16558374518906738, -0.15886130410658378, -0.1528408621938644, -0.1527956259192614]",6.588679844578079,-6.493452836314738,180,"[62, 72, 64, 46, 21]","[-0.25584973561508656, -0.22874400436904885, -0.20765421947362953, -0.2014873567175941, -0.18385499395869992]",-0.17281731839740053,"[17, 81, 7, 80, 29, 31, 25, 82, 92, 4]","[0.2595431164027966, 0.25028845325880406, 0.21441868238607434, 0.1985535567672346, 0.18591158174269462, 0.1679490455461414, 0.16566842585510655, 0.1606310829296194, 0.158167826328338, 0.15742378430514195]","[62, 72, 64, 46, 21, 27, 38, 78, 82, 4]","[-0.25584973561508656, -0.22874400436904885, -0.20765421947362953, -0.2014873567175941, -0.18385499395869992, -0.16817459529795115, -0.16558374518906738, -0.15886130410658378, -0.1528408621938644, -0.1527956259192614]",6.588679844578079,-6.493452836314738
119,25,25,"[13, 9, 10, 4, 1, 0, 2, 5, 11, 14, 3, 7, 6, 8, 12]","[-0.11868259266838631, -0.09677133317178493, -0.08568435028760508, -0.08108236249643141, -0.05761532011255233, -0.05436532451387356, -0.05320013720740147, -0.023501726664353476, -0.020619994165997267, -0.018048633531892493, -0.017906488913905224, -0.014892076372247594, -0.014538534907581762, -0.004957928991445131, -0.0038828572683835237]",0.38118938690616927,"[9, 3, 6, 4, 0, 5, 7, 8, 2, 1]","[0.13209263056461285, 0.12061988830899655, 0.11333897380878168, 0.05777699874272928, 0.05104988398817716, 0.04547470973772176, 0.04031826705072513, 0.031854153654525104, 0.0250074153434699, 0.0012776918940913668]","[13, 9, 10, 4, 1, 0, 2, 5, 11, 14]","[-0.11868259266838631, -0.09677133317178493, -0.08568435028760508, -0.08108236249643141, -0.05761532011255233, -0.05436532451387356, -0.05320013720740147, -0.023501726664353476, -0.020619994165997267, -0.018048633531892493]",0.6188106130938307,-0.6657496612738416,25,"[13, 9, 10, 4, 1, 0, 2, 5, 11, 14, 3, 7, 6, 8, 12]","[-0.11868259266838631, -0.09677133317178493, -0.08568435028760508, -0.08108236249643141, -0.05761532011255233, -0.05436532451387356, -0.05320013720740147, -0.023501726664353476, -0.020619994165997267, -0.018048633531892493, -0.017906488913905224, -0.014892076372247594, -0.014538534907581762, -0.004957928991445131, -0.0038828572683835237]",0.38118938690616927,"[9, 3, 6, 4, 0, 5, 7, 8, 2, 1]","[0.13209263056461285, 0.12061988830899655, 0.11333897380878168, 0.05777699874272928, 0.05104988398817716, 0.04547470973772176, 0.04031826705072513, 0.031854153654525104, 0.0250074153434699, 0.0012776918940913668]","[13, 9, 10, 4, 1, 0, 2, 5, 11, 14]","[-0.11868259266838631, -0.09677133317178493, -0.08568435028760508, -0.08108236249643141, -0.05761532011255233, -0.05436532451387356, -0.05320013720740147, -0.023501726664353476, -0.020619994165997267, -0.018048633531892493]",0.6188106130938307,-0.6657496612738416,25,"[13, 9, 10, 4, 1, 0, 2, 5, 11, 14, 3, 7, 6, 8, 12]","[-0.11868259266838631, -0.09677133317178493, -0.08568435028760508, -0.08108236249643141, -0.05761532011255233, -0.05436532451387356, -0.05320013720740147, -0.023501726664353476, -0.020619994165997267, -0.018048633531892493, -0.017906488913905224, -0.014892076372247594, -0.014538534907581762, -0.004957928991445131, -0.0038828572683835237]",0.38118938690616927,"[9, 3, 6, 4, 0, 5, 7, 8, 2, 1]","[0.13209263056461285, 0.12061988830899655, 0.11333897380878168, 0.05777699874272928, 0.05104988398817716, 0.04547470973772176, 0.04031826705072513, 0.031854153654525104, 0.0250074153434699, 0.0012776918940913668]","[13, 9, 10, 4, 1, 0, 2, 5, 11, 14]","[-0.11868259266838631, -0.09677133317178493, -0.08568435028760508, -0.08108236249643141, -0.05761532011255233, -0.05436532451387356, -0.05320013720740147, -0.023501726664353476, -0.020619994165997267, -0.018048633531892493]",0.6188106130938307,-0.6657496612738416
120,73,73,"[17, 32, 29]","[-0.36564455194598794, -0.2711318933365397, -0.25904178259385535]",-0.17834272813912666,"[18, 1, 9, 34, 19, 10, 14, 21, 32, 3]","[0.20475220127363702, 0.19210912243190123, 0.1884064901888624, 0.16849920441856975, 0.16577556522935755, 0.16430915513694846, 0.16196100019552226, 0.15799982646978283, 0.1421456295725555, 0.128831508074059]","[17, 32, 29, 30, 18, 7, 10, 1, 13, 20]","[-0.36564455194598794, -0.2711318933365397, -0.25904178259385535, -0.19770460605273596, -0.1554158823473801, -0.15448075169428027, -0.1382072072098967, -0.13571210426665323, -0.13433563827033224, -0.12750088771001902]",3.495322041505563,-3.212797541242819,73,"[17, 34, 29, 8, 12]","[-0.2281858606384031, -0.17221384612182683, -0.1565889438002734, -0.1443548420064403, -0.14063615533401097]",-0.05034093915635929,"[18, 15, 1, 22, 10, 33, 11, 32, 20, 3]","[0.18582437920745876, 0.1609206706021267, 0.15571532095646845, 0.15555339465498996, 0.14878126201881053, 0.14795502998289514, 0.13530733232995726, 0.13426416857836843, 0.12324520648877249, 0.12287661634196642]","[17, 34, 29, 8, 12, 19, 5, 25, 31, 0]","[-0.2281858606384031, -0.17221384612182683, -0.1565889438002734, -0.1443548420064403, -0.14063615533401097, -0.128972530921733, -0.12365570378694159, -0.10796853649050195, -0.09659811118431708, -0.0912940186666473]",2.928821775426,-2.7204604841705953,73,"[17, 34, 29, 8, 12]","[-0.2281858606384031, -0.17221384612182683, -0.1565889438002734, -0.1443548420064403, -0.14063615533401097]",-0.05034093915635929,"[18, 15, 1, 22, 10, 33, 11, 32, 20, 3]","[0.18582437920745876, 0.1609206706021267, 0.15571532095646845, 0.15555339465498996, 0.14878126201881053, 0.14795502998289514, 0.13530733232995726, 0.13426416857836843, 0.12324520648877249, 0.12287661634196642]","[17, 34, 29, 8, 12, 19, 5, 25, 31, 0]","[-0.2281858606384031, -0.17221384612182683, -0.1565889438002734, -0.1443548420064403, -0.14063615533401097, -0.128972530921733, -0.12365570378694159, -0.10796853649050195, -0.09659811118431708, -0.0912940186666473]",2.928821775426,-2.7204604841705953
121,60,0,-1,-1,0.0,[],[],[],[],0.0,0.0,0,-1,-1,0.0,[],[],[],[],0.0,0.0,0,-1,-1,0.0,[],[],[],[],0.0,0.0
122,53,53,[],[],-0.4004524956665829,"[21, 7, 1, 12, 18, 25, 17, 0, 19, 13]","[1.7006151964323735, 1.6395140848159389, 1.4165894339366951, 1.0671251090655345, 0.9300643977208124, 0.9164024991443586, 0.7802996883169876, 0.60144296688789, 0.5069027749982284, 0.37145313849252354]","[7, 3, 15, 14, 16, 6, 9, 18, 17, 5]","[-1.1838453649362368, -1.0060514231177287, -0.9886672775974187, -0.9788705684985446, -0.8712238074338305, -0.7545880209856454, -0.5935929393767845, -0.4676725118469365, -0.46396191272602644, -0.4156173592582495]",11.932179712086741,-10.531727216420158,53,[1],[-0.9279955192319265],-0.4291948827131038,"[8, 24, 1, 20, 17, 16, 12, 14, 5, 11]","[0.9893017965967031, 0.9634982859016321, 0.9155213865307539, 0.7296521999512675, 0.6564150054365727, 0.647633298211365, 0.43888984886655913, 0.4138631448575774, 0.3995603415901079, 0.3419902324898375]","[1, 12, 15, 2, 0, 24, 5, 4, 18, 21]","[-0.9279955192319265, -0.7068438623760526, -0.666243513055895, -0.642541432373321, -0.5367274262600035, -0.5103768515078775, -0.4961438182747741, -0.47054897830872877, -0.4562196607406739, -0.4333082829792098]",9.118909450579242,-8.617710087098065,53,[2],[-0.8249065277740272],-0.32374644369978667,"[6, 1, 24, 20, 17, 16, 12, 11, 14, 18]","[0.9595325224139382, 0.8790668550075036, 0.8275508914604046, 0.7847900924269838, 0.6348992084315189, 0.5119366667053744, 0.4396216806691048, 0.390121274309029, 0.3279777962819958, 0.30276013135579094]","[2, 12, 15, 6, 5, 24, 10, 18, 3, 17]","[-0.8249065277740272, -0.6574725259511187, -0.5999013125943149, -0.5709852726192487, -0.4971346889369094, -0.49148226553827123, -0.3884967577454778, -0.38310180784566417, -0.36659387798760895, -0.35529340060878895]",8.145258971625198,-7.646419055699439
123,23,23,"[12, 13]","[-0.8220570601245759, -0.5027544770799323]",-0.25145045119134823,"[4, 2, 3, 0, 6, 1, 7, 5, 8]","[0.6459930901187759, 0.4838869287370276, 0.42308680689041595, 0.3598046563544991, 0.3337489738854424, 0.29593998026366247, 0.28012214709619343, 0.18886423842932806, 0.17299675907804338]","[12, 13, 11, 9, 6, 10, 8, 2, 7, 1]","[-0.8220570601245759, -0.5027544770799323, -0.33865033792523347, -0.3329600634649682, -0.26496898732967633, -0.23914244676458332, -0.22468663432019237, -0.1706614838721088, -0.15004237592621952, -0.07242732199919436]",3.1844435808533884,-3.2578046668665483,23,"[8, 12, 11, 5, 7]","[-0.32994355603337255, -0.32849390200613343, -0.278212384395249, -0.20896529863001923, -0.16327092714499195]",-0.1270689254404466,"[5, 6, 4, 0, 3, 7, 8, 9, 1, 2]","[0.3852551324177242, 0.2891296169346256, 0.2584739058818274, 0.21934673667305302, 0.20790499739886303, 0.19829052476578735, 0.1271422485370969, 0.0499439125605, 0.037733725948981764, 0.018677668880067586]","[8, 12, 11, 5, 7, 6, 0, 2, 1, 9]","[-0.32994355603337255, -0.32849390200613343, -0.278212384395249, -0.20896529863001923, -0.16327092714499195, -0.13502320482718305, -0.13491026287248947, -0.12985084813117814, -0.08557788540969903, -0.08495669093731464]",1.7918984699985268,-1.9737156127678464,23,"[8, 12, 11, 5, 7]","[-0.32994355603337255, -0.32849390200613343, -0.278212384395249, -0.20896529863001923, -0.16327092714499195]",-0.1270689254404466,"[5, 6, 4, 0, 3, 7, 8, 9, 1, 2]","[0.3852551324177242, 0.2891296169346256, 0.2584739058818274, 0.21934673667305302, 0.20790499739886303, 0.19829052476578735, 0.1271422485370969, 0.0499439125605, 0.037733725948981764, 0.018677668880067586]","[8, 12, 11, 5, 7, 6, 0, 2, 1, 9]","[-0.32994355603337255, -0.32849390200613343, -0.278212384395249, -0.20896529863001923, -0.16327092714499195, -0.13502320482718305, -0.13491026287248947, -0.12985084813117814, -0.08557788540969903, -0.08495669093731464]",1.7918984699985268,-1.9737156127678464
124,181,181,"[31, 3]","[-0.46068529585469115, -0.4203045973388873]",-0.1738972494152542,"[41, 6, 34, 30, 51, 78, 70, 23, 39, 49]","[0.2675500340677343, 0.24700787787674322, 0.2359375745493744, 0.22698489586244688, 0.22579011617960007, 0.22443235004570777, 0.21783419183825323, 0.21470816205186385, 0.21273091384523346, 0.2089787636581172]","[31, 3, 49, 70, 9, 55, 43, 34, 38, 78]","[-0.46068529585469115, -0.4203045973388873, -0.3854568304413736, -0.3582005441304342, -0.2875553755817571, -0.2766156092385304, -0.2764080630232944, -0.2647574531481444, -0.24130745740460494, -0.2286196696866522]",10.065707278097246,-9.77279992187557,181,[59],[-3.452198829520201],-2.75430223759618,"[45, 33, 8, 63, 42, 81, 1, 78, 67, 75]","[4.496287081318313, 2.8589923766305176, 2.4909841237124737, 2.39543294646811, 2.350549482007188, 2.247860662152112, 2.192111990573807, 1.9870548090392577, 1.9596485936829966, 1.9311094867598542]","[59, 24, 54, 56, 14, 1, 22, 66, 48, 26]","[-3.452198829520201, -2.3693652512570464, -2.3040099393713285, -2.248836598739697, -2.194862709861159, -2.162756739604276, -1.9447521619334798, -1.7929762585875295, -1.6980110093925287, -1.6966904215973568]",79.04131504525532,-78.73921163717934,181,[],[],-0.4168484064750686,"[40, 74, 8, 22, 35, 64, 0, 13, 37, 78]","[4.34945958546727, 3.4253011420420867, 3.1235004012114276, 3.0221986805132746, 2.890935862264808, 2.7590118935812793, 2.755092712059427, 2.6554888530718297, 2.63469640326362, 2.512738735567271]","[26, 72, 2, 27, 63, 22, 32, 47, 68, 14]","[-3.8114990629945793, -3.8057280246397864, -3.214721994204865, -3.0574136284826303, -2.963878305903548, -2.7504459281765734, -2.6489304792566934, -2.609107082701046, -2.4544912375551804, -2.3958187401178406]",104.87753956030068,-103.4606911538256
125,44,44,"[3, 11, 5, 6, 8, 13, 4, 1, 19, 2, 10, 0, 9, 17, 21, 15, 16, 7, 12, 18, 20, 14]","[-0.013664261060363066, -0.013551072087590177, -0.012510791393391337, -0.010940193002029199, -0.010669793736425267, -0.010245974958644488, -0.010209175390251663, -0.01010244333599079, -0.009544994209163491, -0.008673315753235676, -0.008495731099167816, -0.007978315531524047, -0.007526015372640565, -0.007287891077428435, -0.006641713531720121, -0.005819688165128456, -0.0057928129247105786, -0.005129995933438781, -0.004683494669180603, -0.00335587759968643, -0.00228154020481765, -0.0014119462674804719]",0.8029582334042502,"[15, 17, 18, 13, 8, 16, 12, 14, 0, 3]","[0.014319461584568764, 0.013621018427140537, 0.011785253457058059, 0.011244200834535882, 0.011176314842209665, 0.010703596256007152, 0.010589735145010323, 0.01040103584928387, 0.010086837751531944, 0.009753748505118082]","[3, 11, 5, 6, 8, 13, 4, 1, 19, 2]","[-0.013664261060363066, -0.013551072087590177, -0.012510791393391337, -0.010940193002029199, -0.010669793736425267, -0.010245974958644488, -0.010209175390251663, -0.01010244333599079, -0.009544994209163491, -0.008673315753235676]",0.19704176659574987,-0.1765170373040091,44,"[3, 11, 5, 6, 8, 13, 4, 1, 19, 2, 10, 0, 9, 17, 21, 15, 16, 7, 12, 18, 20, 14]","[-0.013664261060363066, -0.013551072087590177, -0.012510791393391337, -0.010940193002029199, -0.010669793736425267, -0.010245974958644488, -0.010209175390251663, -0.01010244333599079, -0.009544994209163491, -0.008673315753235676, -0.008495731099167816, -0.007978315531524047, -0.007526015372640565, -0.007287891077428435, -0.006641713531720121, -0.005819688165128456, -0.0057928129247105786, -0.005129995933438781, -0.004683494669180603, -0.00335587759968643, -0.00228154020481765, -0.0014119462674804719]",0.8029582334042502,"[15, 17, 18, 13, 8, 16, 12, 14, 0, 3]","[0.014319461584568764, 0.013621018427140537, 0.011785253457058059, 0.011244200834535882, 0.011176314842209665, 0.010703596256007152, 0.010589735145010323, 0.01040103584928387, 0.010086837751531944, 0.009753748505118082]","[3, 11, 5, 6, 8, 13, 4, 1, 19, 2]","[-0.013664261060363066, -0.013551072087590177, -0.012510791393391337, -0.010940193002029199, -0.010669793736425267, -0.010245974958644488, -0.010209175390251663, -0.01010244333599079, -0.009544994209163491, -0.008673315753235676]",0.19704176659574987,-0.1765170373040091,44,"[3, 11, 5, 6, 8, 13, 4, 1, 19, 2, 10, 0, 9, 17, 21, 15, 16, 7, 12, 18, 20, 14]","[-0.013664261060363066, -0.013551072087590177, -0.012510791393391337, -0.010940193002029199, -0.010669793736425267, -0.010245974958644488, -0.010209175390251663, -0.01010244333599079, -0.009544994209163491, -0.008673315753235676, -0.008495731099167816, -0.007978315531524047, -0.007526015372640565, -0.007287891077428435, -0.006641713531720121, -0.005819688165128456, -0.0057928129247105786, -0.005129995933438781, -0.004683494669180603, -0.00335587759968643, -0.00228154020481765, -0.0014119462674804719]",0.8029582334042502,"[15, 17, 18, 13, 8, 16, 12, 14, 0, 3]","[0.014319461584568764, 0.013621018427140537, 0.011785253457058059, 0.011244200834535882, 0.011176314842209665, 0.010703596256007152, 0.010589735145010323, 0.01040103584928387, 0.010086837751531944, 0.009753748505118082]","[3, 11, 5, 6, 8, 13, 4, 1, 19, 2]","[-0.013664261060363066, -0.013551072087590177, -0.012510791393391337, -0.010940193002029199, -0.010669793736425267, -0.010245974958644488, -0.010209175390251663, -0.01010244333599079, -0.009544994209163491, -0.008673315753235676]",0.19704176659574987,-0.1765170373040091
126,22,0,-1,-1,0.0,[],[],[],[],0.0,0.0,0,-1,-1,0.0,[],[],[],[],0.0,0.0,0,-1,-1,0.0,[],[],[],[],0.0,0.0
127,183,183,[54],[-1.4406961222010526],-0.31799256920965635,"[43, 36, 64, 26, 51, 53, 82, 6, 63, 13]","[1.4932022092699089, 1.0070377060748243, 0.998641424390843, 0.9308707201856663, 0.9302567857450026, 0.8590892433778672, 0.8494105959684229, 0.836613058543121, 0.833431362240387, 0.820972792447059]","[54, 81, 72, 67, 55, 40, 20, 82, 77, 43]","[-1.4406961222010526, -1.3697849373657065, -1.0388304902628251, -1.0338024814306856, -1.0034568203277088, -0.9752106892991513, -0.9390001140248658, -0.9207771061390773, -0.9121568070633299, -0.8989854599747454]",36.10367468926752,-36.22637824225892,183,"[77, 72]","[-0.7440334841671832, -0.6939224266893245]",-0.1748799313301057,"[47, 53, 2, 31, 88, 72, 75, 81, 71, 29]","[0.8829854737555475, 0.6180690520406248, 0.5427141941935609, 0.5352769172932986, 0.5307592049122737, 0.5228050278870987, 0.5187404184057439, 0.487905904819659, 0.4576316113226535, 0.4537869081777165]","[77, 72, 49, 36, 23, 78, 80, 50, 65, 60]","[-0.7440334841671832, -0.6939224266893245, -0.653222635637521, -0.609726326001818, -0.5151830736661226, -0.5054879249279154, -0.4860299321987003, -0.4850770319725666, -0.48398627592867527, -0.4736944081353932]",22.030505004613055,-22.293580984139457,183,"[77, 72]","[-0.7440334841671832, -0.6939224266893245]",-0.1748799313301057,"[47, 53, 2, 31, 88, 72, 75, 81, 71, 29]","[0.8829854737555475, 0.6180690520406248, 0.5427141941935609, 0.5352769172932986, 0.5307592049122737, 0.5228050278870987, 0.5187404184057439, 0.487905904819659, 0.4576316113226535, 0.4537869081777165]","[77, 72, 49, 36, 23, 78, 80, 50, 65, 60]","[-0.7440334841671832, -0.6939224266893245, -0.653222635637521, -0.609726326001818, -0.5151830736661226, -0.5054879249279154, -0.4860299321987003, -0.4850770319725666, -0.48398627592867527, -0.4736944081353932]",22.030505004613055,-22.293580984139457
128,29,29,"[1, 9, 6, 8, 7, 13, 10, 5, 2, 3, 11, 4, 0, 12]","[-0.0373449972937702, -0.03578676585588341, -0.0347592101442983, -0.02750439808146172, -0.02493069230566963, -0.024743895624852852, -0.022350303713099935, -0.017224781107051678, -0.013126635417332532, -0.010389592760349559, -0.006615378062433594, -0.005618702779876324, -0.0035466361663889397, -0.0009727078450562121]",0.6997996626491486,"[13, 12, 4, 11, 8, 9, 3, 14, 7, 2]","[0.06423293992804173, 0.05109327330998659, 0.04884901398578481, 0.02735549904462144, 0.019450248903463474, 0.01789118993571332, 0.016028397830398278, 0.013864249775124312, 0.011642066961473177, 0.01075178470114361]","[1, 9, 6, 8, 7, 13, 10, 5, 2, 3]","[-0.0373449972937702, -0.03578676585588341, -0.0347592101442983, -0.02750439808146172, -0.02493069230566963, -0.024743895624852852, -0.022350303713099935, -0.017224781107051678, -0.013126635417332532, -0.010389592760349559]",0.3002003373508515,-0.2649146971575249,29,"[1, 9, 6, 8, 7, 13, 10, 5, 2, 3, 11, 4, 0, 12]","[-0.0373449972937702, -0.03578676585588341, -0.0347592101442983, -0.02750439808146172, -0.02493069230566963, -0.024743895624852852, -0.022350303713099935, -0.017224781107051678, -0.013126635417332532, -0.010389592760349559, -0.006615378062433594, -0.005618702779876324, -0.0035466361663889397, -0.0009727078450562121]",0.6997996626491486,"[13, 12, 4, 11, 8, 9, 3, 14, 7, 2]","[0.06423293992804173, 0.05109327330998659, 0.04884901398578481, 0.02735549904462144, 0.019450248903463474, 0.01789118993571332, 0.016028397830398278, 0.013864249775124312, 0.011642066961473177, 0.01075178470114361]","[1, 9, 6, 8, 7, 13, 10, 5, 2, 3]","[-0.0373449972937702, -0.03578676585588341, -0.0347592101442983, -0.02750439808146172, -0.02493069230566963, -0.024743895624852852, -0.022350303713099935, -0.017224781107051678, -0.013126635417332532, -0.010389592760349559]",0.3002003373508515,-0.2649146971575249,29,"[1, 9, 6, 8, 7, 13, 10, 5, 2, 3, 11, 4, 0, 12]","[-0.0373449972937702, -0.03578676585588341, -0.0347592101442983, -0.02750439808146172, -0.02493069230566963, -0.024743895624852852, -0.022350303713099935, -0.017224781107051678, -0.013126635417332532, -0.010389592760349559, -0.006615378062433594, -0.005618702779876324, -0.0035466361663889397, -0.0009727078450562121]",0.6997996626491486,"[13, 12, 4, 11, 8, 9, 3, 14, 7, 2]","[0.06423293992804173, 0.05109327330998659, 0.04884901398578481, 0.02735549904462144, 0.019450248903463474, 0.01789118993571332, 0.016028397830398278, 0.013864249775124312, 0.011642066961473177, 0.01075178470114361]","[1, 9, 6, 8, 7, 13, 10, 5, 2, 3]","[-0.0373449972937702, -0.03578676585588341, -0.0347592101442983, -0.02750439808146172, -0.02493069230566963, -0.024743895624852852, -0.022350303713099935, -0.017224781107051678, -0.013126635417332532, -0.010389592760349559]",0.3002003373508515,-0.2649146971575249
129,352,352,"[44, 31, 91, 150, 87, 144, 107, 133, 64, 159]","[-0.13521519425868503, -0.11697522440326809, -0.11585373182752934, -0.11502542470844768, -0.10905636391249034, -0.09919156472826518, -0.09542202498452275, -0.09524195607668444, -0.09117812218060026, -0.08696835219079393]",-0.07526672992033238,"[177, 158, 16, 115, 51, 50, 19, 111, 126, 21]","[0.13484097750034646, 0.12741568885578725, 0.12076302211753057, 0.1179657500037986, 0.11535635463912436, 0.11399919355819868, 0.10871739180765988, 0.10241144085488549, 0.09993662331573228, 0.09899204867849508]","[44, 31, 91, 150, 87, 144, 107, 133, 64, 159]","[-0.13521519425868503, -0.11697522440326809, -0.11585373182752934, -0.11502542470844768, -0.10905636391249034, -0.09919156472826518, -0.09542202498452275, -0.09524195607668444, -0.09117812218060026, -0.08696835219079393]",6.86022856819826,-6.845089797549215,352,"[44, 31, 91, 150, 87, 144, 107, 133, 64, 159]","[-0.13521519425868503, -0.11697522440326809, -0.11585373182752934, -0.11502542470844768, -0.10905636391249034, -0.09919156472826518, -0.09542202498452275, -0.09524195607668444, -0.09117812218060026, -0.08696835219079393]",-0.07526672992033238,"[177, 158, 16, 115, 51, 50, 19, 111, 126, 21]","[0.13484097750034646, 0.12741568885578725, 0.12076302211753057, 0.1179657500037986, 0.11535635463912436, 0.11399919355819868, 0.10871739180765988, 0.10241144085488549, 0.09993662331573228, 0.09899204867849508]","[44, 31, 91, 150, 87, 144, 107, 133, 64, 159]","[-0.13521519425868503, -0.11697522440326809, -0.11585373182752934, -0.11502542470844768, -0.10905636391249034, -0.09919156472826518, -0.09542202498452275, -0.09524195607668444, -0.09117812218060026, -0.08696835219079393]",6.86022856819826,-6.845089797549215,352,"[44, 31, 91, 150, 87, 144, 107, 133, 64, 159]","[-0.13521519425868503, -0.11697522440326809, -0.11585373182752934, -0.11502542470844768, -0.10905636391249034, -0.09919156472826518, -0.09542202498452275, -0.09524195607668444, -0.09117812218060026, -0.08696835219079393]",-0.07526672992033238,"[177, 158, 16, 115, 51, 50, 19, 111, 126, 21]","[0.13484097750034646, 0.12741568885578725, 0.12076302211753057, 0.1179657500037986, 0.11535635463912436, 0.11399919355819868, 0.10871739180765988, 0.10241144085488549, 0.09993662331573228, 0.09899204867849508]","[44, 31, 91, 150, 87, 144, 107, 133, 64, 159]","[-0.13521519425868503, -0.11697522440326809, -0.11585373182752934, -0.11502542470844768, -0.10905636391249034, -0.09919156472826518, -0.09542202498452275, -0.09524195607668444, -0.09117812218060026, -0.08696835219079393]",6.86022856819826,-6.845089797549215
130,29,29,"[3, 1, 4]","[-0.2871148493357681, -0.26953355701807086, -0.24241613249199023]",-0.07704470951008824,"[9, 10, 4, 2, 0, 7, 1, 12, 11, 6]","[0.41192070497266847, 0.19936875928271475, 0.1862380081849755, 0.1744044321527206, 0.1474803875844708, 0.1449952034853255, 0.13757681619750908, 0.12924595762474517, 0.11942134899090745, 0.10214340737976642]","[3, 1, 4, 11, 6, 2, 12, 9, 7, 0]","[-0.2871148493357681, -0.26953355701807086, -0.24241613249199023, -0.16221451468569062, -0.13897613342787973, -0.13852096117933002, -0.10966774875616637, -0.10022556141557895, -0.09463039127818156, -0.0945161310336277]",2.0443270818068107,-1.7663469111425516,29,"[6, 1, 14, 3, 0, 8, 10]","[-0.19346630983785168, -0.16072560476799874, -0.11834868895490974, -0.11656846268353015, -0.10050855549444, -0.09420767372599724, -0.07738593374396775]",-0.04766419067952572,"[6, 7, 5, 1, 8, 10, 2, 3, 9, 12]","[0.29242708275681345, 0.1803356611067229, 0.1557373324065684, 0.14724514872661676, 0.12576475241601925, 0.1105291731982614, 0.09318650719896782, 0.09059276556041082, 0.054958694017884245, 0.048362242832281604]","[6, 1, 14, 3, 0, 8, 10, 12, 13, 4]","[-0.19346630983785168, -0.16072560476799874, -0.11834868895490974, -0.11656846268353015, -0.10050855549444, -0.09420767372599724, -0.07738593374396775, -0.07392800760445054, -0.06746480888671158, -0.06278170784624183]",1.4391475770857811,-1.2526946156149508,29,"[6, 1, 14, 3, 0, 8, 10]","[-0.19346630983785168, -0.16072560476799874, -0.11834868895490974, -0.11656846268353015, -0.10050855549444, -0.09420767372599724, -0.07738593374396775]",-0.04766419067952572,"[6, 7, 5, 1, 8, 10, 2, 3, 9, 12]","[0.29242708275681345, 0.1803356611067229, 0.1557373324065684, 0.14724514872661676, 0.12576475241601925, 0.1105291731982614, 0.09318650719896782, 0.09059276556041082, 0.054958694017884245, 0.048362242832281604]","[6, 1, 14, 3, 0, 8, 10, 12, 13, 4]","[-0.19346630983785168, -0.16072560476799874, -0.11834868895490974, -0.11656846268353015, -0.10050855549444, -0.09420767372599724, -0.07738593374396775, -0.07392800760445054, -0.06746480888671158, -0.06278170784624183]",1.4391475770857811,-1.2526946156149508
131,21,21,"[8, 0, 1, 5, 2, 6, 4, 7, 3, 9]","[-0.09599751196845452, -0.06925029014102962, -0.06838198285930361, -0.03861360841493226, -0.03448310888566415, -0.028274630621355785, -0.026566552590547347, -0.02190685008378669, -0.017470960656893193, -0.0167279023726268]",0.5306061633119783,"[5, 2, 0, 10, 7, 4, 6, 3, 8, 1]","[0.06839191344947136, 0.061485272613855224, 0.056337890802182, 0.05137294386444091, 0.04960787838020688, 0.046182021558277636, 0.04085905764399021, 0.04017350425629573, 0.023726562273031625, 0.02106288626644928]","[8, 0, 1, 5, 2, 6, 4, 7, 3, 9]","[-0.09599751196845452, -0.06925029014102962, -0.06838198285930361, -0.03861360841493226, -0.03448310888566415, -0.028274630621355785, -0.026566552590547347, -0.02190685008378669, -0.017470960656893193, -0.0167279023726268]",0.4693938366880217,-0.41767339859459396,21,"[8, 0, 1, 5, 2, 6, 4, 7, 3, 9]","[-0.09599751196845452, -0.06925029014102962, -0.06838198285930361, -0.03861360841493226, -0.03448310888566415, -0.028274630621355785, -0.026566552590547347, -0.02190685008378669, -0.017470960656893193, -0.0167279023726268]",0.5306061633119783,"[5, 2, 0, 10, 7, 4, 6, 3, 8, 1]","[0.06839191344947136, 0.061485272613855224, 0.056337890802182, 0.05137294386444091, 0.04960787838020688, 0.046182021558277636, 0.04085905764399021, 0.04017350425629573, 0.023726562273031625, 0.02106288626644928]","[8, 0, 1, 5, 2, 6, 4, 7, 3, 9]","[-0.09599751196845452, -0.06925029014102962, -0.06838198285930361, -0.03861360841493226, -0.03448310888566415, -0.028274630621355785, -0.026566552590547347, -0.02190685008378669, -0.017470960656893193, -0.0167279023726268]",0.4693938366880217,-0.41767339859459396,21,"[8, 0, 1, 5, 2, 6, 4, 7, 3, 9]","[-0.09599751196845452, -0.06925029014102962, -0.06838198285930361, -0.03861360841493226, -0.03448310888566415, -0.028274630621355785, -0.026566552590547347, -0.02190685008378669, -0.017470960656893193, -0.0167279023726268]",0.5306061633119783,"[5, 2, 0, 10, 7, 4, 6, 3, 8, 1]","[0.06839191344947136, 0.061485272613855224, 0.056337890802182, 0.05137294386444091, 0.04960787838020688, 0.046182021558277636, 0.04085905764399021, 0.04017350425629573, 0.023726562273031625, 0.02106288626644928]","[8, 0, 1, 5, 2, 6, 4, 7, 3, 9]","[-0.09599751196845452, -0.06925029014102962, -0.06838198285930361, -0.03861360841493226, -0.03448310888566415, -0.028274630621355785, -0.026566552590547347, -0.02190685008378669, -0.017470960656893193, -0.0167279023726268]",0.4693938366880217,-0.41767339859459396
132,25,0,-1,-1,0.0,[],[],[],[],0.0,0.0,0,-1,-1,0.0,[],[],[],[],0.0,0.0,0,-1,-1,0.0,[],[],[],[],0.0,0.0
133,24,24,"[0, 5, 2, 3, 4, 1]","[-0.016055756782267578, -0.015226261810830252, -0.014581490259913236, -0.0139741347126503, -0.01066188747027999, -0.01008225834373703]",0.9076083823977041,"[5, 6, 0, 16, 2, 11, 14, 9, 1, 17]","[0.008842269466768145, 0.007280317635824157, 0.0070949295167945965, 0.0066975653014243325, 0.006646685442240457, 0.005442554522237155, 0.005288602789884022, 0.005222162422746819, 0.0049956821673388975, 0.0047725522361083865]","[0, 5, 2, 3, 4, 1]","[-0.016055756782267578, -0.015226261810830252, -0.014581490259913236, -0.0139741347126503, -0.01066188747027999, -0.01008225834373703]",0.0923916176022959,-0.08058178937967839,24,"[0, 5, 2, 3, 4, 1]","[-0.016055756782267578, -0.015226261810830252, -0.014581490259913236, -0.0139741347126503, -0.01066188747027999, -0.01008225834373703]",0.9076083823977041,"[5, 6, 0, 16, 2, 11, 14, 9, 1, 17]","[0.008842269466768145, 0.007280317635824157, 0.0070949295167945965, 0.0066975653014243325, 0.006646685442240457, 0.005442554522237155, 0.005288602789884022, 0.005222162422746819, 0.0049956821673388975, 0.0047725522361083865]","[0, 5, 2, 3, 4, 1]","[-0.016055756782267578, -0.015226261810830252, -0.014581490259913236, -0.0139741347126503, -0.01066188747027999, -0.01008225834373703]",0.0923916176022959,-0.08058178937967839,24,"[0, 5, 2, 3, 4, 1]","[-0.016055756782267578, -0.015226261810830252, -0.014581490259913236, -0.0139741347126503, -0.01066188747027999, -0.01008225834373703]",0.9076083823977041,"[5, 6, 0, 16, 2, 11, 14, 9, 1, 17]","[0.008842269466768145, 0.007280317635824157, 0.0070949295167945965, 0.0066975653014243325, 0.006646685442240457, 0.005442554522237155, 0.005288602789884022, 0.005222162422746819, 0.0049956821673388975, 0.0047725522361083865]","[0, 5, 2, 3, 4, 1]","[-0.016055756782267578, -0.015226261810830252, -0.014581490259913236, -0.0139741347126503, -0.01066188747027999, -0.01008225834373703]",0.0923916176022959,-0.08058178937967839
134,54,54,"[30, 17, 15, 21, 19, 10, 9, 0]","[-0.1318698459832592, -0.1304821268818084, -0.11330796764733278, -0.11113293628000094, -0.10279805754994947, -0.10118610313249336, -0.09864041880504829, -0.09769751826611353]",-0.002848347463066836,"[7, 6, 2, 18, 11, 8, 14, 10, 9, 15]","[0.19355780961246186, 0.17615169427353738, 0.17234519325170358, 0.14183480777118765, 0.11255019780269573, 0.10980988835974334, 0.10890775101407306, 0.10822691023359826, 0.10543598495445095, 0.09646062719855601]","[30, 17, 15, 21, 19, 10, 9, 0, 16, 22]","[-0.1318698459832592, -0.1304821268818084, -0.11330796764733278, -0.11113293628000094, -0.10279805754994947, -0.10118610313249336, -0.09864041880504829, -0.09769751826611353, -0.08105693088879047, -0.08014799374738704]",1.9722963186830247,-1.8565629457659638,54,"[30, 17, 15, 21, 19, 10, 9, 0]","[-0.1318698459832592, -0.1304821268818084, -0.11330796764733278, -0.11113293628000094, -0.10279805754994947, -0.10118610313249336, -0.09864041880504829, -0.09769751826611353]",-0.002848347463066836,"[7, 6, 2, 18, 11, 8, 14, 10, 9, 15]","[0.19355780961246186, 0.17615169427353738, 0.17234519325170358, 0.14183480777118765, 0.11255019780269573, 0.10980988835974334, 0.10890775101407306, 0.10822691023359826, 0.10543598495445095, 0.09646062719855601]","[30, 17, 15, 21, 19, 10, 9, 0, 16, 22]","[-0.1318698459832592, -0.1304821268818084, -0.11330796764733278, -0.11113293628000094, -0.10279805754994947, -0.10118610313249336, -0.09864041880504829, -0.09769751826611353, -0.08105693088879047, -0.08014799374738704]",1.9722963186830247,-1.8565629457659638,54,"[30, 17, 15, 21, 19, 10, 9, 0]","[-0.1318698459832592, -0.1304821268818084, -0.11330796764733278, -0.11113293628000094, -0.10279805754994947, -0.10118610313249336, -0.09864041880504829, -0.09769751826611353]",-0.002848347463066836,"[7, 6, 2, 18, 11, 8, 14, 10, 9, 15]","[0.19355780961246186, 0.17615169427353738, 0.17234519325170358, 0.14183480777118765, 0.11255019780269573, 0.10980988835974334, 0.10890775101407306, 0.10822691023359826, 0.10543598495445095, 0.09646062719855601]","[30, 17, 15, 21, 19, 10, 9, 0, 16, 22]","[-0.1318698459832592, -0.1304821268818084, -0.11330796764733278, -0.11113293628000094, -0.10279805754994947, -0.10118610313249336, -0.09864041880504829, -0.09769751826611353, -0.08105693088879047, -0.08014799374738704]",1.9722963186830247,-1.8565629457659638
135,34,34,"[5, 10, 14, 0, 2, 7, 4, 8]","[-0.1920879832032535, -0.17210803942476371, -0.15023573867220408, -0.12816426506400355, -0.12787424443001144, -0.11984778443689649, -0.09188957592063958, -0.07893790111018024]",-0.01906460366439164,"[3, 6, 14, 1, 0, 15, 18, 12, 16, 8]","[0.16745941668537317, 0.1230096538183629, 0.12232765025419721, 0.11055063607715401, 0.10017656427617733, 0.09896913526721836, 0.08896335826519584, 0.0822760502072285, 0.08113149083256363, 0.07702888605933073]","[5, 10, 14, 0, 2, 7, 4, 8, 11, 9]","[-0.1920879832032535, -0.17210803942476371, -0.15023573867220408, -0.12816426506400355, -0.12787424443001144, -0.11984778443689649, -0.09188957592063958, -0.07893790111018024, -0.06220615286044579, -0.05822608951704204]",1.2895043151574774,-1.3315852437550384,34,"[5, 10, 14, 0, 2, 7, 4, 8]","[-0.1920879832032535, -0.17210803942476371, -0.15023573867220408, -0.12816426506400355, -0.12787424443001144, -0.11984778443689649, -0.09188957592063958, -0.07893790111018024]",-0.01906460366439164,"[3, 6, 14, 1, 0, 15, 18, 12, 16, 8]","[0.16745941668537317, 0.1230096538183629, 0.12232765025419721, 0.11055063607715401, 0.10017656427617733, 0.09896913526721836, 0.08896335826519584, 0.0822760502072285, 0.08113149083256363, 0.07702888605933073]","[5, 10, 14, 0, 2, 7, 4, 8, 11, 9]","[-0.1920879832032535, -0.17210803942476371, -0.15023573867220408, -0.12816426506400355, -0.12787424443001144, -0.11984778443689649, -0.09188957592063958, -0.07893790111018024, -0.06220615286044579, -0.05822608951704204]",1.2895043151574774,-1.3315852437550384,34,"[5, 10, 14, 0, 2, 7, 4, 8]","[-0.1920879832032535, -0.17210803942476371, -0.15023573867220408, -0.12816426506400355, -0.12787424443001144, -0.11984778443689649, -0.09188957592063958, -0.07893790111018024]",-0.01906460366439164,"[3, 6, 14, 1, 0, 15, 18, 12, 16, 8]","[0.16745941668537317, 0.1230096538183629, 0.12232765025419721, 0.11055063607715401, 0.10017656427617733, 0.09896913526721836, 0.08896335826519584, 0.0822760502072285, 0.08113149083256363, 0.07702888605933073]","[5, 10, 14, 0, 2, 7, 4, 8, 11, 9]","[-0.1920879832032535, -0.17210803942476371, -0.15023573867220408, -0.12816426506400355, -0.12787424443001144, -0.11984778443689649, -0.09188957592063958, -0.07893790111018024, -0.06220615286044579, -0.05822608951704204]",1.2895043151574774,-1.3315852437550384
136,46,46,"[3, 6, 13, 12, 21, 11, 14, 1, 19, 18, 4, 9, 20, 16, 0, 7, 5, 15, 2, 8, 10, 17]","[-0.049539231048724444, -0.049500109518759515, -0.04653731502296276, -0.04451655942902588, -0.044268802051702444, -0.04214047995226381, -0.03629829647806614, -0.0305962673400887, -0.028364450664530926, -0.02749891437126021, -0.027105984406546733, -0.02552294441908761, -0.025227032698367187, -0.024445017846975798, -0.018740806155312945, -0.01681282939442655, -0.01566147272425649, -0.011039717945509973, -0.009071255480891806, -0.0047283745876681, -0.0016846634935017365, -0.0011894606348646364]",0.3429591407227008,"[5, 4, 9, 10, 12, 6, 18, 23, 11, 20]","[0.06618171810823542, 0.05315026734818041, 0.05293336228789115, 0.04937193615637955, 0.04805701641121917, 0.042243056571207055, 0.042151399216637235, 0.03979967180420887, 0.03773144016986826, 0.0329545865343613]","[3, 6, 13, 12, 21, 11, 14, 1, 19, 18]","[-0.049539231048724444, -0.049500109518759515, -0.04653731502296276, -0.04451655942902588, -0.044268802051702444, -0.04214047995226381, -0.03629829647806614, -0.0305962673400887, -0.028364450664530926, -0.02749891437126021]",0.6570408592772994,-0.5804899856647945,46,"[3, 6, 13, 12, 21, 11, 14, 1, 19, 18, 4, 9, 20, 16, 0, 7, 5, 15, 2, 8, 10, 17]","[-0.049539231048724444, -0.049500109518759515, -0.04653731502296276, -0.04451655942902588, -0.044268802051702444, -0.04214047995226381, -0.03629829647806614, -0.0305962673400887, -0.028364450664530926, -0.02749891437126021, -0.027105984406546733, -0.02552294441908761, -0.025227032698367187, -0.024445017846975798, -0.018740806155312945, -0.01681282939442655, -0.01566147272425649, -0.011039717945509973, -0.009071255480891806, -0.0047283745876681, -0.0016846634935017365, -0.0011894606348646364]",0.3429591407227008,"[5, 4, 9, 10, 12, 6, 18, 23, 11, 20]","[0.06618171810823542, 0.05315026734818041, 0.05293336228789115, 0.04937193615637955, 0.04805701641121917, 0.042243056571207055, 0.042151399216637235, 0.03979967180420887, 0.03773144016986826, 0.0329545865343613]","[3, 6, 13, 12, 21, 11, 14, 1, 19, 18]","[-0.049539231048724444, -0.049500109518759515, -0.04653731502296276, -0.04451655942902588, -0.044268802051702444, -0.04214047995226381, -0.03629829647806614, -0.0305962673400887, -0.028364450664530926, -0.02749891437126021]",0.6570408592772994,-0.5804899856647945,46,"[3, 6, 13, 12, 21, 11, 14, 1, 19, 18, 4, 9, 20, 16, 0, 7, 5, 15, 2, 8, 10, 17]","[-0.049539231048724444, -0.049500109518759515, -0.04653731502296276, -0.04451655942902588, -0.044268802051702444, -0.04214047995226381, -0.03629829647806614, -0.0305962673400887, -0.028364450664530926, -0.02749891437126021, -0.027105984406546733, -0.02552294441908761, -0.025227032698367187, -0.024445017846975798, -0.018740806155312945, -0.01681282939442655, -0.01566147272425649, -0.011039717945509973, -0.009071255480891806, -0.0047283745876681, -0.0016846634935017365, -0.0011894606348646364]",0.3429591407227008,"[5, 4, 9, 10, 12, 6, 18, 23, 11, 20]","[0.06618171810823542, 0.05315026734818041, 0.05293336228789115, 0.04937193615637955, 0.04805701641121917, 0.042243056571207055, 0.042151399216637235, 0.03979967180420887, 0.03773144016986826, 0.0329545865343613]","[3, 6, 13, 12, 21, 11, 14, 1, 19, 18]","[-0.049539231048724444, -0.049500109518759515, -0.04653731502296276, -0.04451655942902588, -0.044268802051702444, -0.04214047995226381, -0.03629829647806614, -0.0305962673400887, -0.028364450664530926, -0.02749891437126021]",0.6570408592772994,-0.5804899856647945
137,50,50,"[7, 13, 15, 10, 5, 9, 21, 14, 0, 8, 4, 23, 17, 2, 6, 24, 22]","[-0.1113397102216226, -0.08724800028691425, -0.06635008612979534, -0.06622677087264137, -0.06205212456535025, -0.061175766061972545, -0.060089599693325, -0.05982181807069902, -0.05404461142770011, -0.052613361578298226, -0.04892222923661829, -0.04702347284360884, -0.044585329999309885, -0.04427456000990687, -0.04098527095573565, -0.04015614333976971, -0.03824779866410874]",-0.017173341797669432,"[8, 21, 23, 10, 9, 24, 17, 11, 6, 15]","[0.15382107900803701, 0.13796672767274828, 0.1002705882219953, 0.09843746801034582, 0.09634276610530428, 0.07738714095221629, 0.0653326414441722, 0.05483676222142849, 0.052599381486471815, 0.05037573193471381]","[7, 13, 15, 10, 5, 9, 21, 14, 0, 8]","[-0.1113397102216226, -0.08724800028691425, -0.06635008612979534, -0.06622677087264137, -0.06205212456535025, -0.061175766061972545, -0.060089599693325, -0.05982181807069902, -0.05404461142770011, -0.052613361578298226]",1.1448887814528146,-1.1128720936125218,50,"[7, 13, 15, 10, 5, 9, 21, 14, 0, 8, 4, 23, 17, 2, 6, 24, 22]","[-0.1113397102216226, -0.08724800028691425, -0.06635008612979534, -0.06622677087264137, -0.06205212456535025, -0.061175766061972545, -0.060089599693325, -0.05982181807069902, -0.05404461142770011, -0.052613361578298226, -0.04892222923661829, -0.04702347284360884, -0.044585329999309885, -0.04427456000990687, -0.04098527095573565, -0.04015614333976971, -0.03824779866410874]",-0.017173341797669432,"[8, 21, 23, 10, 9, 24, 17, 11, 6, 15]","[0.15382107900803701, 0.13796672767274828, 0.1002705882219953, 0.09843746801034582, 0.09634276610530428, 0.07738714095221629, 0.0653326414441722, 0.05483676222142849, 0.052599381486471815, 0.05037573193471381]","[7, 13, 15, 10, 5, 9, 21, 14, 0, 8]","[-0.1113397102216226, -0.08724800028691425, -0.06635008612979534, -0.06622677087264137, -0.06205212456535025, -0.061175766061972545, -0.060089599693325, -0.05982181807069902, -0.05404461142770011, -0.052613361578298226]",1.1448887814528146,-1.1128720936125218,50,"[7, 13, 15, 10, 5, 9, 21, 14, 0, 8, 4, 23, 17, 2, 6, 24, 22]","[-0.1113397102216226, -0.08724800028691425, -0.06635008612979534, -0.06622677087264137, -0.06205212456535025, -0.061175766061972545, -0.060089599693325, -0.05982181807069902, -0.05404461142770011, -0.052613361578298226, -0.04892222923661829, -0.04702347284360884, -0.044585329999309885, -0.04427456000990687, -0.04098527095573565, -0.04015614333976971, -0.03824779866410874]",-0.017173341797669432,"[8, 21, 23, 10, 9, 24, 17, 11, 6, 15]","[0.15382107900803701, 0.13796672767274828, 0.1002705882219953, 0.09843746801034582, 0.09634276610530428, 0.07738714095221629, 0.0653326414441722, 0.05483676222142849, 0.052599381486471815, 0.05037573193471381]","[7, 13, 15, 10, 5, 9, 21, 14, 0, 8]","[-0.1113397102216226, -0.08724800028691425, -0.06635008612979534, -0.06622677087264137, -0.06205212456535025, -0.061175766061972545, -0.060089599693325, -0.05982181807069902, -0.05404461142770011, -0.052613361578298226]",1.1448887814528146,-1.1128720936125218
138,23,0,-1,-1,0.0,[],[],[],[],0.0,0.0,0,-1,-1,0.0,[],[],[],[],0.0,0.0,0,-1,-1,0.0,[],[],[],[],0.0,0.0
139,20,20,"[3, 2, 5, 7, 0, 9, 4, 8, 6, 1, 10]","[-0.1326843182486724, -0.08196979749585373, -0.06586830748664, -0.05703857229824974, -0.043698767783776, -0.0382181155148413, -0.03731360184434512, -0.03624330550236305, -0.03194781023281964, -0.031027006989404977, -0.009110073024910532]",0.635303081635176,"[7, 2, 1, 5, 0, 6, 8, 4, 3]","[0.09750417004917805, 0.07533497707729377, 0.06390853052680832, 0.0424184879008146, 0.031012842348201227, 0.01632320635160143, 0.015453949706613795, 0.0126797102809451, 0.01006104412336772]","[3, 2, 5, 7, 0, 9, 4, 8, 6, 1]","[-0.1326843182486724, -0.08196979749585373, -0.06586830748664, -0.05703857229824974, -0.043698767783776, -0.0382181155148413, -0.03731360184434512, -0.03624330550236305, -0.03194781023281964, -0.031027006989404977]",0.36469691836482404,-0.5651196764218765,20,"[3, 2, 5, 7, 0, 9, 4, 8, 6, 1, 10]","[-0.1326843182486724, -0.08196979749585373, -0.06586830748664, -0.05703857229824974, -0.043698767783776, -0.0382181155148413, -0.03731360184434512, -0.03624330550236305, -0.03194781023281964, -0.031027006989404977, -0.009110073024910532]",0.635303081635176,"[7, 2, 1, 5, 0, 6, 8, 4, 3]","[0.09750417004917805, 0.07533497707729377, 0.06390853052680832, 0.0424184879008146, 0.031012842348201227, 0.01632320635160143, 0.015453949706613795, 0.0126797102809451, 0.01006104412336772]","[3, 2, 5, 7, 0, 9, 4, 8, 6, 1]","[-0.1326843182486724, -0.08196979749585373, -0.06586830748664, -0.05703857229824974, -0.043698767783776, -0.0382181155148413, -0.03731360184434512, -0.03624330550236305, -0.03194781023281964, -0.031027006989404977]",0.36469691836482404,-0.5651196764218765,20,"[3, 2, 5, 7, 0, 9, 4, 8, 6, 1, 10]","[-0.1326843182486724, -0.08196979749585373, -0.06586830748664, -0.05703857229824974, -0.043698767783776, -0.0382181155148413, -0.03731360184434512, -0.03624330550236305, -0.03194781023281964, -0.031027006989404977, -0.009110073024910532]",0.635303081635176,"[7, 2, 1, 5, 0, 6, 8, 4, 3]","[0.09750417004917805, 0.07533497707729377, 0.06390853052680832, 0.0424184879008146, 0.031012842348201227, 0.01632320635160143, 0.015453949706613795, 0.0126797102809451, 0.01006104412336772]","[3, 2, 5, 7, 0, 9, 4, 8, 6, 1]","[-0.1326843182486724, -0.08196979749585373, -0.06586830748664, -0.05703857229824974, -0.043698767783776, -0.0382181155148413, -0.03731360184434512, -0.03624330550236305, -0.03194781023281964, -0.031027006989404977]",0.36469691836482404,-0.5651196764218765
140,106,106,[],[],-1.5404637558503609,"[27, 49, 48, 33, 41, 26, 24, 43, 15, 23]","[1.2848119088576724, 1.2565977758717932, 0.8660387096043208, 0.8505516177017975, 0.8491201150431887, 0.8251308692581711, 0.7796198721335673, 0.745924913930027, 0.7293984416824515, 0.6368000946540102]","[18, 31, 29, 38, 34, 13, 24, 0, 44, 6]","[-1.4422218663289867, -0.9538140571630459, -0.7839608506559679, -0.778279234273747, -0.6723562905332684, -0.6332378381937769, -0.6071667719633519, -0.5758291856598892, -0.5069751974315261, -0.48543080970810665]",19.764427917517427,-17.223964161667066,106,[],[],-0.8159885561121492,"[48, 4, 11, 17, 20, 49, 44, 53, 7, 2]","[1.1281233778405995, 1.0661614309928529, 0.9693230114095455, 0.943439600187992, 0.9227447740727782, 0.8077091850527497, 0.7929136365326593, 0.7595581069827848, 0.7481787826591971, 0.6820134712520938]","[10, 25, 16, 34, 19, 32, 40, 37, 17, 47]","[-1.1900017220639607, -1.020515107593435, -0.8765984582649814, -0.8165019077374414, -0.7635464191674669, -0.737530637195006, -0.7115193090583173, -0.6605277858194638, -0.6602904913364666, -0.6085456541904806]",20.846290456675668,-19.03030190056352,106,[],[],-0.5614906011391945,"[47, 10, 21, 45, 18, 3, 4, 43, 5, 19]","[1.0334529748640575, 0.908359951670805, 0.7587698239002612, 0.7437338984198238, 0.7164733133280841, 0.7100047066757517, 0.6038498843351542, 0.5803497302499516, 0.5041067287528939, 0.4854009737654495]","[24, 20, 32, 5, 17, 6, 38, 10, 42, 35]","[-1.2927988320675008, -0.9193117514748994, -0.7266024474477374, -0.7054286923380406, -0.684008840763826, -0.6682570321776742, -0.6422903389049949, -0.6126454977855248, -0.5722995489631256, -0.5647334392883003]",18.622391238932742,-17.060900637793548
141,32,32,"[12, 0, 13, 1, 9, 3, 6, 11, 14, 19, 17, 4, 18, 7, 2, 15, 10, 5, 8, 16]","[-0.08680250016850116, -0.0756786845913723, -0.06033680262826258, -0.058607437763731424, -0.05088241867462138, -0.045582356656177304, -0.032338460991695454, -0.0313076932297278, -0.02764174125799224, -0.023810073021362007, -0.021622312142047313, -0.006524960038699814, -0.005344148977114884, -0.005072555080648134, -0.003971540540103236, -0.0036067945957633132, -0.002329524260477413, -0.0017941790453334869, -0.0015164570629298637, -0.0009915558840665176]",0.5588891898076175,"[9, 1, 11, 4, 10, 3, 5, 0, 8, 6]","[0.10726006504657751, 0.06614870545181026, 0.05713420802851424, 0.051666335840097284, 0.047590416116647355, 0.047537109681600714, 0.03562115075602869, 0.013583744694757987, 0.00736190352045372, 0.003850353840232088]","[12, 0, 13, 1, 9, 3, 6, 11, 14, 19]","[-0.08680250016850116, -0.0756786845913723, -0.06033680262826258, -0.058607437763731424, -0.05088241867462138, -0.045582356656177304, -0.032338460991695454, -0.0313076932297278, -0.02764174125799224, -0.023810073021362007]",0.4411108101923823,-0.5457621966106275,32,"[12, 0, 13, 1, 9, 3, 6, 11, 14, 19, 17, 4, 18, 7, 2, 15, 10, 5, 8, 16]","[-0.08680250016850116, -0.0756786845913723, -0.06033680262826258, -0.058607437763731424, -0.05088241867462138, -0.045582356656177304, -0.032338460991695454, -0.0313076932297278, -0.02764174125799224, -0.023810073021362007, -0.021622312142047313, -0.006524960038699814, -0.005344148977114884, -0.005072555080648134, -0.003971540540103236, -0.0036067945957633132, -0.002329524260477413, -0.0017941790453334869, -0.0015164570629298637, -0.0009915558840665176]",0.5588891898076175,"[9, 1, 11, 4, 10, 3, 5, 0, 8, 6]","[0.10726006504657751, 0.06614870545181026, 0.05713420802851424, 0.051666335840097284, 0.047590416116647355, 0.047537109681600714, 0.03562115075602869, 0.013583744694757987, 0.00736190352045372, 0.003850353840232088]","[12, 0, 13, 1, 9, 3, 6, 11, 14, 19]","[-0.08680250016850116, -0.0756786845913723, -0.06033680262826258, -0.058607437763731424, -0.05088241867462138, -0.045582356656177304, -0.032338460991695454, -0.0313076932297278, -0.02764174125799224, -0.023810073021362007]",0.4411108101923823,-0.5457621966106275,32,"[12, 0, 13, 1, 9, 3, 6, 11, 14, 19, 17, 4, 18, 7, 2, 15, 10, 5, 8, 16]","[-0.08680250016850116, -0.0756786845913723, -0.06033680262826258, -0.058607437763731424, -0.05088241867462138, -0.045582356656177304, -0.032338460991695454, -0.0313076932297278, -0.02764174125799224, -0.023810073021362007, -0.021622312142047313, -0.006524960038699814, -0.005344148977114884, -0.005072555080648134, -0.003971540540103236, -0.0036067945957633132, -0.002329524260477413, -0.0017941790453334869, -0.0015164570629298637, -0.0009915558840665176]",0.5588891898076175,"[9, 1, 11, 4, 10, 3, 5, 0, 8, 6]","[0.10726006504657751, 0.06614870545181026, 0.05713420802851424, 0.051666335840097284, 0.047590416116647355, 0.047537109681600714, 0.03562115075602869, 0.013583744694757987, 0.00736190352045372, 0.003850353840232088]","[12, 0, 13, 1, 9, 3, 6, 11, 14, 19]","[-0.08680250016850116, -0.0756786845913723, -0.06033680262826258, -0.058607437763731424, -0.05088241867462138, -0.045582356656177304, -0.032338460991695454, -0.0313076932297278, -0.02764174125799224, -0.023810073021362007]",0.4411108101923823,-0.5457621966106275
142,19,0,-1,-1,0.0,[],[],[],[],0.0,0.0,0,-1,-1,0.0,[],[],[],[],0.0,0.0,0,-1,-1,0.0,[],[],[],[],0.0,0.0
143,205,0,-1,-1,0.0,[],[],[],[],0.0,0.0,0,-1,-1,0.0,[],[],[],[],0.0,0.0,0,-1,-1,0.0,[],[],[],[],0.0,0.0
144,315,315,[49],[-1.2173442691912575],-0.4316378376226657,"[27, 149, 79, 61, 133, 43, 14, 104, 66, 26]","[1.371783588910028, 1.2623871009885408, 1.2199202772749511, 1.186269509070497, 1.1546939202503355, 1.0942840757976562, 1.053420901208595, 1.0272711115119453, 0.9876844191620987, 0.9836274341955622]","[49, 108, 41, 64, 75, 30, 137, 12, 152, 123]","[-1.2173442691912575, -1.0302407798693136, -1.025799339877552, -0.9821488914165685, -0.9570889049763028, -0.9346133119809391, -0.9263559940827115, -0.8542689389590674, -0.8458152337547488, -0.8364527464750914]",61.26967534274894,-61.05538177431753,315,[49],[-1.2173442691912575],-0.4316378376226657,"[27, 149, 79, 61, 133, 43, 14, 104, 66, 26]","[1.371783588910028, 1.2623871009885408, 1.2199202772749511, 1.186269509070497, 1.1546939202503355, 1.0942840757976562, 1.053420901208595, 1.0272711115119453, 0.9876844191620987, 0.9836274341955622]","[49, 108, 41, 64, 75, 30, 137, 12, 152, 123]","[-1.2173442691912575, -1.0302407798693136, -1.025799339877552, -0.9821488914165685, -0.9570889049763028, -0.9346133119809391, -0.9263559940827115, -0.8542689389590674, -0.8458152337547488, -0.8364527464750914]",61.26967534274894,-61.05538177431753,315,[49],[-1.2173442691912575],-0.4316378376226657,"[27, 149, 79, 61, 133, 43, 14, 104, 66, 26]","[1.371783588910028, 1.2623871009885408, 1.2199202772749511, 1.186269509070497, 1.1546939202503355, 1.0942840757976562, 1.053420901208595, 1.0272711115119453, 0.9876844191620987, 0.9836274341955622]","[49, 108, 41, 64, 75, 30, 137, 12, 152, 123]","[-1.2173442691912575, -1.0302407798693136, -1.025799339877552, -0.9821488914165685, -0.9570889049763028, -0.9346133119809391, -0.9263559940827115, -0.8542689389590674, -0.8458152337547488, -0.8364527464750914]",61.26967534274894,-61.05538177431753
145,28,28,"[15, 5, 9, 0, 8, 10, 13, 1, 11, 3, 6, 14, 4, 12, 7, 2]","[-0.019519031731251628, -0.01906796491264085, -0.01801303682228587, -0.017034011849872955, -0.01674533111492647, -0.014053410944045207, -0.013857440749937125, -0.008141621478079343, -0.007340624599622449, -0.006397931079411067, -0.003208193388323908, -0.0020634989019545735, -0.001211941344759061, -0.0011896144477012345, -0.0011547267272894498, -4.413621672822641e-05]",0.874549294174917,"[3, 5, 9, 11, 2, 1, 7, 10, 4, 8]","[0.023071489923894305, 0.022900852258328535, 0.018771167719662828, 0.01615863882399819, 0.014593669530543718, 0.007868263978815286, 0.007488252292102412, 0.00706787890714612, 0.005838897949775854, 0.0006631327427801807]","[15, 5, 9, 0, 8, 10, 13, 1, 11, 3]","[-0.019519031731251628, -0.01906796491264085, -0.01801303682228587, -0.017034011849872955, -0.01674533111492647, -0.014053410944045207, -0.013857440749937125, -0.008141621478079343, -0.007340624599622449, -0.006397931079411067]",0.12545070582508275,-0.14904251630882942,28,"[15, 5, 9, 0, 8, 10, 13, 1, 11, 3, 6, 14, 4, 12, 7, 2]","[-0.019519031731251628, -0.01906796491264085, -0.01801303682228587, -0.017034011849872955, -0.01674533111492647, -0.014053410944045207, -0.013857440749937125, -0.008141621478079343, -0.007340624599622449, -0.006397931079411067, -0.003208193388323908, -0.0020634989019545735, -0.001211941344759061, -0.0011896144477012345, -0.0011547267272894498, -4.413621672822641e-05]",0.874549294174917,"[3, 5, 9, 11, 2, 1, 7, 10, 4, 8]","[0.023071489923894305, 0.022900852258328535, 0.018771167719662828, 0.01615863882399819, 0.014593669530543718, 0.007868263978815286, 0.007488252292102412, 0.00706787890714612, 0.005838897949775854, 0.0006631327427801807]","[15, 5, 9, 0, 8, 10, 13, 1, 11, 3]","[-0.019519031731251628, -0.01906796491264085, -0.01801303682228587, -0.017034011849872955, -0.01674533111492647, -0.014053410944045207, -0.013857440749937125, -0.008141621478079343, -0.007340624599622449, -0.006397931079411067]",0.12545070582508275,-0.14904251630882942,28,"[15, 5, 9, 0, 8, 10, 13, 1, 11, 3, 6, 14, 4, 12, 7, 2]","[-0.019519031731251628, -0.01906796491264085, -0.01801303682228587, -0.017034011849872955, -0.01674533111492647, -0.014053410944045207, -0.013857440749937125, -0.008141621478079343, -0.007340624599622449, -0.006397931079411067, -0.003208193388323908, -0.0020634989019545735, -0.001211941344759061, -0.0011896144477012345, -0.0011547267272894498, -4.413621672822641e-05]",0.874549294174917,"[3, 5, 9, 11, 2, 1, 7, 10, 4, 8]","[0.023071489923894305, 0.022900852258328535, 0.018771167719662828, 0.01615863882399819, 0.014593669530543718, 0.007868263978815286, 0.007488252292102412, 0.00706787890714612, 0.005838897949775854, 0.0006631327427801807]","[15, 5, 9, 0, 8, 10, 13, 1, 11, 3]","[-0.019519031731251628, -0.01906796491264085, -0.01801303682228587, -0.017034011849872955, -0.01674533111492647, -0.014053410944045207, -0.013857440749937125, -0.008141621478079343, -0.007340624599622449, -0.006397931079411067]",0.12545070582508275,-0.14904251630882942
146,19,19,"[6, 1, 12, 0, 5, 8, 16, 2, 4, 15, 9, 3, 14, 13, 10, 7, 11]","[-0.006393218558939203, -0.005732540739182091, -0.005644549027964321, -0.004575184259359355, -0.0032977638845448757, -0.0031185306712791495, -0.002980850038270716, -0.002835771198236518, -0.0027182287682001515, -0.002215532737476337, -0.0020879409422375566, -0.0018488326794683782, -0.0016418151015634922, -0.0015224129374899248, -0.0014653057038596534, -0.0010410113901715657, -0.0009090043402256741]",0.9692053271286105,"[0, 1]","[0.015866884735017503, 0.014927788136372128]","[6, 1, 12, 0, 5, 8, 16, 2, 4, 15]","[-0.006393218558939203, -0.005732540739182091, -0.005644549027964321, -0.004575184259359355, -0.0032977638845448757, -0.0031185306712791495, -0.002980850038270716, -0.002835771198236518, -0.0027182287682001515, -0.002215532737476337]",0.03079467287138963,-0.05002849297846896,19,"[6, 1, 12, 0, 5, 8, 16, 2, 4, 15, 9, 3, 14, 13, 10, 7, 11]","[-0.006393218558939203, -0.005732540739182091, -0.005644549027964321, -0.004575184259359355, -0.0032977638845448757, -0.0031185306712791495, -0.002980850038270716, -0.002835771198236518, -0.0027182287682001515, -0.002215532737476337, -0.0020879409422375566, -0.0018488326794683782, -0.0016418151015634922, -0.0015224129374899248, -0.0014653057038596534, -0.0010410113901715657, -0.0009090043402256741]",0.9692053271286105,"[0, 1]","[0.015866884735017503, 0.014927788136372128]","[6, 1, 12, 0, 5, 8, 16, 2, 4, 15]","[-0.006393218558939203, -0.005732540739182091, -0.005644549027964321, -0.004575184259359355, -0.0032977638845448757, -0.0031185306712791495, -0.002980850038270716, -0.002835771198236518, -0.0027182287682001515, -0.002215532737476337]",0.03079467287138963,-0.05002849297846896,19,"[6, 1, 12, 0, 5, 8, 16, 2, 4, 15, 9, 3, 14, 13, 10, 7, 11]","[-0.006393218558939203, -0.005732540739182091, -0.005644549027964321, -0.004575184259359355, -0.0032977638845448757, -0.0031185306712791495, -0.002980850038270716, -0.002835771198236518, -0.0027182287682001515, -0.002215532737476337, -0.0020879409422375566, -0.0018488326794683782, -0.0016418151015634922, -0.0015224129374899248, -0.0014653057038596534, -0.0010410113901715657, -0.0009090043402256741]",0.9692053271286105,"[0, 1]","[0.015866884735017503, 0.014927788136372128]","[6, 1, 12, 0, 5, 8, 16, 2, 4, 15]","[-0.006393218558939203, -0.005732540739182091, -0.005644549027964321, -0.004575184259359355, -0.0032977638845448757, -0.0031185306712791495, -0.002980850038270716, -0.002835771198236518, -0.0027182287682001515, -0.002215532737476337]",0.03079467287138963,-0.05002849297846896
147,64,64,"[30, 18]","[-0.4707432690164423, -0.31696531145835355]",-0.27994979304339007,"[29, 1, 26, 13, 19, 5, 15, 4, 21, 14]","[0.3947632162615423, 0.30057415550929906, 0.25012361572933683, 0.2226393548045003, 0.1814039358798136, 0.17764405675676762, 0.17730472521915336, 0.1729895549947059, 0.15770457025478696, 0.1562924561361639]","[30, 18, 21, 0, 11, 20, 4, 6, 16, 5]","[-0.4707432690164423, -0.31696531145835355, -0.278627168051381, -0.24902952063970712, -0.2199499034536414, -0.18031824439334743, -0.15688889970977443, -0.14621240537931754, -0.13506635448108767, -0.13279716720485876]",4.026355893240619,-3.5341146806720247,64,"[29, 17]","[-0.41945328279407, -0.3134796185634867]",-0.19884546918917434,"[30, 0, 27, 13, 24, 15, 4, 20, 11, 3]","[0.3688226591710619, 0.27455829387129455, 0.2280988144497118, 0.21384865849783796, 0.1769431585670356, 0.17409672714006963, 0.17126617964839058, 0.16846575132928718, 0.15112592118671683, 0.14928006130308746]","[29, 17, 1, 20, 12, 19, 5, 10, 7, 2]","[-0.41945328279407, -0.3134796185634867, -0.2523507186626992, -0.2405270544430992, -0.2286881919827847, -0.18221800097849075, -0.152632593341524, -0.13717267122813673, -0.11570639946631493, -0.11069747821874067]",3.769052687201116,-3.3031401193694983,64,"[29, 17]","[-0.41945328279407, -0.3134796185634867]",-0.19884546918917434,"[30, 0, 27, 13, 24, 15, 4, 20, 11, 3]","[0.3688226591710619, 0.27455829387129455, 0.2280988144497118, 0.21384865849783796, 0.1769431585670356, 0.17409672714006963, 0.17126617964839058, 0.16846575132928718, 0.15112592118671683, 0.14928006130308746]","[29, 17, 1, 20, 12, 19, 5, 10, 7, 2]","[-0.41945328279407, -0.3134796185634867, -0.2523507186626992, -0.2405270544430992, -0.2286881919827847, -0.18221800097849075, -0.152632593341524, -0.13717267122813673, -0.11570639946631493, -0.11069747821874067]",3.769052687201116,-3.3031401193694983
148,35,35,"[8, 13, 11, 6, 10, 12, 5, 3, 15, 14, 4, 0, 7]","[-0.130536273885816, -0.10221506649909744, -0.09731358180229616, -0.09335750368040657, -0.09299007091332714, -0.08542779329860292, -0.07832306983784505, -0.06994117395812768, -0.0683761996613705, -0.06794557453088149, -0.053426668640240337, -0.04258630878999263, -0.039671999419982104]",-0.015140281732394206,"[7, 1, 15, 2, 6, 3, 12, 5, 18, 4]","[0.1029212379323249, 0.09196998100939036, 0.09140907374682791, 0.08541045346263315, 0.08357196587628325, 0.08097558491838228, 0.0788121632295566, 0.0753453554212407, 0.06886135071864714, 0.06177732664743667]","[8, 13, 11, 6, 10, 12, 5, 3, 15, 14]","[-0.130536273885816, -0.10221506649909744, -0.09731358180229616, -0.09335750368040657, -0.09299007091332714, -0.08542779329860292, -0.07832306983784505, -0.06994117395812768, -0.0683761996613705, -0.06794557453088149]",1.087361388295964,-1.094332391481556,35,"[8, 13, 11, 6, 10, 12, 5, 3, 15, 14, 4, 0, 7]","[-0.130536273885816, -0.10221506649909744, -0.09731358180229616, -0.09335750368040657, -0.09299007091332714, -0.08542779329860292, -0.07832306983784505, -0.06994117395812768, -0.0683761996613705, -0.06794557453088149, -0.053426668640240337, -0.04258630878999263, -0.039671999419982104]",-0.015140281732394206,"[7, 1, 15, 2, 6, 3, 12, 5, 18, 4]","[0.1029212379323249, 0.09196998100939036, 0.09140907374682791, 0.08541045346263315, 0.08357196587628325, 0.08097558491838228, 0.0788121632295566, 0.0753453554212407, 0.06886135071864714, 0.06177732664743667]","[8, 13, 11, 6, 10, 12, 5, 3, 15, 14]","[-0.130536273885816, -0.10221506649909744, -0.09731358180229616, -0.09335750368040657, -0.09299007091332714, -0.08542779329860292, -0.07832306983784505, -0.06994117395812768, -0.0683761996613705, -0.06794557453088149]",1.087361388295964,-1.094332391481556,35,"[8, 13, 11, 6, 10, 12, 5, 3, 15, 14, 4, 0, 7]","[-0.130536273885816, -0.10221506649909744, -0.09731358180229616, -0.09335750368040657, -0.09299007091332714, -0.08542779329860292, -0.07832306983784505, -0.06994117395812768, -0.0683761996613705, -0.06794557453088149, -0.053426668640240337, -0.04258630878999263, -0.039671999419982104]",-0.015140281732394206,"[7, 1, 15, 2, 6, 3, 12, 5, 18, 4]","[0.1029212379323249, 0.09196998100939036, 0.09140907374682791, 0.08541045346263315, 0.08357196587628325, 0.08097558491838228, 0.0788121632295566, 0.0753453554212407, 0.06886135071864714, 0.06177732664743667]","[8, 13, 11, 6, 10, 12, 5, 3, 15, 14]","[-0.130536273885816, -0.10221506649909744, -0.09731358180229616, -0.09335750368040657, -0.09299007091332714, -0.08542779329860292, -0.07832306983784505, -0.06994117395812768, -0.0683761996613705, -0.06794557453088149]",1.087361388295964,-1.094332391481556
149,31,0,-1,-1,0.0,[],[],[],[],0.0,0.0,0,-1,-1,0.0,[],[],[],[],0.0,0.0,0,-1,-1,0.0,[],[],[],[],0.0,0.0
150,306,0,-1,-1,0.0,[],[],[],[],0.0,0.0,0,-1,-1,0.0,[],[],[],[],0.0,0.0,306,[110],[-5.625296447706767],-2.93845872606044,"[126, 102, 67, 98, 109, 120, 5, 51, 135, 55]","[6.236879081495423, 5.650314094060204, 5.509309157514509, 4.872981399780749, 3.7898587750855506, 3.5741735762408253, 3.52331727215916, 3.522965825785425, 3.447117779927719, 3.342823163803066]","[110, 136, 40, 69, 113, 74, 131, 41, 18, 129]","[-5.625296447706767, -4.290868731858663, -4.179745592518052, -4.146799887933479, -4.06072315324405, -3.8336698491574945, -3.5885302451519383, -3.457098088599865, -3.437085345890193, -3.3749752616187294]",228.76894378551253,-230.45578150715886
151,105,105,"[39, 51, 37, 43, 48, 8, 12, 47, 32, 36, 27, 29, 13, 2, 9, 26, 18, 45, 38, 19, 1, 5, 31, 44, 25, 33, 16, 41, 21, 11, 10, 6, 23, 22, 28, 24, 17, 53, 42, 46, 20, 50, 49, 52, 7, 14, 3, 0, 30, 40, 54, 4, 15, 35, 34]","[-0.029539257415078204, -0.025632164688804155, -0.024350133748651342, -0.02419993607311128, -0.022982709261959073, -0.022787881440190488, -0.022612804153190943, -0.02202718558144175, -0.021395743630981144, -0.020309896723988894, -0.019412072768337757, -0.018799259307867355, -0.017908553118001692, -0.016630724610860428, -0.016513886425958867, -0.01603286496036884, -0.015799367977196017, -0.015777688482766124, -0.015589454099226059, -0.015290896760001994, -0.014145207819290075, -0.013422547967704881, -0.013278597913167997, -0.012938816198013299, -0.01269750845150628, -0.012636434259713728, -0.012563205350969362, -0.012504945833970353, -0.0120689884263898, -0.011644766310957073, -0.011526541710891982, -0.011302827704629696, -0.011114997977421381, -0.009554090595676735, -0.009293938135639626, -0.00916867668970072, -0.008462194433579524, -0.008133712198152034, -0.006379511948239537, -0.006332840167233553, -0.006163011701834848, -0.005634593439268293, -0.004663496307020736, -0.004493417604524223, -0.003959371154123995, -0.003414037551701207, -0.0027321619303024387, -0.002138355653447239, -0.0020210086576835616, -0.0018610873195082063, -0.0018198560891877489, -0.0017772450163697521, -0.0006386221084390938, -0.0003990272620933549, -0.00019586351593558896]",0.33877735566895073,"[10, 9, 15, 3, 33, 12, 26, 41, 49, 38]","[0.040337795402784, 0.03950048990697787, 0.03743855193640581, 0.03342157980142661, 0.0330142525909729, 0.03055452067875334, 0.023958224982825384, 0.023944003061871385, 0.02310154542181145, 0.022579723113366396]","[39, 51, 37, 43, 48, 8, 12, 47, 32, 36]","[-0.029539257415078204, -0.025632164688804155, -0.024350133748651342, -0.02419993607311128, -0.022982709261959073, -0.022787881440190488, -0.022612804153190943, -0.02202718558144175, -0.021395743630981144, -0.020309896723988894]",0.6612226443310493,-0.6646739866322705,105,"[39, 51, 37, 43, 48, 8, 12, 47, 32, 36, 27, 29, 13, 2, 9, 26, 18, 45, 38, 19, 1, 5, 31, 44, 25, 33, 16, 41, 21, 11, 10, 6, 23, 22, 28, 24, 17, 53, 42, 46, 20, 50, 49, 52, 7, 14, 3, 0, 30, 40, 54, 4, 15, 35, 34]","[-0.029539257415078204, -0.025632164688804155, -0.024350133748651342, -0.02419993607311128, -0.022982709261959073, -0.022787881440190488, -0.022612804153190943, -0.02202718558144175, -0.021395743630981144, -0.020309896723988894, -0.019412072768337757, -0.018799259307867355, -0.017908553118001692, -0.016630724610860428, -0.016513886425958867, -0.01603286496036884, -0.015799367977196017, -0.015777688482766124, -0.015589454099226059, -0.015290896760001994, -0.014145207819290075, -0.013422547967704881, -0.013278597913167997, -0.012938816198013299, -0.01269750845150628, -0.012636434259713728, -0.012563205350969362, -0.012504945833970353, -0.0120689884263898, -0.011644766310957073, -0.011526541710891982, -0.011302827704629696, -0.011114997977421381, -0.009554090595676735, -0.009293938135639626, -0.00916867668970072, -0.008462194433579524, -0.008133712198152034, -0.006379511948239537, -0.006332840167233553, -0.006163011701834848, -0.005634593439268293, -0.004663496307020736, -0.004493417604524223, -0.003959371154123995, -0.003414037551701207, -0.0027321619303024387, -0.002138355653447239, -0.0020210086576835616, -0.0018610873195082063, -0.0018198560891877489, -0.0017772450163697521, -0.0006386221084390938, -0.0003990272620933549, -0.00019586351593558896]",0.33877735566895073,"[10, 9, 15, 3, 33, 12, 26, 41, 49, 38]","[0.040337795402784, 0.03950048990697787, 0.03743855193640581, 0.03342157980142661, 0.0330142525909729, 0.03055452067875334, 0.023958224982825384, 0.023944003061871385, 0.02310154542181145, 0.022579723113366396]","[39, 51, 37, 43, 48, 8, 12, 47, 32, 36]","[-0.029539257415078204, -0.025632164688804155, -0.024350133748651342, -0.02419993607311128, -0.022982709261959073, -0.022787881440190488, -0.022612804153190943, -0.02202718558144175, -0.021395743630981144, -0.020309896723988894]",0.6612226443310493,-0.6646739866322705,105,"[39, 51, 37, 43, 48, 8, 12, 47, 32, 36, 27, 29, 13, 2, 9, 26, 18, 45, 38, 19, 1, 5, 31, 44, 25, 33, 16, 41, 21, 11, 10, 6, 23, 22, 28, 24, 17, 53, 42, 46, 20, 50, 49, 52, 7, 14, 3, 0, 30, 40, 54, 4, 15, 35, 34]","[-0.029539257415078204, -0.025632164688804155, -0.024350133748651342, -0.02419993607311128, -0.022982709261959073, -0.022787881440190488, -0.022612804153190943, -0.02202718558144175, -0.021395743630981144, -0.020309896723988894, -0.019412072768337757, -0.018799259307867355, -0.017908553118001692, -0.016630724610860428, -0.016513886425958867, -0.01603286496036884, -0.015799367977196017, -0.015777688482766124, -0.015589454099226059, -0.015290896760001994, -0.014145207819290075, -0.013422547967704881, -0.013278597913167997, -0.012938816198013299, -0.01269750845150628, -0.012636434259713728, -0.012563205350969362, -0.012504945833970353, -0.0120689884263898, -0.011644766310957073, -0.011526541710891982, -0.011302827704629696, -0.011114997977421381, -0.009554090595676735, -0.009293938135639626, -0.00916867668970072, -0.008462194433579524, -0.008133712198152034, -0.006379511948239537, -0.006332840167233553, -0.006163011701834848, -0.005634593439268293, -0.004663496307020736, -0.004493417604524223, -0.003959371154123995, -0.003414037551701207, -0.0027321619303024387, -0.002138355653447239, -0.0020210086576835616, -0.0018610873195082063, -0.0018198560891877489, -0.0017772450163697521, -0.0006386221084390938, -0.0003990272620933549, -0.00019586351593558896]",0.33877735566895073,"[10, 9, 15, 3, 33, 12, 26, 41, 49, 38]","[0.040337795402784, 0.03950048990697787, 0.03743855193640581, 0.03342157980142661, 0.0330142525909729, 0.03055452067875334, 0.023958224982825384, 0.023944003061871385, 0.02310154542181145, 0.022579723113366396]","[39, 51, 37, 43, 48, 8, 12, 47, 32, 36]","[-0.029539257415078204, -0.025632164688804155, -0.024350133748651342, -0.02419993607311128, -0.022982709261959073, -0.022787881440190488, -0.022612804153190943, -0.02202718558144175, -0.021395743630981144, -0.020309896723988894]",0.6612226443310493,-0.6646739866322705
152,22,22,"[10, 2, 8, 9, 13, 0, 3, 4, 6, 12, 11, 1, 7, 5]","[-0.07224296591271942, -0.036110885568373906, -0.033896151873782546, -0.028818428155471535, -0.01534559230786173, -0.012024495400899754, -0.011198118923927068, -0.009482608573348412, -0.007875929530519162, -0.005869372069366145, -0.00479610065507045, -0.0032045142127270893, -0.0026796120068070467, -0.0008415059302248377]",0.7544356299410413,"[6, 7, 2, 3, 1, 0, 5, 4]","[0.08633881501492043, 0.03497804217698403, 0.03214974494286242, 0.02873887419969734, 0.02304224633106897, 0.020406650727490948, 0.010734939700889972, 0.009175056965044722]","[10, 2, 8, 9, 13, 0, 3, 4, 6, 12]","[-0.07224296591271942, -0.036110885568373906, -0.033896151873782546, -0.028818428155471535, -0.01534559230786173, -0.012024495400899754, -0.011198118923927068, -0.009482608573348412, -0.007875929530519162, -0.005869372069366145]",0.24556437005895887,-0.24438628112109909,22,"[10, 2, 8, 9, 13, 0, 3, 4, 6, 12, 11, 1, 7, 5]","[-0.07224296591271942, -0.036110885568373906, -0.033896151873782546, -0.028818428155471535, -0.01534559230786173, -0.012024495400899754, -0.011198118923927068, -0.009482608573348412, -0.007875929530519162, -0.005869372069366145, -0.00479610065507045, -0.0032045142127270893, -0.0026796120068070467, -0.0008415059302248377]",0.7544356299410413,"[6, 7, 2, 3, 1, 0, 5, 4]","[0.08633881501492043, 0.03497804217698403, 0.03214974494286242, 0.02873887419969734, 0.02304224633106897, 0.020406650727490948, 0.010734939700889972, 0.009175056965044722]","[10, 2, 8, 9, 13, 0, 3, 4, 6, 12]","[-0.07224296591271942, -0.036110885568373906, -0.033896151873782546, -0.028818428155471535, -0.01534559230786173, -0.012024495400899754, -0.011198118923927068, -0.009482608573348412, -0.007875929530519162, -0.005869372069366145]",0.24556437005895887,-0.24438628112109909,22,"[10, 2, 8, 9, 13, 0, 3, 4, 6, 12, 11, 1, 7, 5]","[-0.07224296591271942, -0.036110885568373906, -0.033896151873782546, -0.028818428155471535, -0.01534559230786173, -0.012024495400899754, -0.011198118923927068, -0.009482608573348412, -0.007875929530519162, -0.005869372069366145, -0.00479610065507045, -0.0032045142127270893, -0.0026796120068070467, -0.0008415059302248377]",0.7544356299410413,"[6, 7, 2, 3, 1, 0, 5, 4]","[0.08633881501492043, 0.03497804217698403, 0.03214974494286242, 0.02873887419969734, 0.02304224633106897, 0.020406650727490948, 0.010734939700889972, 0.009175056965044722]","[10, 2, 8, 9, 13, 0, 3, 4, 6, 12]","[-0.07224296591271942, -0.036110885568373906, -0.033896151873782546, -0.028818428155471535, -0.01534559230786173, -0.012024495400899754, -0.011198118923927068, -0.009482608573348412, -0.007875929530519162, -0.005869372069366145]",0.24556437005895887,-0.24438628112109909
